{"learner":{"attributes":{"scikit_learn":"{\"_estimator_type\": \"classifier\"}"},"feature_names":[],"feature_types":[],"gradient_booster":{"model":{"cats":{"enc":[],"feature_segments":[],"sorted_idx":[]},"gbtree_model_param":{"num_parallel_tree":"1","num_trees":"300"},"iteration_indptr":[0,1,2,3,4,5,6,7,8,9,10,11,12,13,14,15,16,17,18,19,20,21,22,23,24,25,26,27,28,29,30,31,32,33,34,35,36,37,38,39,40,41,42,43,44,45,46,47,48,49,50,51,52,53,54,55,56,57,58,59,60,61,62,63,64,65,66,67,68,69,70,71,72,73,74,75,76,77,78,79,80,81,82,83,84,85,86,87,88,89,90,91,92,93,94,95,96,97,98,99,100,101,102,103,104,105,106,107,108,109,110,111,112,113,114,115,116,117,118,119,120,121,122,123,124,125,126,127,128,129,130,131,132,133,134,135,136,137,138,139,140,141,142,143,144,145,146,147,148,149,150,151,152,153,154,155,156,157,158,159,160,161,162,163,164,165,166,167,168,169,170,171,172,173,174,175,176,177,178,179,180,181,182,183,184,185,186,187,188,189,190,191,192,193,194,195,196,197,198,199,200,201,202,203,204,205,206,207,208,209,210,211,212,213,214,215,216,217,218,219,220,221,222,223,224,225,226,227,228,229,230,231,232,233,234,235,236,237,238,239,240,241,242,243,244,245,246,247,248,249,250,251,252,253,254,255,256,257,258,259,260,261,262,263,264,265,266,267,268,269,270,271,272,273,274,275,276,277,278,279,280,281,282,283,284,285,286,287,288,289,290,291,292,293,294,295,296,297,298,299,300],"tree_info":[0,0,0,0,0,0,0,0,0,0,0,0,0,0,0,0,0,0,0,0,0,0,0,0,0,0,0,0,0,0,0,0,0,0,0,0,0,0,0,0,0,0,0,0,0,0,0,0,0,0,0,0,0,0,0,0,0,0,0,0,0,0,0,0,0,0,0,0,0,0,0,0,0,0,0,0,0,0,0,0,0,0,0,0,0,0,0,0,0,0,0,0,0,0,0,0,0,0,0,0,0,0,0,0,0,0,0,0,0,0,0,0,0,0,0,0,0,0,0,0,0,0,0,0,0,0,0,0,0,0,0,0,0,0,0,0,0,0,0,0,0,0,0,0,0,0,0,0,0,0,0,0,0,0,0,0,0,0,0,0,0,0,0,0,0,0,0,0,0,0,0,0,0,0,0,0,0,0,0,0,0,0,0,0,0,0,0,0,0,0,0,0,0,0,0,0,0,0,0,0,0,0,0,0,0,0,0,0,0,0,0,0,0,0,0,0,0,0,0,0,0,0,0,0,0,0,0,0,0,0,0,0,0,0,0,0,0,0,0,0,0,0,0,0,0,0,0,0,0,0,0,0,0,0,0,0,0,0,0,0,0,0,0,0,0,0,0,0,0,0,0,0,0,0,0,0,0,0,0,0,0,0,0,0,0,0,0,0,0,0,0,0,0,0,0,0,0,0,0,0],"trees":[{"base_weights":[1.2544614E-2,3.6647084E-1,-2.3290389E0,-8.383871E-1,5.7748526E-1,-2.602537E0,-4.658289E-1,4.3079716E-1,-1.543638E0,-1.5411822E0,6.664525E-1,-2.6859338E0,-6.6952296E-3,4.404224E-2,-1.3268803E0,-1.3200438E0,7.831992E-1,-8.282964E-1,-2.4848785E0,3.2913408E-1,-2.051864E0,-1.0956985E-1,7.063525E-1,-2.7371936E0,-2.211119E-2,-1.12789154E-1,1.6048979E-2,-1.01166606E-1,1.5299054E-2,-6.514105E-2,1.0119321E0,-1.475174E0,3.450754E-1,-8.473045E-3,-2.6426027E0,-3.224514E-2,4.7548633E-2,-2.413143E0,5.9144306E-3,2.1112713E-1,9.035232E-1,-2.8078046E0,-8.460194E-1,6.3272946E-2,-2.6708191E-2,-4.334191E-3,-9.5851496E-2,-7.902037E-2,5.0902404E-2,-1.3769105E-1,-3.224514E-2,-1.3270748E-1,-4.2857807E-2,-8.8522725E-2,1.5686372E-2,4.7190804E-2,-7.822935E-2,-1.4324154E-1,-4.2857807E-2,-7.978933E-2,1.5299054E-2],"categories":[],"categories_nodes":[],"categories_segments":[],"categories_sizes":[],"default_left":[0,0,0,0,0,0,0,0,0,0,0,0,0,0,0,0,0,0,0,0,0,0,0,0,0,0,0,0,0,0,0,0,0,0,0,0,0,0,0,0,0,0,0,0,0,0,0,0,0,0,0,0,0,0,0,0,0,0,0,0,0],"id":0,"left_children":[1,3,5,7,9,11,13,15,17,19,21,23,-1,-1,25,27,29,31,33,35,37,-1,39,41,-1,-1,-1,-1,-1,-1,43,45,47,-1,49,-1,-1,51,-1,53,55,57,59,-1,-1,-1,-1,-1,-1,-1,-1,-1,-1,-1,-1,-1,-1,-1,-1,-1,-1],"loss_changes":[3.8095987E2,1.0200151E2,2.9545074E1,5.429591E1,6.518548E1,1.0431152E1,1.1539614E1,1.4721062E1,2.402108E1,1.4065414E1,3.887587E1,4.614746E0,0E0,0E0,9.685624E0,5.2954283E0,1.0429014E1,1.8351858E1,5.477745E0,2.956469E0,9.02771E0,0E0,3.140747E1,4.2113037E0,0E0,0E0,0E0,0E0,0E0,0E0,7.641487E0,9.246933E0,1.3484222E1,0E0,1.5839386E0,0E0,0E0,1.3271828E0,0E0,1.9556274E1,2.4463898E1,2.785736E0,3.2579348E0,0E0,0E0,0E0,0E0,0E0,0E0,0E0,0E0,0E0,0E0,0E0,0E0,0E0,0E0,0E0,0E0,0E0,0E0],"parents":[2147483647,0,0,1,1,2,2,3,3,4,4,5,5,6,6,7,7,8,8,9,9,10,10,11,11,14,14,15,15,16,16,17,17,18,18,19,19,20,20,22,22,23,23,30,30,31,31,32,32,34,34,37,37,39,39,40,40,41,41,42,42],"right_children":[2,4,6,8,10,12,14,16,18,20,22,24,-1,-1,26,28,30,32,34,36,38,-1,40,42,-1,-1,-1,-1,-1,-1,44,46,48,-1,50,-1,-1,52,-1,54,56,58,60,-1,-1,-1,-1,-1,-1,-1,-1,-1,-1,-1,-1,-1,-1,-1,-1,-1,-1],"split_conditions":[1.1313834E0,-6.817268E-1,1.5466543E-1,-1.0734563E0,-1.2604971E0,1.044849E0,2.0451126E-1,-1.2995905E0,7.2344565E-1,1.5451519E-1,-1.7270507E0,1.0859869E0,-6.6952296E-3,4.404224E-2,-2.5260898E-1,5.093073E-1,-4.8445705E-1,-5.242505E-6,-4.24361E-1,-1.4291792E0,2.0880232E0,-1.0956985E-1,-6.6485804E-1,8.85921E-1,-2.211119E-2,-1.12789154E-1,1.6048979E-2,-1.01166606E-1,1.5299054E-2,-6.514105E-2,1.2952943E-1,2.3558117E-1,-8.549026E-1,-8.473045E-3,3.996117E-1,-3.224514E-2,4.7548633E-2,3.9800912E-1,5.9144306E-3,-1.2926414E0,1.200972E0,1.7115933E0,-1.0308297E0,6.3272946E-2,-2.6708191E-2,-4.334191E-3,-9.5851496E-2,-7.902037E-2,5.0902404E-2,-1.3769105E-1,-3.224514E-2,-1.3270748E-1,-4.2857807E-2,-8.8522725E-2,1.5686372E-2,4.7190804E-2,-7.822935E-2,-1.4324154E-1,-4.2857807E-2,-7.978933E-2,1.5299054E-2],"split_indices":[610,748,334,86,733,576,174,158,358,708,481,100,0,0,298,729,559,174,12,47,343,0,699,500,0,0,0,0,0,0,679,374,298,0,682,0,0,102,0,554,250,652,2,0,0,0,0,0,0,0,0,0,0,0,0,0,0,0,0,0,0],"split_type":[0,0,0,0,0,0,0,0,0,0,0,0,0,0,0,0,0,0,0,0,0,0,0,0,0,0,0,0,0,0,0,0,0,0,0,0,0,0,0,0,0,0,0,0,0,0,0,0,0,0,0,0,0,0,0,0,0,0,0,0,0],"sum_hessian":[4.576514E2,3.9829355E2,5.9357872E1,5.891655E1,3.3937698E2,5.141407E1,7.9438047E0,2.118348E1,3.773307E1,1.3019013E1,3.2635797E2,4.9648777E1,1.7652899E0,3.0892572E0,4.854547E0,3.0892572E0,1.8094221E1,2.2507446E1,1.5225625E1,2.868596E0,1.0150417E1,3.751241E0,3.2260672E2,4.832481E1,1.3239675E0,2.868596E0,1.9859512E0,1.9859512E0,1.1033062E0,1.3239675E0,1.6770254E1,1.434298E1,8.164466E0,1.1033062E0,1.4122319E1,1.1033062E0,1.7652899E0,8.605788E0,1.5446286E0,9.245706E1,2.3014967E2,4.61182E1,2.2066123E0,1.4563642E1,2.2066123E0,3.751241E0,1.059174E1,1.7652899E0,6.399176E0,1.3019013E1,1.1033062E0,6.8404984E0,1.7652899E0,3.751241E0,8.870582E1,2.2706041E2,3.0892572E0,4.435291E1,1.7652899E0,1.1033062E0,1.1033062E0],"tree_param":{"num_deleted":"0","num_feature":"768","num_nodes":"61","size_leaf_vector":"1"}},{"base_weights":[-1.2805864E-2,2.7183777E-1,-2.2855034E0,-1.8036557E0,3.850337E-1,-2.565142E0,-6.727012E-1,-2.0578084E0,4.4524565E-2,-4.9949807E-1,5.746861E-1,-1.34679E-1,-7.3174244E-1,-1.809513E0,9.3182045E-1,3.8917303E-2,-2.26736E0,-1.1876059E-2,-1.6229239E0,6.541163E-1,-8.5835826E-1,-7.8393534E-2,4.0644374E-2,-6.560409E-3,-1.1042615E-1,5.261909E-2,1.5050306E-2,-2.5385535E0,-2.7889182E-4,-1.07809E0,4.4345504E-1,-2.1131089E0,-4.541476E-1,6.9991267E-1,-1.6204141E0,-1.4947302E0,3.62275E-1,-1.318775E-1,-3.0846993E-2,5.216659E-3,-1.0114675E-1,3.4531187E-2,-9.0520605E-2,1.5497344E-2,-1.1691251E-1,-8.9324035E-2,2.878136E-2,1.5492629E-3,4.2943057E-2,-7.7460743E-3,-1.0756134E-1,-9.373098E-2,4.1594658E-2,5.0605547E-2,-6.434541E-2],"categories":[],"categories_nodes":[],"categories_segments":[],"categories_sizes":[],"default_left":[0,0,0,0,0,0,0,0,0,0,0,0,0,0,0,0,0,0,0,0,0,0,0,0,0,0,0,0,0,0,0,0,0,0,0,0,0,0,0,0,0,0,0,0,0,0,0,0,0,0,0,0,0,0,0],"id":1,"left_children":[1,3,5,7,9,11,13,15,-1,17,19,-1,21,23,25,-1,27,29,31,33,35,-1,-1,-1,-1,-1,-1,37,-1,39,41,43,45,47,49,51,53,-1,-1,-1,-1,-1,-1,-1,-1,-1,-1,-1,-1,-1,-1,-1,-1,-1,-1],"loss_changes":[2.960844E2,9.62642E1,2.1249573E1,1.6358505E1,6.513618E1,8.168579E0,1.7889154E1,1.3465599E1,0E0,3.766244E1,3.6848045E1,0E0,6.688533E0,3.4196186E0,1.3581991E-2,0E0,1.1387787E1,2.4253984E1,1.0964153E1,3.265593E1,1.3881973E1,0E0,0E0,0E0,0E0,0E0,0E0,1.529953E0,0E0,1.6910158E1,2.0763218E1,8.574425E0,1.1213229E1,3.1587936E1,4.5475445E0,1.1709604E1,8.472447E0,0E0,0E0,0E0,0E0,0E0,0E0,0E0,0E0,0E0,0E0,0E0,0E0,0E0,0E0,0E0,0E0,0E0,0E0],"parents":[2147483647,0,0,1,1,2,2,3,3,4,4,5,5,6,6,7,7,9,9,10,10,12,12,13,13,14,14,16,16,17,17,18,18,19,19,20,20,27,27,29,29,30,30,31,31,32,32,33,33,34,34,35,35,36,36],"right_children":[2,4,6,8,10,12,14,16,-1,18,20,-1,22,24,26,-1,28,30,32,34,36,-1,-1,-1,-1,-1,-1,38,-1,40,42,44,46,48,50,52,54,-1,-1,-1,-1,-1,-1,-1,-1,-1,-1,-1,-1,-1,-1,-1,-1,-1,-1],"split_conditions":[1.3932713E0,-1.5362895E0,1.592394E0,8.133833E-1,-5.241115E-1,1.7893218E-1,1.7752854E0,-1.0867704E0,4.4524565E-2,4.754393E-1,1.3158857E0,-1.34679E-1,-8.613842E-2,-1.1853894E0,4.8409247E-1,3.8917303E-2,1.7004483E0,-7.835386E-2,8.553926E-1,1.749927E0,-5.3050905E-1,-7.8393534E-2,4.0644374E-2,-6.560409E-3,-1.1042615E-1,5.261909E-2,1.5050306E-2,1.1289005E0,-2.7889182E-4,-1.7419103E-1,9.5204484E-1,-1.5330439E0,-5.854135E-1,-8.265176E-1,7.3845434E-1,3.354215E-1,2.3702006E-1,-1.318775E-1,-3.0846993E-2,5.216659E-3,-1.0114675E-1,3.4531187E-2,-9.0520605E-2,1.5497344E-2,-1.1691251E-1,-8.9324035E-2,2.878136E-2,1.5492629E-3,4.2943057E-2,-7.7460743E-3,-1.0756134E-1,-9.373098E-2,4.1594658E-2,5.0605547E-2,-6.434541E-2],"split_indices":[677,298,383,712,512,296,209,759,0,301,680,0,106,303,23,0,690,298,39,540,583,0,0,0,0,0,0,648,0,182,178,713,185,753,280,589,518,0,0,0,0,0,0,0,0,0,0,0,0,0,0,0,0,0,0],"split_type":[0,0,0,0,0,0,0,0,0,0,0,0,0,0,0,0,0,0,0,0,0,0,0,0,0,0,0,0,0,0,0,0,0,0,0,0,0,0,0,0,0,0,0,0,0,0,0,0,0,0,0,0,0,0,0],"sum_hessian":[4.5573062E2,4.0578815E2,4.9942486E1,2.0214424E1,3.8557373E2,4.2059444E1,7.8830395E0,1.868771E1,1.5267144E0,6.778645E1,3.1778726E2,3.8867424E1,3.192021E0,4.53922E0,3.3438194E0,1.0990043E0,1.7588705E1,4.797397E1,1.9812489E1,3.0161313E2,1.6174135E1,2.0612133E0,1.1308075E0,1.1271343E0,3.4120858E0,2.2462292E0,1.0975901E0,1.55963E1,1.9924055E0,1.3947192E1,3.4026775E1,1.3389122E1,6.4233665E0,2.963388E2,5.274332E0,1.0483864E1,5.690271E0,1.4477868E1,1.1184316E0,6.589882E0,7.3573103E0,3.1289064E1,2.73771E0,1.1062765E0,1.22828455E1,2.4799526E0,3.943414E0,5.7125156E1,2.3921364E2,1.7459333E0,3.5283985E0,9.179342E0,1.3045218E0,4.3589773E0,1.331294E0],"tree_param":{"num_deleted":"0","num_feature":"768","num_nodes":"55","size_leaf_vector":"1"}},{"base_weights":[-2.5470808E-2,4.625246E-1,-1.3531115E0,-7.9081404E-1,6.193142E-1,-2.1317377E0,-1.3495165E-1,-2.1533496E0,-1.7835885E-1,7.4323523E-1,-3.176648E-1,-2.2298622E0,-2.3340823E-2,1.7314313E-1,-1.805188E0,-2.8839758E-2,-1.1759329E-1,-9.881499E-2,7.033604E-2,-1.6964376E0,7.9177123E-1,1.1409394E0,-6.914191E-1,3.8048834E-2,-2.3207304E0,-7.647565E-2,4.9998928E-2,2.860766E-1,-7.429542E-2,5.9961597E-3,-1.1575861E-1,-1.4659421E0,3.689277E-1,-5.8892923E-3,-1.0451364E-1,8.5135794E-1,-1.1122452E0,6.217241E-2,1.3669501E-2,-1.2422284E0,7.2251356E-1,4.2981576E-2,-3.9340176E-2,7.456755E-3,-2.3814735E0,1.0723335E0,-1.3234995E-1,-9.602412E-2,-6.305221E-3,3.2165878E-2,-6.0983267E-2,-5.9478816E-2,4.4185646E-2,3.9739173E-2,-7.626221E-2,-8.8010915E-2,1.3224172E-2,-5.315403E-2,5.6686718E-2,-1.207966E-1,-8.789676E-3,6.3180454E-2,-1.4655299E-2,4.916912E-3,-1.0052488E-1],"categories":[],"categories_nodes":[],"categories_segments":[],"categories_sizes":[],"default_left":[0,0,0,0,0,0,0,0,0,0,0,0,0,0,0,0,0,0,0,0,0,0,0,0,0,0,0,0,0,0,0,0,0,0,0,0,0,0,0,0,0,0,0,0,0,0,0,0,0,0,0,0,0,0,0,0,0,0,0,0,0,0,0,0,0],"id":2,"left_children":[1,3,5,7,9,11,13,15,17,19,21,23,25,27,29,-1,-1,-1,31,33,35,37,39,41,43,-1,-1,45,-1,-1,-1,47,49,-1,-1,51,53,-1,-1,55,57,-1,-1,-1,59,61,63,-1,-1,-1,-1,-1,-1,-1,-1,-1,-1,-1,-1,-1,-1,-1,-1,-1,-1],"loss_changes":[2.919243E2,6.524316E1,1.1457434E2,3.055682E1,3.430771E1,1.5218292E1,2.516174E1,2.2137108E0,1.2064142E1,3.206662E1,1.9856594E1,1.4620697E1,8.146189E0,8.234607E0,7.7468185E0,0E0,0E0,0E0,1.1731185E1,3.0983133E0,2.9887146E1,3.280735E-1,2.3066101E1,3.1840978E0,1.0529541E1,0E0,0E0,1.3256628E1,0E0,0E0,0E0,2.2979193E0,1.0035992E1,0E0,0E0,1.7421753E1,7.650263E0,0E0,0E0,1.6740131E1,7.529013E0,0E0,0E0,0E0,4.610443E0,4.015274E0,1.18559065E1,0E0,0E0,0E0,0E0,0E0,0E0,0E0,0E0,0E0,0E0,0E0,0E0,0E0,0E0,0E0,0E0,0E0,0E0],"parents":[2147483647,0,0,1,1,2,2,3,3,4,4,5,5,6,6,7,7,8,8,9,9,10,10,11,11,12,12,13,13,14,14,18,18,19,19,20,20,21,21,22,22,23,23,24,24,27,27,31,31,32,32,35,35,36,36,39,39,40,40,44,44,45,45,46,46],"right_children":[2,4,6,8,10,12,14,16,18,20,22,24,26,28,30,-1,-1,-1,32,34,36,38,40,42,44,-1,-1,46,-1,-1,-1,48,50,-1,-1,52,54,-1,-1,56,58,-1,-1,-1,60,62,64,-1,-1,-1,-1,-1,-1,-1,-1,-1,-1,-1,-1,-1,-1,-1,-1,-1,-1],"split_conditions":[3.988487E-1,-7.8937435E-1,4.099223E-1,-3.2467413E-1,9.7560775E-1,8.788515E-1,4.046427E-1,-1.4371117E0,-1.0947104E0,-1.7270507E0,1.2356838E-1,-1.7378817E0,-1.2250788E0,1.7427965E0,-7.984321E-1,-2.8839758E-2,-1.1759329E-1,-9.881499E-2,-1.3338393E0,8.019923E-2,1.7090873E0,4.579453E-1,2.1804662E0,-1.5096676E0,-9.6769357E-1,-7.647565E-2,4.9998928E-2,-5.1853997E-1,-7.429542E-2,5.9961597E-3,-1.1575861E-1,3.1028697E-1,1.1263707E0,-5.8892923E-3,-1.0451364E-1,-1.5934708E0,6.3009787E-1,6.217241E-2,1.3669501E-2,3.9905468E-1,1.5600163E-1,4.2981576E-2,-3.9340176E-2,7.456755E-3,8.210057E-1,4.42197E-1,-1.272312E-1,-9.602412E-2,-6.305221E-3,3.2165878E-2,-6.0983267E-2,-5.9478816E-2,4.4185646E-2,3.9739173E-2,-7.626221E-2,-8.8010915E-2,1.3224172E-2,-5.315403E-2,5.6686718E-2,-1.207966E-1,-8.789676E-3,6.3180454E-2,-1.4655299E-2,4.916912E-3,-1.0052488E-1],"split_indices":[747,418,568,559,698,418,330,765,74,481,350,766,18,286,369,0,0,0,229,118,540,411,307,628,606,0,0,649,0,0,0,729,74,0,0,43,410,0,0,352,743,0,0,0,553,645,470,0,0,0,0,0,0,0,0,0,0,0,0,0,0,0,0,0,0],"split_type":[0,0,0,0,0,0,0,0,0,0,0,0,0,0,0,0,0,0,0,0,0,0,0,0,0,0,0,0,0,0,0,0,0,0,0,0,0,0,0,0,0,0,0,0,0,0,0,0,0,0,0,0,0,0,0,0,0,0,0,0,0,0,0,0,0],"sum_hessian":[4.4861606E2,3.285163E2,1.2009976E2,3.607751E1,2.924388E2,7.281057E1,4.728919E1,1.0407625E1,2.5669884E1,2.5846237E2,3.3976414E1,6.951762E1,3.2929535E0,4.0681366E1,6.6078215E0,1.6007208E0,8.806905E0,2.275131E0,2.3394754E1,4.3793855E0,2.5408301E2,6.5116334E0,2.746478E1,2.70045E0,6.681717E1,1.1320652E0,2.1608882E0,3.8863453E1,1.8179126E0,1.544065E0,5.0637565E0,3.1708667E0,2.0223886E1,1.133785E0,3.2456007E0,2.4690878E2,7.174218E0,5.43603E0,1.0756032E0,1.9852509E1,7.6122723E0,1.3317823E0,1.3686675E0,1.568908E0,6.524826E1,1.2955765E1,2.5907688E1,2.0440524E0,1.1268144E0,1.7752607E1,2.4712803E0,3.295007E0,2.4361377E2,1.1125563E0,6.061662E0,1.4648332E1,5.204177E0,1.1282083E0,6.4840636E0,6.415074E1,1.0975177E0,1.1429286E1,1.5264785E0,2.3917591E1,1.9900973E0],"tree_param":{"num_deleted":"0","num_feature":"768","num_nodes":"65","size_leaf_vector":"1"}},{"base_weights":[1.4012572E-2,3.1990257E-1,-1.7680635E0,-7.388388E-1,5.03913E-1,-2.0374012E0,4.4743457E-1,-2.0361778E-1,-2.0672774E0,-3.5872832E-1,6.471091E-1,-2.117112E0,2.8222982E-2,-1.0348713E0,5.9939247E-2,-1.0923476E0,4.355165E-1,1.4563143E-2,-2.2475865E0,-9.305003E-1,9.046385E-1,-2.3103017E-1,7.862792E-1,-2.1702495E0,1.6728528E-2,-6.1684134E-3,-7.2442815E-2,-4.7237334E-1,-2.009584E0,-3.738099E-1,9.339415E-1,-1.9612953E-2,-1.19725995E-1,5.2310128E-2,-1.1258543E0,1.1864587E0,-4.1377652E-2,-9.536701E-2,5.7463828E-3,8.311437E-1,-9.6572715E-1,-1.843577E-2,-2.2073026E0,1.3516682E-2,-8.561558E-2,-2.5962863E-2,-1.1070656E-1,1.5871562E-2,-1.0106863E-1,6.094724E-2,-5.5474162E-2,3.025872E-2,-7.048049E-2,6.5677315E-2,1.2750531E-2,-8.23147E-3,5.7469655E-2,-8.3607875E-2,4.2597853E-2,4.2895418E-2,-8.2385324E-2,-3.6905482E-2,-1.12617314E-1],"categories":[],"categories_nodes":[],"categories_segments":[],"categories_sizes":[],"default_left":[0,0,0,0,0,0,0,0,0,0,0,0,0,0,0,0,0,0,0,0,0,0,0,0,0,0,0,0,0,0,0,0,0,0,0,0,0,0,0,0,0,0,0,0,0,0,0,0,0,0,0,0,0,0,0,0,0,0,0,0,0,0,0],"id":3,"left_children":[1,3,5,7,9,11,13,15,17,19,21,23,-1,25,-1,27,29,-1,31,33,35,37,39,41,-1,-1,-1,43,45,47,49,-1,-1,-1,51,53,-1,-1,55,57,59,-1,61,-1,-1,-1,-1,-1,-1,-1,-1,-1,-1,-1,-1,-1,-1,-1,-1,-1,-1,-1,-1],"loss_changes":[2.5200185E2,7.723306E1,4.1325455E1,4.1401485E1,4.1823853E1,1.3756165E1,1.0329785E1,2.4921946E1,7.792099E0,3.5932407E1,3.5515656E1,8.409332E0,0E0,1.0596676E0,0E0,9.45075E0,1.073605E1,0E0,3.3424072E0,1.4282297E1,8.617958E0,1.601665E1,2.04375E1,3.0483398E0,0E0,0E0,0E0,1.1716302E1,1.0051289E0,1.2631581E1,1.0799359E1,0E0,0E0,0E0,1.6259212E1,1.3062477E0,0E0,0E0,7.2684383E0,1.414267E1,9.745671E0,0E0,2.0760193E0,0E0,0E0,0E0,0E0,0E0,0E0,0E0,0E0,0E0,0E0,0E0,0E0,0E0,0E0,0E0,0E0,0E0,0E0,0E0,0E0],"parents":[2147483647,0,0,1,1,2,2,3,3,4,4,5,5,6,6,7,7,8,8,9,9,10,10,11,11,13,13,15,15,16,16,18,18,19,19,20,20,21,21,22,22,23,23,27,27,28,28,29,29,30,30,34,34,35,35,38,38,39,39,40,40,42,42],"right_children":[2,4,6,8,10,12,14,16,18,20,22,24,-1,26,-1,28,30,-1,32,34,36,38,40,42,-1,-1,-1,44,46,48,50,-1,-1,-1,52,54,-1,-1,56,58,60,-1,62,-1,-1,-1,-1,-1,-1,-1,-1,-1,-1,-1,-1,-1,-1,-1,-1,-1,-1,-1,-1],"split_conditions":[9.857413E-1,-8.6610067E-1,2.0681751E-1,4.7546983E-1,-6.817268E-1,2.3408835E-1,1.5137215E-1,-3.8568787E-2,-1.5697842E0,9.888496E-1,-1.3126787E0,2.7985568E0,2.8222982E-2,1.5485623E-1,5.9939247E-2,7.0199233E-1,6.4230376E-1,1.4563143E-2,-1.497691E0,-8.193281E-1,1.2181653E0,-1.2191851E0,8.126063E-1,-1.7378817E0,1.6728528E-2,-6.1684134E-3,-7.2442815E-2,1.0727502E0,-1.4444584E0,5.5814296E-1,8.431145E-2,-1.9612953E-2,-1.19725995E-1,5.2310128E-2,-1.3437629E0,1.9841543E-1,-4.1377652E-2,-9.536701E-2,2.879864E-1,-1.4043992E0,-9.164464E-1,-1.843577E-2,-2.8276591E0,1.3516682E-2,-8.561558E-2,-2.5962863E-2,-1.1070656E-1,1.5871562E-2,-1.0106863E-1,6.094724E-2,-5.5474162E-2,3.025872E-2,-7.048049E-2,6.5677315E-2,1.2750531E-2,-8.23147E-3,5.7469655E-2,-8.3607875E-2,4.2597853E-2,4.2895418E-2,-8.2385324E-2,-3.6905482E-2,-1.12617314E-1],"split_indices":[393,298,333,578,748,247,72,608,267,421,292,287,0,715,0,591,626,0,463,760,263,720,374,766,0,0,0,231,8,542,422,0,0,0,35,766,0,0,141,318,357,0,607,0,0,0,0,0,0,0,0,0,0,0,0,0,0,0,0,0,0,0,0],"split_type":[0,0,0,0,0,0,0,0,0,0,0,0,0,0,0,0,0,0,0,0,0,0,0,0,0,0,0,0,0,0,0,0,0,0,0,0,0,0,0,0,0,0,0,0,0,0,0,0,0,0,0,0,0,0,0,0,0,0,0,0,0,0,0],"sum_hessian":[4.6024997E2,3.9352298E2,6.672699E1,5.7821278E1,3.357017E2,5.9565956E1,7.161034E0,4.2037758E1,1.5783518E1,4.7577923E1,2.8812378E2,5.7976105E1,1.5898498E0,2.281875E0,4.879159E0,1.7288551E1,2.4749207E1,1.0772424E0,1.4706276E1,3.2935513E1,1.4642412E1,3.932564E1,2.4879814E2,5.6858547E1,1.1175592E0,1.11809E0,1.163785E0,1.1219867E1,6.068686E0,9.527987E0,1.522122E1,1.348492E0,1.3357783E1,2.5704825E0,3.036503E1,1.2864471E1,1.7779409E0,3.9939785E0,3.5331665E1,2.430986E2,5.6995387E0,1.3665674E0,5.5491978E1,7.5059047E0,3.7139616E0,1.1594589E0,4.909227E0,7.280681E0,2.247305E0,1.3712212E1,1.5090084E0,4.116978E0,2.6248053E1,1.0958996E1,1.9054749E0,3.1495625E1,3.8360398E0,1.3503158E0,2.4174828E2,1.4810888E0,4.21845E0,2.167895E0,5.332408E1],"tree_param":{"num_deleted":"0","num_feature":"768","num_nodes":"63","size_leaf_vector":"1"}},{"base_weights":[2.3865938E-2,3.4507608E-1,-1.7514324E0,4.4135302E-1,-1.448927E0,1.7937292E-1,-1.9408555E0,5.48753E-1,-8.2965386E-1,-1.780503E0,-1.6048752E-1,5.6877315E-2,-6.225236E-2,-2.0328646E0,-6.3591045E-1,7.677545E-1,-1.778071E-1,-1.611093E0,1.045809E-1,-2.2904424E-1,-2.085554E0,-6.868584E-2,7.6337594E-1,-9.2370147E-1,-2.084359E0,-1.4517928E0,4.58277E-2,8.4002405E-1,-4.3386963E-1,-1.0838585E0,3.1859574E-1,-1.2006415E-1,-1.9417614E0,9.1476125E-1,-8.8946754E-1,-5.637316E-2,4.0921677E-2,-2.3697585E-2,-1.1036028E-1,1.18747065E-2,4.4351198E-2,-7.424005E-2,7.40375E-3,-2.1411283E0,-9.407808E-1,-8.377562E-2,-2.4144104E-2,-2.1369832E-2,4.4877525E-2,1.7395912E-2,-8.386109E-2,-6.949495E-2,1.741623E-2,-7.373627E-2,2.3263222E-2,-6.870055E-2,4.6551343E-2,-1.0867846E-1,1.2823364E-3,6.1585337E-2,-2.8335974E-2,1.6772604E-2,-9.279462E-2,-1.0834024E-1,-2.689592E-2,-7.984987E-2,2.2347959E-2],"categories":[],"categories_nodes":[],"categories_segments":[],"categories_sizes":[],"default_left":[0,0,0,0,0,0,0,0,0,0,0,0,0,0,0,0,0,0,0,0,0,0,0,0,0,0,0,0,0,0,0,0,0,0,0,0,0,0,0,0,0,0,0,0,0,0,0,0,0,0,0,0,0,0,0,0,0,0,0,0,0,0,0,0,0,0,0],"id":4,"left_children":[1,3,5,7,9,11,13,15,17,19,21,-1,-1,23,25,27,29,31,33,35,37,-1,39,41,43,45,-1,47,49,51,53,55,57,59,61,-1,-1,-1,-1,-1,-1,-1,-1,63,65,-1,-1,-1,-1,-1,-1,-1,-1,-1,-1,-1,-1,-1,-1,-1,-1,-1,-1,-1,-1,-1,-1],"loss_changes":[2.583004E2,6.687857E1,2.5731094E1,5.0244095E1,8.158726E0,1.1128264E1,6.305832E0,5.374643E1,2.1206242E1,6.9156E0,6.815171E0,0E0,0E0,1.4252167E0,8.453512E0,2.2862656E1,3.5807575E1,7.533478E0,1.21404705E1,4.395524E0,1.4891357E0,0E0,2.1048307E-2,2.8650007E0,1.57341E0,7.38554E-2,0E0,1.8225967E1,1.5511108E1,1.2815838E1,1.4287378E1,6.452799E0,5.9058E0,4.5679545E0,8.699019E0,0E0,0E0,0E0,0E0,0E0,0E0,0E0,0E0,9.6951294E-1,4.71834E0,0E0,0E0,0E0,0E0,0E0,0E0,0E0,0E0,0E0,0E0,0E0,0E0,0E0,0E0,0E0,0E0,0E0,0E0,0E0,0E0,0E0,0E0],"parents":[2147483647,0,0,1,1,2,2,3,3,4,4,5,5,6,6,7,7,8,8,9,9,10,10,13,13,14,14,15,15,16,16,17,17,18,18,19,19,20,20,22,22,23,23,24,24,25,25,27,27,28,28,29,29,30,30,31,31,32,32,33,33,34,34,43,43,44,44],"right_children":[2,4,6,8,10,12,14,16,18,20,22,-1,-1,24,26,28,30,32,34,36,38,-1,40,42,44,46,-1,48,50,52,54,56,58,60,62,-1,-1,-1,-1,-1,-1,-1,-1,64,66,-1,-1,-1,-1,-1,-1,-1,-1,-1,-1,-1,-1,-1,-1,-1,-1,-1,-1,-1,-1,-1,-1],"split_conditions":[1.1386418E0,1.3232177E0,-1.1385413E0,1.1213461E0,6.8918085E-1,-8.539657E-1,-4.610446E-2,3.769528E-1,-1.6495502E-1,3.4078395E-1,-5.3410953E-1,5.6877315E-2,-6.225236E-2,-1.3704686E0,-3.3849278E-1,1.005548E0,1.3703427E-1,-1.8187242E0,-5.9585917E-1,-6.4366007E-1,-1.7381835E0,-6.868584E-2,-4.82884E-1,1.1064242E0,2.0951023E0,6.7657256E-1,4.58277E-2,-6.730985E-1,-1.3666523E-1,1.2607852E0,-5.780391E-1,-1.9606744E0,7.6388633E-1,5.483327E-1,1.0263138E0,-5.637316E-2,4.0921677E-2,-2.3697585E-2,-1.1036028E-1,1.18747065E-2,4.4351198E-2,-7.424005E-2,7.40375E-3,1.812947E0,1.1636403E0,-8.377562E-2,-2.4144104E-2,-2.1369832E-2,4.4877525E-2,1.7395912E-2,-8.386109E-2,-6.949495E-2,1.741623E-2,-7.373627E-2,2.3263222E-2,-6.870055E-2,4.6551343E-2,-1.0867846E-1,1.2823364E-3,6.1585337E-2,-2.8335974E-2,1.6772604E-2,-9.279462E-2,-1.0834024E-1,-2.689592E-2,-7.984987E-2,2.2347959E-2],"split_indices":[663,636,614,680,352,124,418,178,257,307,533,0,0,230,142,355,499,533,636,210,605,0,75,623,670,386,0,162,109,297,54,292,657,747,347,0,0,0,0,0,0,0,0,667,413,0,0,0,0,0,0,0,0,0,0,0,0,0,0,0,0,0,0,0,0,0,0],"split_type":[0,0,0,0,0,0,0,0,0,0,0,0,0,0,0,0,0,0,0,0,0,0,0,0,0,0,0,0,0,0,0,0,0,0,0,0,0,0,0,0,0,0,0,0,0,0,0,0,0,0,0,0,0,0,0,0,0,0,0,0,0,0,0,0,0,0,0],"sum_hessian":[4.5090494E2,3.825031E2,6.840183E1,3.6373682E2,1.8766308E1,6.1158195E0,6.228601E1,3.3591986E2,2.7816956E1,1.4621582E1,4.1447268E0,3.7767124E0,2.339107E0,5.7662525E1,4.623485E0,2.580739E2,7.784595E1,1.4752633E1,1.30643215E1,2.6902206E0,1.1931361E1,1.5812643E0,2.5634625E0,3.398497E0,5.426403E1,3.0732274E0,1.5502578E0,2.437169E2,1.4356991E1,2.7134926E1,5.071102E1,2.925273E0,1.182736E1,7.2417955E0,5.8225265E0,1.4070431E0,1.2831774E0,1.1810579E0,1.0750303E1,1.044E0,1.5194625E0,1.9777403E0,1.4207568E0,5.0866608E1,3.3974223E0,1.9042628E0,1.1689645E0,1.03025255E1,2.3341438E2,9.256758E0,5.1002336E0,2.238174E1,4.7531857E0,3.149326E0,4.7561695E1,1.1938233E0,1.7314497E0,1.0486958E1,1.3404025E0,6.104423E0,1.1373723E0,2.8557842E0,2.9667423E0,4.971879E1,1.1478168E0,2.2042942E0,1.1931282E0],"tree_param":{"num_deleted":"0","num_feature":"768","num_nodes":"67","size_leaf_vector":"1"}},{"base_weights":[-7.2755166E-3,3.0448824E-1,-1.5656308E0,-7.042956E-1,4.8812294E-1,-2.508504E-1,-1.857188E0,-1.5289038E0,-1.3652028E-2,6.464109E-1,-4.1658026E-1,9.607622E-1,-8.1530225E-1,-1.9509845E0,-4.2010275E-1,4.0523928E-2,-1.6781088E0,6.2609726E-1,-1.1450272E0,-1.274419E0,6.934975E-1,-1.5399188E0,8.533977E-2,1.1417328E-2,5.4411706E-2,3.846294E-2,-1.4108528E0,-2.037237E0,-7.7162117E-1,-1.1601666E0,4.538018E-2,1.6786238E-2,-1.7837341E0,-7.3329306E-1,9.475098E-1,4.6557966E-1,-1.5851512E0,-1.8754919E0,3.9647155E-2,7.722756E-1,-1.4830378E-1,1.08525045E-1,-1.9431839E0,8.927995E-1,-2.2497222E-1,-1.7847714E0,6.240019E-3,-2.0759125E0,-6.3875257E-3,-8.3335996E-2,3.3514947E-2,-6.869231E-2,-1.9879682E-2,1.5261712E-3,-9.455286E-2,-7.692757E-2,4.0462278E-2,-1.7418373E-2,5.932025E-2,4.2598475E-2,-9.451379E-3,1.3554086E-2,-9.202721E-2,-1.040799E-1,-2.803549E-2,-2.6422326E-2,4.1166354E-2,2.115633E-2,-5.8560837E-2,-4.851572E-2,4.629023E-2,-1.0976119E-1,1.5345345E-2,5.7914406E-2,-3.0258939E-2,-2.9886898E-3,-7.868953E-2,-2.0212522E-2,-1.0285135E-1,-4.0894754E-2,-1.05455816E-1],"categories":[],"categories_nodes":[],"categories_segments":[],"categories_sizes":[],"default_left":[0,0,0,0,0,0,0,0,0,0,0,0,0,0,0,0,0,0,0,0,0,0,0,0,0,0,0,0,0,0,0,0,0,0,0,0,0,0,0,0,0,0,0,0,0,0,0,0,0,0,0,0,0,0,0,0,0,0,0,0,0,0,0,0,0,0,0,0,0,0,0,0,0,0,0,0,0,0,0,0,0],"id":5,"left_children":[1,3,5,7,9,11,13,15,17,19,21,23,25,27,29,-1,31,33,35,37,39,41,43,-1,-1,-1,45,47,49,51,-1,-1,53,55,57,59,61,63,-1,65,67,69,71,73,75,77,-1,79,-1,-1,-1,-1,-1,-1,-1,-1,-1,-1,-1,-1,-1,-1,-1,-1,-1,-1,-1,-1,-1,-1,-1,-1,-1,-1,-1,-1,-1,-1,-1,-1,-1],"loss_changes":[2.2021722E2,7.0316986E1,2.8500107E1,3.334112E1,4.6115578E1,1.0953704E1,7.4960785E0,1.0676674E1,2.4521576E1,2.5563347E1,2.7353313E1,2.3561668E-1,1.1169497E1,4.2911377E0,6.019234E0,0E0,6.00531E0,1.0156594E1,9.40975E0,1.0038131E1,1.7819809E1,1.0157536E1,8.799698E0,0E0,0E0,0E0,4.8851337E0,3.65625E0,8.264531E0,5.4103374E-2,0E0,0E0,4.7908936E0,7.0890865E0,5.9704323E0,1.0206261E0,5.1613026E0,3.580475E-1,0E0,1.6657486E1,1.4340641E1,4.326468E0,7.5214577E0,4.5699534E0,5.607829E0,1.6472435E0,0E0,4.462433E-1,0E0,0E0,0E0,0E0,0E0,0E0,0E0,0E0,0E0,0E0,0E0,0E0,0E0,0E0,0E0,0E0,0E0,0E0,0E0,0E0,0E0,0E0,0E0,0E0,0E0,0E0,0E0,0E0,0E0,0E0,0E0,0E0,0E0],"parents":[2147483647,0,0,1,1,2,2,3,3,4,4,5,5,6,6,7,7,8,8,9,9,10,10,11,11,12,12,13,13,14,14,16,16,17,17,18,18,19,19,20,20,21,21,22,22,26,26,27,27,28,28,29,29,32,32,33,33,34,34,35,35,36,36,37,37,39,39,40,40,41,41,42,42,43,43,44,44,45,45,47,47],"right_children":[2,4,6,8,10,12,14,16,18,20,22,24,26,28,30,-1,32,34,36,38,40,42,44,-1,-1,-1,46,48,50,52,-1,-1,54,56,58,60,62,64,-1,66,68,70,72,74,76,78,-1,80,-1,-1,-1,-1,-1,-1,-1,-1,-1,-1,-1,-1,-1,-1,-1,-1,-1,-1,-1,-1,-1,-1,-1,-1,-1,-1,-1,-1,-1,-1,-1,-1,-1],"split_conditions":[1.0366336E0,-8.00914E-1,2.4565074E-1,2.2582345E-2,1.2014205E0,-2.1751733E-1,1.592394E0,-6.528037E-1,2.7386823E-1,-1.2389549E0,-1.0089342E-1,-4.2232925E-1,-5.508356E-1,-2.1670751E-1,1.0596521E0,4.0523928E-2,-1.9268452E0,-1.1469705E0,-1.0827905E0,4.8108098E-1,8.767731E-1,-8.5781103E-1,4.436211E-2,1.1417328E-2,5.4411706E-2,3.846294E-2,3.9031518E-1,6.2642395E-1,9.417016E-1,6.140637E-1,4.538018E-2,1.6786238E-2,-1.458311E0,-3.5119092E-1,-1.4722797E0,-1.1460671E0,-2.8472904E-2,-1.4160435E-1,3.9647155E-2,-1.3622502E0,5.331925E-1,-5.0940347E-1,4.2985898E-1,1.7014802E0,-4.165627E-1,-1.372864E0,6.240019E-3,-2.642896E0,-6.3875257E-3,-8.3335996E-2,3.3514947E-2,-6.869231E-2,-1.9879682E-2,1.5261712E-3,-9.455286E-2,-7.692757E-2,4.0462278E-2,-1.7418373E-2,5.932025E-2,4.2598475E-2,-9.451379E-3,1.3554086E-2,-9.202721E-2,-1.040799E-1,-2.803549E-2,-2.6422326E-2,4.1166354E-2,2.115633E-2,-5.8560837E-2,-4.851572E-2,4.629023E-2,-1.0976119E-1,1.5345345E-2,5.7914406E-2,-3.0258939E-2,-2.9886898E-3,-7.868953E-2,-2.0212522E-2,-1.0285135E-1,-4.0894754E-2,-1.05455816E-1],"split_indices":[610,298,370,608,171,638,383,520,578,544,245,28,7,418,348,0,533,547,182,626,355,3,618,0,0,0,753,125,570,469,0,0,53,52,33,76,337,541,0,636,710,559,499,250,620,669,0,675,0,0,0,0,0,0,0,0,0,0,0,0,0,0,0,0,0,0,0,0,0,0,0,0,0,0,0,0,0,0,0,0,0],"split_type":[0,0,0,0,0,0,0,0,0,0,0,0,0,0,0,0,0,0,0,0,0,0,0,0,0,0,0,0,0,0,0,0,0,0,0,0,0,0,0,0,0,0,0,0,0,0,0,0,0,0,0,0,0,0,0,0,0,0,0,0,0,0,0,0,0,0,0,0,0,0,0,0,0,0,0,0,0,0,0,0,0],"sum_hessian":[4.5129108E2,3.7672772E2,7.456335E1,5.758014E1,3.1914758E2,1.3871236E1,6.069211E1,2.5691502E1,3.188864E1,2.718669E2,4.7280666E1,4.185284E0,9.685951E0,5.663784E1,4.0542707E0,1.2746298E0,2.441687E1,2.0655405E1,1.1233234E1,5.88132E0,2.659856E2,1.3962772E1,3.3317894E1,1.0342338E0,3.15105E0,2.5662751E0,7.1196766E0,5.210011E1,4.53773E0,2.684254E0,1.3700167E0,1.1082729E0,2.3308598E1,3.7047925E0,1.6950613E1,2.398443E0,8.834791E0,4.628439E0,1.2528813E0,2.4329953E2,2.2686077E1,2.8880506E0,1.1074721E1,8.728486E0,2.4589409E1,5.595095E0,1.5245814E0,5.0980377E1,1.1197332E0,2.7035487E0,1.8341813E0,1.470589E0,1.2136648E0,1.3417859E0,2.1966812E1,2.4358037E0,1.2689888E0,2.567121E0,1.43834915E1,1.3186165E0,1.0798264E0,1.0611039E0,7.7736874E0,3.4970174E0,1.1314213E0,8.835344E0,2.3446419E2,1.4931332E1,7.754746E0,1.16412E0,1.7239307E0,9.9810915E0,1.0936296E0,7.607045E0,1.1214405E0,2.283676E1,1.7526485E0,1.3309743E0,4.264121E0,1.9701116E0,4.9010265E1],"tree_param":{"num_deleted":"0","num_feature":"768","num_nodes":"81","size_leaf_vector":"1"}},{"base_weights":[-1.0651375E-2,2.80366E-1,-1.6131079E0,-7.9761744E-1,4.8951963E-1,-1.7438767E0,2.7468726E-1,-2.9614165E-1,-1.8885491E0,-1.2353535E0,5.655726E-1,-1.7978382E0,1.9222138E-3,-3.8674906E-2,5.1459026E-2,2.0172583E-1,-1.3050144E0,1.6087493E-2,-2.039457E0,-1.5943488E0,4.3423268E-1,-1.558067E0,6.034306E-1,-1.8690434E0,-2.7710602E-1,4.850182E-1,-8.727054E-2,-1.5690231E0,4.0554963E-2,-1.7612534E-2,-1.0768447E-1,5.6673976E-4,-1.9280844E0,4.0309675E-2,-7.452817E-3,-1.940556E-2,-8.949513E-2,1.7219171E-1,7.798896E-1,-5.071771E-3,-1.9009573E0,4.0059905E-2,-5.3738207E-2,3.2946736E-2,-7.950374E-2,2.3108253E-2,-9.31974E-2,-1.8067187E-2,-1.0705661E-1,-5.3246867E-2,1.6558513E-2,-1.4899971E-2,4.316434E-2,-1.6197717E-2,-9.6464895E-2],"categories":[],"categories_nodes":[],"categories_segments":[],"categories_sizes":[],"default_left":[0,0,0,0,0,0,0,0,0,0,0,0,0,0,0,0,0,0,0,0,0,0,0,0,0,0,0,0,0,0,0,0,0,0,0,0,0,0,0,0,0,0,0,0,0,0,0,0,0,0,0,0,0,0,0],"id":6,"left_children":[1,3,5,7,9,11,13,15,17,19,21,23,-1,-1,-1,25,27,-1,29,31,33,35,37,39,41,43,-1,45,-1,-1,-1,-1,47,-1,-1,-1,-1,49,51,-1,53,-1,-1,-1,-1,-1,-1,-1,-1,-1,-1,-1,-1,-1,-1],"loss_changes":[2.0890234E2,8.587315E1,1.7475159E1,3.335336E1,4.243445E1,6.274826E0,5.006632E0,2.218977E1,7.105545E0,8.933462E0,2.5493546E1,6.2658997E0,0E0,0E0,0E0,1.7447424E1,9.4058895E0,0E0,2.7560272E0,6.200695E0,8.186058E-1,8.319006E-1,2.2753418E1,3.1734009E0,4.281149E0,1.0811858E1,0E0,8.819286E0,0E0,0E0,0E0,0E0,2.414711E0,0E0,0E0,0E0,0E0,1.7782192E1,1.9418335E1,0E0,1.9921265E0,0E0,0E0,0E0,0E0,0E0,0E0,0E0,0E0,0E0,0E0,0E0,0E0,0E0,0E0],"parents":[2147483647,0,0,1,1,2,2,3,3,4,4,5,5,6,6,7,7,8,8,9,9,10,10,11,11,15,15,16,16,18,18,19,19,20,20,21,21,22,22,23,23,24,24,25,25,27,27,32,32,37,37,38,38,40,40],"right_children":[2,4,6,8,10,12,14,16,18,20,22,24,-1,-1,-1,26,28,-1,30,32,34,36,38,40,42,44,-1,46,-1,-1,-1,-1,48,-1,-1,-1,-1,50,52,-1,54,-1,-1,-1,-1,-1,-1,-1,-1,-1,-1,-1,-1,-1,-1],"split_conditions":[1.1313834E0,-6.817268E-1,3.875429E-2,6.3411367E-1,-1.2604971E0,1.044849E0,-5.753968E-1,-5.4215863E-3,-1.1843492E0,-3.315829E-1,-1.7270507E0,2.9851638E-3,1.9222138E-3,-3.8674906E-2,5.1459026E-2,1.3042681E0,1.04380965E-1,1.6087493E-2,-9.269115E-1,-1.6240718E0,-1.4923019E-2,-7.465054E-1,-6.6485804E-1,-7.1207416E-1,-6.024419E-1,6.9906265E-1,-8.727054E-2,-8.3860195E-1,4.0554963E-2,-1.7612534E-2,-1.0768447E-1,5.6673976E-4,9.4200626E-2,4.0309675E-2,-7.452817E-3,-1.940556E-2,-8.949513E-2,-1.0753203E-1,-5.118776E-1,-5.071771E-3,-1.2083123E0,4.0059905E-2,-5.3738207E-2,3.2946736E-2,-7.950374E-2,2.3108253E-2,-9.31974E-2,-1.8067187E-2,-1.0705661E-1,-5.3246867E-2,1.6558513E-2,-1.4899971E-2,4.316434E-2,-1.6197717E-2,-9.6464895E-2],"split_indices":[610,748,257,93,733,576,421,618,234,559,481,418,0,0,0,669,491,0,336,415,26,497,699,405,55,461,0,446,0,0,0,0,317,0,0,0,0,203,458,0,52,0,0,0,0,0,0,0,0,0,0,0,0,0,0],"split_type":[0,0,0,0,0,0,0,0,0,0,0,0,0,0,0,0,0,0,0,0,0,0,0,0,0,0,0,0,0,0,0,0,0,0,0,0,0,0,0,0,0,0,0,0,0,0,0,0,0,0,0,0,0,0,0],"sum_hessian":[4.45989E2,3.78141E2,6.784802E1,6.0988914E1,3.1715207E2,6.352392E1,4.3241057E0,4.2653538E1,1.8335375E1,1.2749593E1,3.044025E2,6.1648735E1,1.8751825E0,1.799269E0,2.5248368E0,2.9095354E1,1.3558185E1,1.0994861E0,1.723589E1,1.0530403E1,2.21919E0,4.628209E0,2.997743E2,5.867248E1,2.9762568E0,2.6055412E1,3.0399415E0,1.2284138E1,1.2740474E0,1.3519073E0,1.5883982E1,1.9783092E0,8.5520935E0,1.1217217E0,1.097468E0,1.2076908E0,3.4205184E0,8.762001E1,2.1215427E2,1.1146414E0,5.755784E1,1.2636156E0,1.7126412E0,2.4670221E1,1.385191E0,1.4855922E0,1.0798545E1,1.3464494E0,7.205644E0,9.328611E0,7.82914E1,1.50509615E1,1.971033E2,1.235567E0,5.632227E1],"tree_param":{"num_deleted":"0","num_feature":"768","num_nodes":"55","size_leaf_vector":"1"}},{"base_weights":[2.8023923E-2,-1.5523537E0,2.9188636E-1,-1.7364181E0,-1.6143654E-1,-1.5491862E0,3.557781E-1,-1.8797463E0,-4.1849357E-1,-1.0989078E0,9.379397E-1,1.0552916E-1,-1.918711E0,4.615082E-1,-8.76687E-1,-1.7492313E-2,-9.548215E-2,-7.246261E-2,4.5149893E-2,-6.2931958E-3,-7.553873E-2,5.37439E-2,1.2424905E-2,-3.408077E-2,3.928941E-2,-1.975407E-2,-1.03436366E-1,5.254848E-1,-1.0698698E0,8.704111E-1,-1.1428341E0,7.7551156E-1,1.8769667E-1,-7.787242E-2,-1.590501E0,5.044169E-2,9.805075E-3,-1.5464172E0,-2.6856384E-1,4.173134E-2,-2.9905085E-2,-6.363242E-2,1.4383364E-2,-5.5404264E-2,3.9873492E-2,2.532381E-3,-9.399261E-2,-9.633735E-2,-2.1017885E-2,-7.830433E-2,2.0659478E-2],"categories":[],"categories_nodes":[],"categories_segments":[],"categories_sizes":[],"default_left":[0,0,0,0,0,0,0,0,0,0,0,0,0,0,0,0,0,0,0,0,0,0,0,0,0,0,0,0,0,0,0,0,0,0,0,0,0,0,0,0,0,0,0,0,0,0,0,0,0,0,0],"id":7,"left_children":[1,3,5,7,9,11,13,15,17,19,21,23,25,27,29,-1,-1,-1,-1,-1,-1,-1,-1,-1,-1,-1,-1,31,33,35,37,39,41,43,45,-1,-1,47,49,-1,-1,-1,-1,-1,-1,-1,-1,-1,-1,-1,-1],"loss_changes":[1.8538483E2,1.6004623E1,4.5352703E1,9.80513E0,9.828482E0,8.127594E0,4.84767E1,1.6319427E0,1.0552527E1,1.840878E0,1.547594E-1,2.3100724E0,1.6162872E0,3.391366E1,1.4708178E1,0E0,0E0,0E0,0E0,0E0,0E0,0E0,0E0,0E0,0E0,0E0,0E0,2.7508438E1,7.096697E0,2.1906543E-1,8.767628E0,1.575222E1,2.0891674E1,6.1713066E0,4.424692E0,0E0,0E0,6.7259407E0,8.988648E0,0E0,0E0,0E0,0E0,0E0,0E0,0E0,0E0,0E0,0E0,0E0,0E0],"parents":[2147483647,0,0,1,1,2,2,3,3,4,4,5,5,6,6,7,7,8,8,9,9,10,10,11,11,12,12,13,13,14,14,27,27,28,28,29,29,30,30,31,31,32,32,33,33,34,34,37,37,38,38],"right_children":[2,4,6,8,10,12,14,16,18,20,22,24,26,28,30,-1,-1,-1,-1,-1,-1,-1,-1,-1,-1,-1,-1,32,34,36,38,40,42,44,46,-1,-1,48,50,-1,-1,-1,-1,-1,-1,-1,-1,-1,-1,-1,-1],"split_conditions":[-9.899327E-1,-2.566666E-1,-2.1203756E0,1.592394E0,2.5407696E-1,7.007859E-2,1.1477137E0,-1.4961214E0,1.7752854E0,-8.102398E-1,-2.2488336E-1,1.7633611E-1,-1.6368157E0,1.3232177E0,-1.8653688E-1,-1.7492313E-2,-9.548215E-2,-7.246261E-2,4.5149893E-2,-6.2931958E-3,-7.553873E-2,5.37439E-2,1.2424905E-2,-3.408077E-2,3.928941E-2,-1.975407E-2,-1.03436366E-1,1.0359225E-1,-8.530378E-1,1.0469825E0,4.329344E-1,1.9623399E0,-9.1872555E-1,6.334298E-1,-7.672638E-1,5.044169E-2,9.805075E-3,-1.3984594E-1,-1.5509363E0,4.173134E-2,-2.9905085E-2,-6.363242E-2,1.4383364E-2,-5.5404264E-2,3.9873492E-2,2.532381E-3,-9.399261E-2,-9.633735E-2,-2.1017885E-2,-7.830433E-2,2.0659478E-2],"split_indices":[184,418,422,383,683,317,680,64,209,155,240,620,168,636,21,0,0,0,0,0,0,0,0,0,0,0,0,415,150,593,568,185,121,352,193,0,0,340,69,0,0,0,0,0,0,0,0,0,0,0,0],"split_type":[0,0,0,0,0,0,0,0,0,0,0,0,0,0,0,0,0,0,0,0,0,0,0,0,0,0,0,0,0,0,0,0,0,0,0,0,0,0,0,0,0,0,0,0,0,0,0,0,0,0,0],"sum_hessian":[4.4247888E2,6.260848E1,3.7987042E2,5.5072205E1,7.5362744E0,1.1961006E1,3.679094E2,4.9285923E1,5.78628E0,4.0678887E0,3.4683855E0,2.3138974E0,9.647109E0,3.3941718E2,2.8492218E1,1.1881208E0,4.80978E1,3.1964111E0,2.589869E0,1.5980515E0,2.4698372E0,2.427229E0,1.0411566E0,1.0717523E0,1.242145E0,1.1904073E0,8.456701E0,3.2643646E2,1.2980727E1,3.4664712E0,2.5025745E1,1.8684222E2,1.3959424E2,4.863504E0,8.117223E0,2.4644654E0,1.0020059E0,1.6595894E1,8.4298525E0,1.7950922E2,7.3330154E0,8.192343E0,1.3140189E2,2.1119761E0,2.7515275E0,1.3402919E0,6.7769313E0,1.1874272E1,4.7216215E0,2.4568315E0,5.973021E0],"tree_param":{"num_deleted":"0","num_feature":"768","num_nodes":"51","size_leaf_vector":"1"}},{"base_weights":[-4.7891516E-2,-1.1718812E0,2.6508036E-1,-1.4788808E0,-2.7207637E-1,4.3820027E-1,-6.872788E-1,4.746705E-2,-1.5698941E0,-1.4799544E0,3.0765888E-1,-2.0356551E-1,5.797504E-1,-3.0144325E-2,-1.1987816E0,-1.6960452E0,-3.7502575E-1,-1.8660972E0,1.9443462E-2,8.277225E-1,-1.2990786E0,-1.3428097E0,7.1266145E-2,-2.653353E-1,6.742456E-1,-1.4272159E0,6.112961E-1,-1.3445584E0,3.201888E-2,-1.7338933E0,1.4557054E-3,-1.3224304E0,9.117655E-1,-2.3067433E-2,-1.0327103E-1,-3.140942E-2,1.0673134E0,-4.587869E-3,-8.176796E-2,-1.7108678E0,3.890356E-2,-1.4878758E0,2.6690152E-1,-1.2606859E0,4.9825338E-1,7.386043E-1,-3.276764E-1,1.7783534E-2,-1.806939E0,-7.6103663E-1,9.118077E-1,-1.5870845E0,1.8079299E-1,-8.852541E-2,-1.4073568E-3,-1.6311577E-2,-7.797429E-2,1.33596435E-2,5.2745212E-2,1.4439594E-3,6.364213E-2,1.6118985E-3,-1.00352705E-1,-2.518902E-3,-9.780172E-2,-2.2175577E-3,5.510527E-2,-8.3599016E-2,1.682349E-2,4.2056024E-2,-8.509367E-2,3.9001375E-2,-3.7068512E-2,2.0567391E-2,-8.272118E-2,-1.0011494E-1,-2.2843558E-2,-8.174201E-2,3.6547255E-2,5.9979856E-2,-3.7845515E-2,-9.134E-2,1.1741433E-3,-6.2404897E-2,5.1516753E-2],"categories":[],"categories_nodes":[],"categories_segments":[],"categories_sizes":[],"default_left":[0,0,0,0,0,0,0,0,0,0,0,0,0,0,0,0,0,0,0,0,0,0,0,0,0,0,0,0,0,0,0,0,0,0,0,0,0,0,0,0,0,0,0,0,0,0,0,0,0,0,0,0,0,0,0,0,0,0,0,0,0,0,0,0,0,0,0,0,0,0,0,0,0,0,0,0,0,0,0,0,0,0,0,0,0],"id":8,"left_children":[1,3,5,7,9,11,13,-1,15,17,19,21,23,25,27,29,31,33,-1,35,37,39,41,43,45,47,49,51,-1,53,-1,55,57,-1,-1,-1,59,-1,-1,61,-1,63,65,67,69,71,73,-1,75,77,79,81,83,-1,-1,-1,-1,-1,-1,-1,-1,-1,-1,-1,-1,-1,-1,-1,-1,-1,-1,-1,-1,-1,-1,-1,-1,-1,-1,-1,-1,-1,-1,-1,-1],"loss_changes":[1.5472073E2,2.6057755E1,5.7042995E1,1.7224274E1,1.8376589E1,2.6628365E1,1.7888477E1,0E0,9.764389E0,6.8393383E0,1.6217037E1,1.6838896E1,1.9292847E1,2.2708298E1,8.893623E0,4.1069336E0,1.08037615E1,1.061348E0,0E0,5.6588125E0,1.8069458E0,9.4835205E0,1.3827877E1,1.9469328E1,1.4142105E1,6.0364246E0,7.8695097E0,1.0675793E1,0E0,3.748001E0,0E0,6.584511E-1,8.076954E-2,0E0,0E0,0E0,2.6631527E0,0E0,0E0,4.8206215E0,0E0,3.3074608E0,1.0439669E1,7.8180294E0,1.2554238E1,1.3014679E1,1.4117023E1,0E0,8.609371E-1,5.980506E0,7.981326E0,9.437119E0,7.0523167E0,0E0,0E0,0E0,0E0,0E0,0E0,0E0,0E0,0E0,0E0,0E0,0E0,0E0,0E0,0E0,0E0,0E0,0E0,0E0,0E0,0E0,0E0,0E0,0E0,0E0,0E0,0E0,0E0,0E0,0E0,0E0,0E0],"parents":[2147483647,0,0,1,1,2,2,3,3,4,4,5,5,6,6,8,8,9,9,10,10,11,11,12,12,13,13,14,14,15,15,16,16,17,17,19,19,20,20,21,21,22,22,23,23,24,24,25,25,26,26,27,27,29,29,31,31,32,32,36,36,39,39,41,41,42,42,43,43,44,44,45,45,46,46,48,48,49,49,50,50,51,51,52,52],"right_children":[2,4,6,8,10,12,14,-1,16,18,20,22,24,26,28,30,32,34,-1,36,38,40,42,44,46,48,50,52,-1,54,-1,56,58,-1,-1,-1,60,-1,-1,62,-1,64,66,68,70,72,74,-1,76,78,80,82,84,-1,-1,-1,-1,-1,-1,-1,-1,-1,-1,-1,-1,-1,-1,-1,-1,-1,-1,-1,-1,-1,-1,-1,-1,-1,-1,-1,-1,-1,-1,-1,-1],"split_conditions":[-7.96867E-1,4.1988575E-1,5.490476E-1,-1.1517606E0,-7.835386E-2,-9.469765E-1,1.4058349E-1,4.746705E-2,1.592394E0,8.048868E-2,2.1610548E0,-1.6741208E0,-1.109867E0,-1.6310307E-1,1.4326166E0,2.637529E0,1.7752854E0,-1.9853647E-1,1.9443462E-2,-7.47254E-1,-1.5004319E-2,1.65448E-1,4.5480934E-1,-1.2493334E-1,5.662588E-1,-3.7039733E-1,-9.918272E-1,8.278204E-2,3.201888E-2,1.9306616E0,1.4557054E-3,-1.7147444E0,1.0118792E0,-2.3067433E-2,-1.0327103E-1,-3.140942E-2,9.075646E-2,-4.587869E-3,-8.176796E-2,-2.3907828E0,3.890356E-2,2.3177667E-1,-1.1710178E0,3.424149E-1,8.664727E-2,1.9457029E0,3.6364293E-1,1.7783534E-2,9.8262167E-1,-2.638092E-1,1.2762034E0,1.9620124E0,-7.39277E-1,-8.852541E-2,-1.4073568E-3,-1.6311577E-2,-7.797429E-2,1.33596435E-2,5.2745212E-2,1.4439594E-3,6.364213E-2,1.6118985E-3,-1.00352705E-1,-2.518902E-3,-9.780172E-2,-2.2175577E-3,5.510527E-2,-8.3599016E-2,1.682349E-2,4.2056024E-2,-8.509367E-2,3.9001375E-2,-3.7068512E-2,2.0567391E-2,-8.272118E-2,-1.0011494E-1,-2.2843558E-2,-8.174201E-2,3.6547255E-2,5.9979856E-2,-3.7845515E-2,-9.134E-2,1.1741433E-3,-6.2404897E-2,5.1516753E-2],"split_indices":[512,608,49,651,298,699,677,0,383,620,159,356,670,427,365,216,209,143,0,579,30,663,766,175,510,549,175,203,0,166,0,297,233,0,0,0,481,0,0,515,0,620,727,448,727,513,375,0,706,413,536,474,206,0,0,0,0,0,0,0,0,0,0,0,0,0,0,0,0,0,0,0,0,0,0,0,0,0,0,0,0,0,0,0,0],"split_type":[0,0,0,0,0,0,0,0,0,0,0,0,0,0,0,0,0,0,0,0,0,0,0,0,0,0,0,0,0,0,0,0,0,0,0,0,0,0,0,0,0,0,0,0,0,0,0,0,0,0,0,0,0,0,0,0,0,0,0,0,0,0,0,0,0,0,0,0,0,0,0,0,0,0,0,0,0,0,0,0,0,0,0,0,0],"sum_hessian":[4.379429E2,9.478674E1,3.4315616E2,7.0194046E1,2.4592695E1,2.908291E2,5.2327053E1,2.1952136E0,6.799883E1,7.4719925E0,1.7120703E1,5.2475502E1,2.383536E2,2.3366604E1,2.8960451E1,6.112588E1,6.8729568E0,6.1936893E0,1.278303E0,1.3300487E1,3.820216E0,9.443589E0,4.3031914E1,2.378978E1,2.1456383E2,6.9670954E0,1.6399508E1,2.7082727E1,1.8777224E0,5.980868E1,1.3171984E0,3.9425468E0,2.93041E0,1.1815051E0,5.0121846E0,1.6502954E0,1.1650191E1,1.1095495E0,2.7106667E0,8.211829E0,1.2317606E0,4.0610986E0,3.8970814E1,1.0044979E1,1.3744801E1,2.018601E2,1.2703726E1,1.2344432E0,5.732652E0,2.6707313E0,1.3728776E1,2.3332466E1,3.750262E0,5.851466E1,1.2940211E0,1.2145828E0,2.727964E0,1.0534146E0,1.8769953E0,2.113295E0,9.536896E0,1.3221151E0,6.889714E0,1.2697853E0,2.7913132E0,2.908041E1,9.890404E0,7.9506936E0,2.0942852E0,1.2426026E1,1.3187739E0,1.9682413E2,5.035989E0,8.602129E0,4.1015964E0,4.58594E0,1.1467122E0,1.6239107E0,1.0468205E0,1.1949138E1,1.7796383E0,2.019274E1,3.1397266E0,1.2234066E0,2.5268555E0],"tree_param":{"num_deleted":"0","num_feature":"768","num_nodes":"85","size_leaf_vector":"1"}},{"base_weights":[3.2624905E-3,2.8001678E-1,-1.3445932E0,-6.146011E-1,4.4554627E-1,-1.68993E-1,-1.5696278E0,-2.103341E-2,-1.2456757E0,5.6573904E-1,-5.477024E-1,2.587218E-1,-7.7766016E-2,-1.6641883E0,-2.5264615E-1,-1.2611701E0,4.2479792E-1,-1.3647047E0,3.726076E-2,1.12402625E-1,7.217425E-1,-1.5574014E0,-1.20605476E-1,-6.063594E-1,1.0193683E0,-9.3203895E-3,-1.7018036E0,-6.379524E-2,6.0763645E-1,9.210295E-3,-8.886422E-2,-4.2410645E-1,8.111719E-1,-1.5286574E0,3.4769866E-1,2.977817E-1,-1.4217626E0,7.755992E-1,-7.6445323E-1,-8.789911E-2,-4.553438E-3,4.1260603E-1,-1.3274451E0,-7.232128E-2,4.2175254E-1,1.2259114E-2,5.63205E-2,-6.692011E-1,-1.7421291E0,-1.6190804E-3,4.6492808E-2,-6.832268E-2,2.0874452E-2,-3.4154177E-2,4.8100617E-2,-9.5095895E-2,-3.5782095E-2,3.6175754E-2,-9.65791E-3,2.1881381E-2,-4.6218056E-2,-9.995072E-2,3.8599487E-2,-3.8893063E-2,4.0994875E-2,-9.56224E-2,2.2608837E-2,-1.5194614E-2,5.2391823E-2,8.649671E-3,-8.838006E-2,-1.0115666E-2,4.0130045E-2,-5.7541788E-2,8.618473E-3,-2.220179E-2,-8.85234E-2],"categories":[],"categories_nodes":[],"categories_segments":[],"categories_sizes":[],"default_left":[0,0,0,0,0,0,0,0,0,0,0,0,0,0,0,0,0,0,0,0,0,0,0,0,0,0,0,0,0,0,0,0,0,0,0,0,0,0,0,0,0,0,0,0,0,0,0,0,0,0,0,0,0,0,0,0,0,0,0,0,0,0,0,0,0,0,0,0,0,0,0,0,0,0,0,0,0],"id":9,"left_children":[1,3,5,7,9,11,13,15,17,19,21,23,-1,25,27,29,31,33,-1,35,37,39,41,43,45,-1,47,-1,49,-1,-1,51,53,55,57,59,61,63,65,-1,-1,67,69,-1,71,-1,-1,73,75,-1,-1,-1,-1,-1,-1,-1,-1,-1,-1,-1,-1,-1,-1,-1,-1,-1,-1,-1,-1,-1,-1,-1,-1,-1,-1,-1,-1],"loss_changes":[1.610466E2,5.3314514E1,1.9191498E1,2.1079884E1,3.646217E1,8.073467E0,7.252014E0,1.7151579E1,7.484627E0,1.9058586E1,1.4128359E1,7.687979E0,0E0,2.8680878E0,5.4463334E0,6.4436417E0,7.8398924E0,7.860882E0,0E0,2.0465763E1,1.669413E1,2.7176476E0,1.6257801E1,5.4932933E0,2.2851658E-1,0E0,1.1559296E0,0E0,7.64294E-1,0E0,0E0,6.76035E0,4.2744265E0,5.9252243E0,7.69014E-1,1.1291845E1,1.1383444E1,1.4030815E1,1.1393457E1,0E0,0E0,8.372259E0,5.403125E0,0E0,9.5066875E-1,0E0,0E0,1.7059286E0,1.1649475E0,0E0,0E0,0E0,0E0,0E0,0E0,0E0,0E0,0E0,0E0,0E0,0E0,0E0,0E0,0E0,0E0,0E0,0E0,0E0,0E0,0E0,0E0,0E0,0E0,0E0,0E0,0E0,0E0],"parents":[2147483647,0,0,1,1,2,2,3,3,4,4,5,5,6,6,7,7,8,8,9,9,10,10,11,11,13,13,14,14,15,15,16,16,17,17,19,19,20,20,21,21,22,22,23,23,24,24,26,26,28,28,31,31,32,32,33,33,34,34,35,35,36,36,37,37,38,38,41,41,42,42,44,44,47,47,48,48],"right_children":[2,4,6,8,10,12,14,16,18,20,22,24,-1,26,28,30,32,34,-1,36,38,40,42,44,46,-1,48,-1,50,-1,-1,52,54,56,58,60,62,64,66,-1,-1,68,70,-1,72,-1,-1,74,76,-1,-1,-1,-1,-1,-1,-1,-1,-1,-1,-1,-1,-1,-1,-1,-1,-1,-1,-1,-1,-1,-1,-1,-1,-1,-1,-1,-1],"split_conditions":[1.0366336E0,-8.6610067E-1,1.7780142E-1,9.249494E-3,1.2379712E0,7.7283186E-1,1.6626081E0,-4.830601E-1,9.966618E-1,-5.2353114E-1,-9.14628E-1,-2.486454E-1,-7.7766016E-2,-1.3654486E0,-4.1874346E-1,-7.8942716E-1,-6.077642E-1,1.3639299E0,3.726076E-2,5.5551106E-1,1.8894316E0,-2.82698E-2,4.4042593E-1,1.4841877E-1,-6.198905E-1,-9.3203895E-3,-2.642896E0,-6.379524E-2,8.4249735E-1,9.210295E-3,-8.886422E-2,5.600589E-1,-1.1985991E0,1.6838436E-1,2.3186658E-1,1.5117948E0,4.872253E-1,-1.148145E0,-1.2724621E0,-8.789911E-2,-4.553438E-3,-1.2924375E-1,3.7219962E-1,-7.232128E-2,6.375002E-1,1.2259114E-2,5.63205E-2,1.2641382E0,-2.3105855E0,-1.6190804E-3,4.6492808E-2,-6.832268E-2,2.0874452E-2,-3.4154177E-2,4.8100617E-2,-9.5095895E-2,-3.5782095E-2,3.6175754E-2,-9.65791E-3,2.1881381E-2,-4.6218056E-2,-9.995072E-2,3.8599487E-2,-3.8893063E-2,4.0994875E-2,-9.56224E-2,2.2608837E-2,-1.5194614E-2,5.2391823E-2,8.649671E-3,-8.838006E-2,-1.0115666E-2,4.0130045E-2,-5.7541788E-2,8.618473E-3,-2.220179E-2,-8.85234E-2],"split_indices":[610,298,370,578,159,23,383,478,682,382,144,544,0,574,630,3,117,743,0,82,475,764,710,403,52,0,675,0,420,0,0,335,545,388,728,721,690,733,89,0,0,179,531,0,487,0,0,50,578,0,0,0,0,0,0,0,0,0,0,0,0,0,0,0,0,0,0,0,0,0,0,0,0,0,0,0,0],"split_type":[0,0,0,0,0,0,0,0,0,0,0,0,0,0,0,0,0,0,0,0,0,0,0,0,0,0,0,0,0,0,0,0,0,0,0,0,0,0,0,0,0,0,0,0,0,0,0,0,0,0,0,0,0,0,0,0,0,0,0,0,0,0,0,0,0,0,0,0,0,0,0,0,0,0,0,0,0],"sum_hessian":[4.2972217E2,3.5717575E2,7.254641E1,5.5345177E1,3.018306E2,1.1937074E1,6.0609337E1,2.9052599E1,2.6292576E1,2.696328E2,3.219779E1,9.744149E0,2.1929245E0,5.630309E1,4.3062496E0,7.198962E0,2.1853638E1,2.5106089E1,1.1864876E0,6.9472E1,2.001608E2,8.784317E0,2.3413471E1,4.6540017E0,5.0901475E0,1.5453928E0,5.4757694E1,1.7461629E0,2.560087E0,2.0634286E0,5.1355333E0,6.804899E0,1.50487385E1,2.3010288E1,2.0957994E0,6.2701443E1,6.7705564E0,1.9362245E2,6.5383453E0,7.5523305E0,1.2319864E0,1.669522E1,6.71825E0,2.3373153E0,2.3166864E0,1.0179917E0,4.0721555E0,2.7193427E0,5.2038353E1,1.1584958E0,1.4015911E0,2.9160771E0,3.8888223E0,1.0563002E0,1.3992438E1,1.4852212E1,8.158077E0,1.0373044E0,1.058495E0,5.683941E1,5.862035E0,5.4304004E0,1.340156E0,4.909112E0,1.8871335E2,3.0698016E0,3.4685435E0,8.090861E0,8.60436E0,1.6614707E0,5.0567794E0,1.0556536E0,1.2610327E0,1.4958023E0,1.2235405E0,1.4679106E0,5.0570442E1],"tree_param":{"num_deleted":"0","num_feature":"768","num_nodes":"77","size_leaf_vector":"1"}},{"base_weights":[3.8284264E-3,2.3846345E-1,-1.2512354E0,-1.1102003E0,3.1903148E-1,-1.4144136E0,4.217198E-1,-1.4594842E0,3.5049087E-1,-3.851676E-1,4.3047243E-1,-2.7649394E-1,-1.5068038E0,-4.289776E-2,5.440076E-2,2.1705514E-2,-1.6480136E0,-4.4050917E-2,4.9892277E-2,-6.177054E-1,8.440871E-1,4.7338185E-1,-1.491681E0,-6.559789E-2,5.104814E-2,2.4136235E-3,-1.543895E0,-8.9299485E-2,1.9140335E-3,-1.5715917E0,-2.425938E-1,5.7459332E-2,-1.4110002E-2,2.2632666E-2,6.5351236E-1,-1.839035E0,1.07629225E-2,3.6130964E-3,-1.5790148E0,1.2574502E-4,-8.87097E-2,-5.407969E-2,1.0544892E-2,1.24992E-2,-5.823275E-2,-4.1682787E-2,3.512947E-2,-2.2771057E-2,-1.0472931E-1,-8.396199E-2,-4.8048466E-2],"categories":[],"categories_nodes":[],"categories_segments":[],"categories_sizes":[],"default_left":[0,0,0,0,0,0,0,0,0,0,0,0,0,0,0,0,0,0,0,0,0,0,0,0,0,0,0,0,0,0,0,0,0,0,0,0,0,0,0,0,0,0,0,0,0,0,0,0,0,0,0],"id":10,"left_children":[1,3,5,7,9,11,13,15,17,19,21,23,25,-1,-1,-1,27,-1,-1,29,31,33,35,-1,-1,-1,37,-1,-1,39,41,-1,-1,43,45,47,-1,-1,49,-1,-1,-1,-1,-1,-1,-1,-1,-1,-1,-1,-1],"loss_changes":[1.2554825E2,3.9381546E1,1.8927895E1,1.0955408E1,2.682447E1,6.0398407E0,6.678591E0,6.682171E0,4.671241E0,1.3939477E1,2.4935062E1,9.180639E0,3.3378143E0,0E0,0E0,0E0,3.6534996E0,0E0,0E0,1.3949696E1,3.035489E0,2.3377525E1,4.341996E0,0E0,0E0,0E0,3.2522125E0,0E0,0E0,3.5514736E0,1.1615623E1,0E0,0E0,2.2775478E1,1.5606804E1,1.0385036E0,0E0,0E0,1.7409363E0,0E0,0E0,0E0,0E0,0E0,0E0,0E0,0E0,0E0,0E0,0E0,0E0],"parents":[2147483647,0,0,1,1,2,2,3,3,4,4,5,5,6,6,7,7,8,8,9,9,10,10,11,11,12,12,16,16,19,19,20,20,21,21,22,22,26,26,29,29,30,30,33,33,34,34,35,35,38,38],"right_children":[2,4,6,8,10,12,14,16,18,20,22,24,26,-1,-1,-1,28,-1,-1,30,32,34,36,-1,-1,-1,38,-1,-1,40,42,-1,-1,44,46,48,-1,-1,50,-1,-1,-1,-1,-1,-1,-1,-1,-1,-1,-1,-1],"split_conditions":[9.857413E-1,-1.5362895E0,3.066307E-1,3.0609316E-1,-6.763162E-1,-1.3575227E0,1.5137215E-1,-3.799881E-1,-1.4455923E0,8.519829E-1,1.749927E0,-8.630024E-2,-7.693978E-1,-4.289776E-2,5.440076E-2,2.1705514E-2,1.3453578E0,-4.4050917E-2,4.9892277E-2,-6.178211E-1,-6.4492095E-1,-2.4806304E-1,9.206667E-1,-6.559789E-2,5.104814E-2,2.4136235E-3,-8.70297E-1,-8.9299485E-2,1.9140335E-3,-1.1438373E0,-7.47254E-1,5.7459332E-2,-1.4110002E-2,4.377172E-1,-1.2604971E0,-6.714666E-1,1.07629225E-2,3.6130964E-3,7.972759E-1,1.2574502E-4,-8.87097E-2,-5.407969E-2,1.0544892E-2,1.24992E-2,-5.823275E-2,-4.1682787E-2,3.512947E-2,-2.2771057E-2,-1.0472931E-1,-8.396199E-2,-4.8048466E-2],"split_indices":[393,298,333,608,512,246,72,520,76,706,540,521,356,0,0,0,505,0,0,559,529,743,83,0,0,0,31,0,0,228,579,0,0,621,733,244,0,0,725,0,0,0,0,0,0,0,0,0,0,0,0],"split_type":[0,0,0,0,0,0,0,0,0,0,0,0,0,0,0,0,0,0,0,0,0,0,0,0,0,0,0,0,0,0,0,0,0,0,0,0,0,0,0,0,0,0,0,0,0,0,0,0,0,0,0],"sum_hessian":[4.2432278E2,3.5817224E2,6.615054E1,1.9470318E1,3.3870193E2,6.0412514E1,5.738027E0,1.5713656E1,3.7566607E0,4.594128E1,2.9276065E2,4.836513E0,5.5576E1,1.8661957E0,3.8718317E0,1.3048717E0,1.4408785E1,1.1699773E0,2.5866833E0,3.905143E1,6.8898535E0,2.8710516E2,5.6555E0,2.683617E0,2.152896E0,1.2876807E0,5.4288322E1,1.3264348E1,1.1444373E0,1.0122036E1,2.8929392E1,5.405286E0,1.4845679E0,8.2296455E1,2.048087E2,4.634927E0,1.0205733E0,1.1321248E0,5.3156197E1,1.2668556E0,8.855181E0,9.664385E0,1.9265009E1,6.9732895E1,1.2563562E1,6.032119E0,1.9877658E2,1.1563405E0,3.4785862E0,4.4261536E1,8.894662E0],"tree_param":{"num_deleted":"0","num_feature":"768","num_nodes":"51","size_leaf_vector":"1"}},{"base_weights":[-3.37874E-2,2.9820734E-1,-8.8960314E-1,-7.03387E-1,4.3875498E-1,-1.3404555E0,-1.3052861E-1,-1.3938881E0,-3.5420164E-2,-2.1722035E-1,5.6308776E-1,-1.4338409E0,4.8183423E-1,1.2206027E-1,-1.3983436E0,-2.622359E-1,-1.7995297E0,2.9278085E-1,-1.2545242E0,-1.1804284E0,1.0880226E-1,5.9990025E-1,-1.0724015E0,-1.5457455E0,-2.2253305E-1,4.879164E-2,-2.5229512E-2,-2.0738195E-1,8.787482E-1,-8.5314386E-2,3.4525401E-3,-1.2585644E0,7.579803E-1,-9.482291E-2,-1.9025011E-2,5.5708313E-1,-7.6209E-2,-8.377744E-2,9.1150636E-4,-1.6856511E0,2.8454596E-1,-1.2126696E0,4.5758078E-1,6.6317576E-1,-4.1030887E-1,3.7476055E-2,-8.453836E-2,-1.6219398E0,8.1645295E-2,-6.0948905E-2,7.672725E-1,-1.4261127E0,6.430748E-3,-1.2908594E-1,6.033356E-2,-7.6780185E-2,-1.7723003E-2,4.354519E-2,1.1558232E-2,4.567266E-2,-1.9816866E-2,-9.678083E-2,-5.649472E-3,4.2733606E-2,-2.7992368E-2,3.9566427E-2,-8.77913E-2,-6.738309E-2,3.408941E-2,3.3272512E-3,3.8576093E-2,4.2261474E-2,-5.5009115E-2,-8.3133765E-2,1.6981278E-2,-5.0364118E-2,4.571381E-2,5.4847803E-2,-4.647284E-3,-9.80699E-3,-8.888083E-2,-1.1774114E-2,5.6127794E-2,3.8822796E-2,-4.2788934E-2],"categories":[],"categories_nodes":[],"categories_segments":[],"categories_sizes":[],"default_left":[0,0,0,0,0,0,0,0,0,0,0,0,0,0,0,0,0,0,0,0,0,0,0,0,0,0,0,0,0,0,0,0,0,0,0,0,0,0,0,0,0,0,0,0,0,0,0,0,0,0,0,0,0,0,0,0,0,0,0,0,0,0,0,0,0,0,0,0,0,0,0,0,0,0,0,0,0,0,0,0,0,0,0,0,0],"id":11,"left_children":[1,3,5,7,9,11,13,15,17,19,21,23,25,27,29,31,33,35,37,39,41,43,45,47,49,-1,-1,51,53,-1,-1,55,57,-1,-1,59,-1,-1,-1,61,63,65,67,69,71,-1,-1,73,75,-1,77,79,81,83,-1,-1,-1,-1,-1,-1,-1,-1,-1,-1,-1,-1,-1,-1,-1,-1,-1,-1,-1,-1,-1,-1,-1,-1,-1,-1,-1,-1,-1,-1,-1],"loss_changes":[1.2034838E2,4.328064E1,4.033811E1,1.7453604E1,2.2005627E1,1.3311096E1,1.4651552E1,8.081646E0,8.495552E0,1.3780445E1,1.4240234E1,9.252518E0,2.6187615E0,9.811286E0,3.5487747E0,7.141541E0,1.1415825E0,8.924937E0,2.4409852E0,8.679008E0,1.5947043E1,1.4431244E1,7.27225E0,8.147797E0,7.992625E0,0E0,0E0,7.2323456E0,4.0909586E0,0E0,0E0,3.2121992E-1,1.4728546E-2,0E0,0E0,5.5990796E0,0E0,0E0,0E0,3.0762634E0,2.2579594E0,9.2783375E0,1.1907007E1,1.3448212E1,1.2774123E1,0E0,0E0,5.502655E0,4.405469E0,0E0,1.29404E0,1.4419813E0,6.900488E0,3.182506E0,0E0,0E0,0E0,0E0,0E0,0E0,0E0,0E0,0E0,0E0,0E0,0E0,0E0,0E0,0E0,0E0,0E0,0E0,0E0,0E0,0E0,0E0,0E0,0E0,0E0,0E0,0E0,0E0,0E0,0E0,0E0],"parents":[2147483647,0,0,1,1,2,2,3,3,4,4,5,5,6,6,7,7,8,8,9,9,10,10,11,11,12,12,13,13,14,14,15,15,16,16,17,17,18,18,19,19,20,20,21,21,22,22,23,23,24,24,27,27,28,28,31,31,32,32,35,35,39,39,40,40,41,41,42,42,43,43,44,44,47,47,48,48,50,50,51,51,52,52,53,53],"right_children":[2,4,6,8,10,12,14,16,18,20,22,24,26,28,30,32,34,36,38,40,42,44,46,48,50,-1,-1,52,54,-1,-1,56,58,-1,-1,60,-1,-1,-1,62,64,66,68,70,72,-1,-1,74,76,-1,78,80,82,84,-1,-1,-1,-1,-1,-1,-1,-1,-1,-1,-1,-1,-1,-1,-1,-1,-1,-1,-1,-1,-1,-1,-1,-1,-1,-1,-1,-1,-1,-1,-1],"split_conditions":[3.988487E-1,-7.501773E-1,4.099223E-1,-1.359831E-2,-1.057211E0,9.1377044E-1,2.6569304E-1,-1.2296946E0,9.7240275E-1,4.486286E-1,2.561182E0,1.592394E0,2.3103419E-1,3.3913165E-1,1.0589404E0,-1.6737594E-1,1.2393022E0,4.7011185E-1,1.5294106E0,5.9405327E-1,-8.964549E-1,1.2463654E0,-1.2544233E-1,1.1906526E0,-8.8575613E-1,4.879164E-2,-2.5229512E-2,-7.4365735E-1,-9.008463E-1,-8.5314386E-2,3.4525401E-3,5.295524E-1,7.190421E-1,-9.482291E-2,-1.9025011E-2,6.3799995E-1,-7.6209E-2,-8.377744E-2,9.1150636E-4,8.821737E-1,-2.817029E-1,-2.0620383E-1,-4.180651E-1,-5.7849014E-1,-4.682973E-1,3.7476055E-2,-8.453836E-2,1.7131997E0,5.603998E-1,-6.0948905E-2,7.9092133E-1,-1.6368157E0,-6.324496E-1,6.312583E-1,6.033356E-2,-7.6780185E-2,-1.7723003E-2,4.354519E-2,1.1558232E-2,4.567266E-2,-1.9816866E-2,-9.678083E-2,-5.649472E-3,4.2733606E-2,-2.7992368E-2,3.9566427E-2,-8.77913E-2,-6.738309E-2,3.408941E-2,3.3272512E-3,3.8576093E-2,4.2261474E-2,-5.5009115E-2,-8.3133765E-2,1.6981278E-2,-5.0364118E-2,4.571381E-2,5.4847803E-2,-4.647284E-3,-9.80699E-3,-8.888083E-2,-1.1774114E-2,5.6127794E-2,3.8822796E-2,-4.2788934E-2],"split_indices":[747,418,568,559,670,418,143,375,446,147,238,383,113,727,181,561,77,237,26,521,733,317,251,740,547,0,0,477,266,0,0,449,4,0,0,336,0,0,0,525,199,360,63,748,601,0,0,756,280,0,741,168,378,767,0,0,0,0,0,0,0,0,0,0,0,0,0,0,0,0,0,0,0,0,0,0,0,0,0,0,0,0,0,0,0],"split_type":[0,0,0,0,0,0,0,0,0,0,0,0,0,0,0,0,0,0,0,0,0,0,0,0,0,0,0,0,0,0,0,0,0,0,0,0,0,0,0,0,0,0,0,0,0,0,0,0,0,0,0,0,0,0,0,0,0,0,0,0,0,0,0,0,0,0,0,0,0,0,0,0,0,0,0,0,0,0,0,0,0,0,0,0,0],"sum_hessian":[4.2163983E2,3.042603E2,1.1737949E2,3.6948322E1,2.67312E2,7.3160126E1,4.421937E1,1.7633345E1,1.931498E1,4.2473927E1,2.2483807E2,6.9796486E1,3.3636355E0,3.7626675E1,6.5927005E0,5.0873127E0,1.2546032E1,1.5816721E1,3.4982584E0,1.0078147E1,3.2395782E1,2.2050797E2,4.3301153E0,6.3641026E1,6.1554613E0,2.248387E0,1.1152484E0,2.6719593E1,1.090708E1,5.3145914E0,1.2781092E0,2.4555917E0,2.631721E0,1.1428917E1,1.1171145E0,1.4413478E1,1.403243E0,2.3908842E0,1.1073742E0,7.3817744E0,2.6963723E0,6.247603E0,2.6148178E1,2.078336E2,1.2674359E1,1.0434994E0,3.286616E0,6.0797825E1,2.8432026E0,2.952063E0,3.2033982E0,3.1417465E0,2.3577847E1,2.8265014E0,8.080579E0,1.3449777E0,1.1106141E0,1.629326E0,1.0023949E0,1.0522349E1,3.8911295E0,6.1702576E0,1.2115169E0,1.602325E0,1.0940473E0,1.2348106E0,5.0127926E0,2.335194E0,2.3812984E1,3.2189495E1,1.756441E2,4.4146686E0,8.259691E0,5.9710205E1,1.0876167E0,1.141098E0,1.7021047E0,2.1168838E0,1.0865146E0,1.0445807E0,2.097166E0,2.0026293E1,3.5515537E0,1.2279086E0,1.5985929E0],"tree_param":{"num_deleted":"0","num_feature":"768","num_nodes":"85","size_leaf_vector":"1"}},{"base_weights":[-1.2848486E-2,-1.2177445E0,2.339073E-1,-1.4139326E0,2.0087364E-1,-5.71537E-1,3.852686E-1,2.4806289E-2,-1.471333E0,6.3912714E-1,-6.687262E-2,-1.0207938E0,3.3080944E-1,-9.586503E-1,4.5100904E-1,-6.3709325E-1,-1.5700889E0,5.7391107E-2,-3.8814154E-2,2.3493826E-1,-1.2499317E0,-8.323768E-1,7.5236523E-1,-1.2976648E0,3.328401E-2,-6.215891E-2,6.0396355E-1,-1.1912315E0,3.6536112E-2,-1.6046879E0,-2.5498584E-2,5.4047316E-2,-9.058799E-1,-1.5794226E0,-9.436417E-2,2.3078157E-2,-1.3974006E0,9.656625E-1,-3.915612E-2,-1.5344635E0,8.785873E-3,1.6672678E-1,-1.3198509E0,6.4436287E-1,-1.207732E0,1.4369047E-3,-7.282599E-2,-8.165046E-2,-1.8179031E-2,-1.1814273E-2,-5.7130814E-2,-1.0611444E-2,-8.764499E-2,3.7264697E-2,-4.9716957E-2,-9.282153E-2,-3.2662847E-3,-1.4874821E-2,5.4656293E-2,-8.554842E-2,-2.0350942E-3,1.747073E-2,-5.0428152E-2,-8.4555745E-2,1.2693896E-2,3.4422737E-2,-2.6708735E-2,-7.696609E-2,-6.985242E-4],"categories":[],"categories_nodes":[],"categories_segments":[],"categories_sizes":[],"default_left":[0,0,0,0,0,0,0,0,0,0,0,0,0,0,0,0,0,0,0,0,0,0,0,0,0,0,0,0,0,0,0,0,0,0,0,0,0,0,0,0,0,0,0,0,0,0,0,0,0,0,0,0,0,0,0,0,0,0,0,0,0,0,0,0,0,0,0,0,0],"id":12,"left_children":[1,3,5,7,9,11,13,-1,15,17,-1,19,21,23,25,27,29,-1,-1,31,33,35,37,39,-1,41,43,45,-1,47,-1,-1,49,51,53,-1,55,57,-1,59,-1,61,63,65,67,-1,-1,-1,-1,-1,-1,-1,-1,-1,-1,-1,-1,-1,-1,-1,-1,-1,-1,-1,-1,-1,-1,-1,-1],"loss_changes":[1.25317726E2,2.0224167E1,4.2876907E1,7.644371E0,7.3134665E0,2.2939535E1,2.6507946E1,0E0,4.064636E0,6.746605E0,0E0,1.1074196E1,1.0083694E1,8.619496E0,2.2176521E1,7.0782666E0,1.1728668E0,0E0,0E0,7.3717947E0,1.1975269E1,4.7430835E0,5.5647707E0,4.453285E0,0E0,1.9124975E1,1.6688835E1,2.0513535E0,0E0,1.237793E0,0E0,0E0,2.6333046E-1,5.4897423E0,6.8836536E0,0E0,2.416236E0,2.4728603E0,0E0,2.6812325E0,0E0,1.2472561E1,6.402666E0,1.1451378E1,1.9931803E0,0E0,0E0,0E0,0E0,0E0,0E0,0E0,0E0,0E0,0E0,0E0,0E0,0E0,0E0,0E0,0E0,0E0,0E0,0E0,0E0,0E0,0E0,0E0,0E0],"parents":[2147483647,0,0,1,1,2,2,3,3,4,4,5,5,6,6,8,8,9,9,11,11,12,12,13,13,14,14,15,15,16,16,19,19,20,20,21,21,22,22,23,23,25,25,26,26,27,27,29,29,32,32,33,33,34,34,36,36,37,37,39,39,41,41,42,42,43,43,44,44],"right_children":[2,4,6,8,10,12,14,-1,16,18,-1,20,22,24,26,28,30,-1,-1,32,34,36,38,40,-1,42,44,46,-1,48,-1,-1,50,52,54,-1,56,58,-1,60,-1,62,64,66,68,-1,-1,-1,-1,-1,-1,-1,-1,-1,-1,-1,-1,-1,-1,-1,-1,-1,-1,-1,-1,-1,-1,-1,-1],"split_conditions":[-9.375297E-1,4.099223E-1,-6.817268E-1,-2.1126178E-1,4.788389E-1,-3.2427393E-2,-1.2604971E0,2.4806289E-2,-3.779837E-1,1.59772E0,-6.687262E-2,-7.1934634E-1,9.233485E-1,4.869222E-1,-7.1267724E-1,8.5687137E-1,1.7024407E0,5.7391107E-2,-3.8814154E-2,4.045772E-1,1.2035158E0,-6.9827825E-1,1.2041478E0,3.3152726E-2,3.328401E-2,7.7687435E-2,1.7111652E0,-2.7217332E-1,3.6536112E-2,7.314543E-1,-2.5498584E-2,5.4047316E-2,-3.3013308E-1,-1.3079122E0,-6.840017E-1,2.3078157E-2,2.7496502E-1,-1.0864427E0,-3.915612E-2,9.0279603E-1,8.785873E-3,1.8400544E-1,1.5921329E-1,1.3232177E0,1.4296873E0,1.4369047E-3,-7.282599E-2,-8.165046E-2,-1.8179031E-2,-1.1814273E-2,-5.7130814E-2,-1.0611444E-2,-8.764499E-2,3.7264697E-2,-4.9716957E-2,-9.282153E-2,-3.2662847E-3,-1.4874821E-2,5.4656293E-2,-8.554842E-2,-2.0350942E-3,1.747073E-2,-5.0428152E-2,-8.4555745E-2,1.2693896E-2,3.4422737E-2,-2.6708735E-2,-7.696609E-2,-6.985242E-4],"split_indices":[555,568,748,191,394,445,733,0,518,37,0,372,638,352,382,231,383,0,0,232,643,266,595,584,0,471,602,501,0,751,0,0,17,16,3,0,293,501,0,689,0,420,283,636,30,0,0,0,0,0,0,0,0,0,0,0,0,0,0,0,0,0,0,0,0,0,0,0,0],"split_type":[0,0,0,0,0,0,0,0,0,0,0,0,0,0,0,0,0,0,0,0,0,0,0,0,0,0,0,0,0,0,0,0,0,0,0,0,0,0,0,0,0,0,0,0,0,0,0,0,0,0,0,0,0,0,0,0,0,0,0,0,0,0,0,0,0,0,0,0,0],"sum_hessian":[4.1954007E2,7.06457E1,3.4889438E2,6.206562E1,8.580075E0,5.4753994E1,2.9414038E2,1.5877697E0,6.047785E1,7.1326003E0,1.447475E0,3.646679E1,1.8287207E1,1.3084014E1,2.8105637E2,7.1901646E0,5.328769E1,5.385955E0,1.7466457E0,5.6234717E0,3.0843315E1,4.6053286E0,1.3681879E1,1.0991155E1,2.0928593E0,6.467226E1,2.1638411E2,5.208972E0,1.9811931E0,5.1106052E1,2.1816359E0,3.2590823E0,2.3643892E0,2.3714676E1,7.1286397E0,1.4554244E0,3.149904E0,1.2338957E1,1.342922E0,9.4335575E0,1.5575968E0,5.544866E1,9.223594E0,2.1229445E2,4.089656E0,1.0896621E0,4.1193094E0,4.9657146E1,1.4489061E0,1.1394941E0,1.2248951E0,2.9205854E0,2.079409E1,3.7768183E0,3.3518212E0,2.0498815E0,1.1000226E0,1.0087082E0,1.1330249E1,8.306626E0,1.1269314E0,4.859736E1,6.851304E0,7.402623E0,1.8209704E0,2.0503928E2,7.2551675E0,2.9740775E0,1.1155782E0],"tree_param":{"num_deleted":"0","num_feature":"768","num_nodes":"69","size_leaf_vector":"1"}},{"base_weights":[-2.4486585E-2,2.0123634E-1,-1.2225631E0,3.7232876E-1,-3.880825E-1,7.2784615E-1,-1.3516096E0,-1.2261411E0,4.2240614E-1,-1.806662E-1,-1.5347906E0,5.0729956E-2,-7.3782387E-3,3.5962354E-2,-1.4052532E0,1.7769856E-2,-1.536085E0,-5.3769197E-2,6.125722E-1,-1.5082264E0,-3.942595E-2,-8.295896E-2,-1.1120855E-2,-1.4831312E0,-4.256609E-1,-8.765589E-2,-1.574367E-2,1.752568E-1,-1.0314038E0,7.898555E-1,5.4112557E-2,-8.431305E-2,-2.2203118E-2,-1.9956847E-1,9.546317E-1,-1.5073454E0,-8.507869E-3,-1.1263375E0,4.6646796E-2,-4.8628204E-2,1.9935008E-2,2.6928762E-2,-7.365052E-2,4.2086557E-2,-3.2990657E-2,2.2057867E-2,-4.5712415E-2,3.3081394E-2,-1.8323667E-2,-1.52660925E-2,5.7617426E-2,-7.667246E-2,-8.441425E-3,-1.4801684E-2,-6.6434406E-2],"categories":[],"categories_nodes":[],"categories_segments":[],"categories_sizes":[],"default_left":[0,0,0,0,0,0,0,0,0,0,0,0,0,0,0,0,0,0,0,0,0,0,0,0,0,0,0,0,0,0,0,0,0,0,0,0,0,0,0,0,0,0,0,0,0,0,0,0,0,0,0,0,0,0,0],"id":13,"left_children":[1,3,5,7,9,11,13,15,17,19,21,-1,-1,-1,23,-1,25,27,29,31,33,-1,-1,35,37,-1,-1,39,41,43,45,-1,-1,47,49,51,-1,53,-1,-1,-1,-1,-1,-1,-1,-1,-1,-1,-1,-1,-1,-1,-1,-1,-1],"loss_changes":[1.1307072E2,3.56276E1,1.7666573E1,2.2390526E1,1.8672134E1,1.3454392E0,7.9558487E0,4.7402353E0,2.4091785E1,1.2803542E1,1.6013393E0,0E0,0E0,0E0,4.043579E0,0E0,1.3940239E0,1.7364046E1,1.8762932E1,4.9590397E-1,1.02244835E1,0E0,0E0,1.5354462E0,6.6819324E0,0E0,0E0,1.655394E1,1.0992917E1,1.1392311E1,1.7959852E1,0E0,0E0,8.164258E0,2.573514E0,1.670372E0,0E0,3.3848095E-1,0E0,0E0,0E0,0E0,0E0,0E0,0E0,0E0,0E0,0E0,0E0,0E0,0E0,0E0,0E0,0E0,0E0],"parents":[2147483647,0,0,1,1,2,2,3,3,4,4,5,5,6,6,7,7,8,8,9,9,10,10,14,14,16,16,17,17,18,18,19,19,20,20,23,23,24,24,27,27,28,28,29,29,30,30,33,33,34,34,35,35,37,37],"right_children":[2,4,6,8,10,12,14,16,18,20,22,-1,-1,-1,24,-1,26,28,30,32,34,-1,-1,36,38,-1,-1,40,42,44,46,-1,-1,48,50,52,-1,54,-1,-1,-1,-1,-1,-1,-1,-1,-1,-1,-1,-1,-1,-1,-1,-1,-1],"split_conditions":[9.783226E-1,8.1362E-1,-1.2039857E0,-2.005686E0,1.1901413E0,2.407891E0,-8.153855E-1,3.5517588E-1,-4.7728232E-1,-1.4500434E0,1.1949925E0,5.0729956E-2,-7.3782387E-3,3.5962354E-2,1.7024407E0,1.7769856E-2,1.5368131E0,3.2493302E-1,8.9338076E-1,3.450365E-1,1.534138E0,-8.295896E-2,-1.1120855E-2,1.6110777E0,1.7752854E0,-8.765589E-2,-1.574367E-2,-1.0927514E0,4.78291E-2,8.928397E-1,-8.6192845E-4,-8.431305E-2,-2.2203118E-2,-6.8598634E-1,-3.210273E-1,2.1960142E0,-8.507869E-3,3.9389843E-1,4.6646796E-2,-4.8628204E-2,1.9935008E-2,2.6928762E-2,-7.365052E-2,4.2086557E-2,-3.2990657E-2,2.2057867E-2,-4.5712415E-2,3.3081394E-2,-1.8323667E-2,-1.52660925E-2,5.7617426E-2,-7.667246E-2,-8.441425E-3,-1.4801684E-2,-6.6434406E-2],"split_indices":[677,602,614,454,698,413,610,73,748,319,311,0,0,0,383,0,207,628,759,572,673,0,0,61,209,0,0,527,222,510,677,0,0,342,105,351,0,59,0,0,0,0,0,0,0,0,0,0,0,0,0,0,0,0,0],"split_type":[0,0,0,0,0,0,0,0,0,0,0,0,0,0,0,0,0,0,0,0,0,0,0,0,0,0,0,0,0,0,0,0,0,0,0,0,0,0,0,0,0,0,0,0,0,0,0,0,0,0,0,0,0,0,0],"sum_hessian":[4.161996E2,3.5091727E2,6.5282326E1,2.722463E2,7.867097E1,3.7633188E0,6.1519012E1,7.5565424E0,2.6468976E2,6.760089E1,1.1070081E1,2.7149892E0,1.0483296E0,1.2400547E0,6.0278957E1,1.2142069E0,6.3423357E0,7.574407E1,1.8894568E2,5.5698376E0,6.203105E1,9.870302E0,1.1997787E0,5.536351E1,4.915447E0,5.01544E0,1.3268956E0,6.203269E1,1.3711381E1,1.4310316E2,4.584251E1,4.2707534E0,1.2990842E0,5.4112736E1,7.9183145E0,5.421561E1,1.1478984E0,3.3557322E0,1.559715E0,9.561739E0,5.247095E1,2.9618754E0,1.0749506E1,1.3856409E2,4.539086E0,3.314085E1,1.2701659E1,8.303616E0,4.580912E1,1.0002115E0,6.9181027E0,5.3035675E1,1.1799341E0,1.1401864E0,2.215546E0],"tree_param":{"num_deleted":"0","num_feature":"768","num_nodes":"55","size_leaf_vector":"1"}},{"base_weights":[1.3313217E-3,-1.0754981E0,2.2104947E-1,-8.0872126E-2,-1.2753721E0,-1.473049E0,2.7120015E-1,8.150127E-1,-8.6746055E-1,-1.327518E0,1.6816778E-2,-4.141297E-3,-8.120363E-2,-1.3699946E-1,4.7880796E-1,-2.1614486E-2,5.738724E-2,2.011556E-2,-1.3662559E0,-3.0018577E-1,-1.4066299E0,9.408981E-2,-1.19617E0,-3.0438256E-1,6.516724E-1,-7.990122E-2,-1.1351698E-2,3.4586847E-2,-4.90426E-2,-4.2969706E-3,-1.4365155E0,-5.9858745E-1,3.3114356E-1,-1.89371E-1,-1.5425328E0,5.357303E-1,-6.7891806E-1,7.7687806E-1,2.5206976E-2,-9.293614E-3,-7.304778E-2,-7.456271E-2,1.0260559E-2,3.878769E-2,-5.92001E-3,4.6907667E-2,-5.8636647E-2,1.4181456E-3,-8.763017E-2,-5.2225556E-2,4.1478917E-2,3.9356258E-2,-5.4733526E-2,-4.5520574E-2,4.0926423E-2,-5.003301E-2,1.9196672E-2],"categories":[],"categories_nodes":[],"categories_segments":[],"categories_sizes":[],"default_left":[0,0,0,0,0,0,0,0,0,0,0,0,0,0,0,0,0,0,0,0,0,0,0,0,0,0,0,0,0,0,0,0,0,0,0,0,0,0,0,0,0,0,0,0,0,0,0,0,0,0,0,0,0,0,0,0,0],"id":14,"left_children":[1,3,5,7,9,11,13,15,17,19,-1,-1,-1,21,23,-1,-1,-1,25,27,29,31,33,35,37,-1,-1,-1,-1,-1,39,41,43,45,47,49,51,53,55,-1,-1,-1,-1,-1,-1,-1,-1,-1,-1,-1,-1,-1,-1,-1,-1,-1,-1],"loss_changes":[9.7804184E1,1.3823273E1,2.9567856E1,9.719645E0,5.3431396E0,1.9706249E0,2.8395273E1,3.191661E0,5.1697197E0,4.181053E0,0E0,0E0,0E0,2.7887653E1,3.0228817E1,0E0,0E0,0E0,1.0800791E0,4.271105E0,1.9415207E0,1.56463995E1,6.820717E0,1.3197697E1,1.4257996E1,0E0,0E0,0E0,0E0,0E0,1.2902603E0,1.7773365E1,1.4230097E1,8.152944E0,5.011635E0,6.9661365E0,1.8325363E1,1.1404175E1,1.1922472E1,0E0,0E0,0E0,0E0,0E0,0E0,0E0,0E0,0E0,0E0,0E0,0E0,0E0,0E0,0E0,0E0,0E0,0E0],"parents":[2147483647,0,0,1,1,2,2,3,3,4,4,5,5,6,6,7,7,8,8,9,9,13,13,14,14,18,18,19,19,20,20,21,21,22,22,23,23,24,24,30,30,31,31,32,32,33,33,34,34,35,35,36,36,37,37,38,38],"right_children":[2,4,6,8,10,12,14,16,18,20,-1,-1,-1,22,24,-1,-1,-1,26,28,30,32,34,36,38,-1,-1,-1,-1,-1,40,42,44,46,48,50,52,54,56,-1,-1,-1,-1,-1,-1,-1,-1,-1,-1,-1,-1,-1,-1,-1,-1,-1,-1],"split_conditions":[-8.8496214E-1,-3.2115474E-2,-1.7087181E0,-8.041306E-2,5.9520525E-1,-8.8221E-2,-1.6112621E-1,-7.8428125E-1,-1.1106683E-1,-4.1186318E-1,1.6816778E-2,-4.141297E-3,-8.120363E-2,4.4851398E-1,-6.02808E-1,-2.1614486E-2,5.738724E-2,2.011556E-2,-2.383394E-1,-3.0222055E-1,-2.642896E0,-2.9580104E-1,-3.849602E-1,-3.5783765E-1,5.234794E-1,-7.990122E-2,-1.1351698E-2,3.4586847E-2,-4.90426E-2,-4.2969706E-3,-1.1989491E0,-5.494792E-1,-2.3029335E-1,-3.005567E-1,-6.3959205E-1,-1.9328722E0,-9.100203E-1,-1.052539E0,-3.8662687E-1,-9.293614E-3,-7.304778E-2,-7.456271E-2,1.0260559E-2,3.878769E-2,-5.92001E-3,4.6907667E-2,-5.8636647E-2,1.4181456E-3,-8.763017E-2,-5.2225556E-2,4.1478917E-2,3.9356258E-2,-5.4733526E-2,-4.5520574E-2,4.0926423E-2,-5.003301E-2,1.9196672E-2],"split_indices":[184,356,633,720,314,389,743,173,694,518,0,0,0,621,748,0,0,0,537,153,675,512,655,600,374,0,0,0,0,0,634,340,119,543,604,7,234,74,688,0,0,0,0,0,0,0,0,0,0,0,0,0,0,0,0,0,0],"split_type":[0,0,0,0,0,0,0,0,0,0,0,0,0,0,0,0,0,0,0,0,0,0,0,0,0,0,0,0,0,0,0,0,0,0,0,0,0,0,0,0,0,0,0,0,0,0,0,0,0,0,0,0,0,0,0,0,0],"sum_hessian":[4.113705E2,6.9052444E1,3.4231805E2,1.1789481E1,5.7262966E1,9.026567E0,3.332915E2,5.4949136E0,6.2945676E0,5.5639126E1,1.6238428E0,1.0362215E0,7.990346E0,1.12477585E2,2.2081392E2,1.0941384E0,4.400775E0,1.8298346E0,4.464733E0,4.321063E0,5.131806E1,9.30805E1,1.9397087E1,3.9787846E1,1.8102608E2,3.3753114E0,1.089422E0,1.7518537E0,2.5692093E0,1.2213277E0,5.0096733E1,2.3343899E1,6.9736595E1,5.3609E0,1.4036187E1,1.2135829E1,2.7652016E1,1.5067252E2,3.0353554E1,1.1251677E0,4.8971565E1,1.0655294E1,1.2688604E1,3.469586E1,3.5040737E1,2.5188062E0,2.8420937E0,1.7576392E0,1.2278548E1,1.5022902E0,1.0633539E1,5.9119177E0,2.1740097E1,3.1272385E0,1.4754527E2,7.400503E0,2.295305E1],"tree_param":{"num_deleted":"0","num_feature":"768","num_nodes":"57","size_leaf_vector":"1"}},{"base_weights":[-3.59737E-2,2.6904184E-1,-7.8810126E-1,-5.9131676E-1,3.906623E-1,-1.2028921E0,-1.1750886E-1,-9.6595E-1,4.9031976E-1,-9.1985095E-1,4.628078E-1,-1.2638677E0,3.199392E-2,9.365714E-2,-1.2866467E0,2.1841651E-1,-1.3039013E0,8.481293E-1,-4.703701E-2,-1.4457582E0,-1.6773693E-1,5.2236915E-1,-8.7497574E-1,-1.0492054E-2,-1.3481104E0,-1.0461346E0,1.9699028E-1,-8.136849E-2,-6.226191E-3,-9.3749374E-1,5.212408E-2,-1.4118366E0,1.8967438E-2,5.7376485E-2,-3.2729283E-2,-7.871544E-4,-8.374514E-2,-5.2880634E-2,5.5492014E-1,5.712177E-1,-9.230375E-1,4.279373E-1,-1.5404973E0,6.8332684E-1,-5.1091414E-2,-1.4108174E0,3.8043016E-1,-1.2392286E-2,-6.411686E-2,-7.05975E-2,7.9051536E-1,-6.636642E-2,-4.7748053E-5,3.3522116E-3,-7.6296866E-2,5.033086E-2,-2.1070106E-2,3.5510322E-3,3.6794286E-2,3.9094537E-2,-7.0800334E-2,4.859633E-2,-3.3175334E-2,-9.375941E-2,5.476139E-4,-9.190066E-4,4.8554827E-2,6.125599E-3,-7.2037436E-2,-8.184004E-3,3.70492E-2,-7.418474E-2,5.373013E-3,5.8871537E-2,-8.032408E-3],"categories":[],"categories_nodes":[],"categories_segments":[],"categories_sizes":[],"default_left":[0,0,0,0,0,0,0,0,0,0,0,0,0,0,0,0,0,0,0,0,0,0,0,0,0,0,0,0,0,0,0,0,0,0,0,0,0,0,0,0,0,0,0,0,0,0,0,0,0,0,0,0,0,0,0,0,0,0,0,0,0,0,0,0,0,0,0,0,0,0,0,0,0,0,0],"id":15,"left_children":[1,3,5,7,9,11,13,15,17,19,21,23,-1,25,27,29,31,33,-1,35,37,39,41,43,45,47,49,-1,-1,51,-1,53,-1,-1,-1,-1,-1,-1,55,57,59,61,63,65,-1,67,69,-1,-1,71,73,-1,-1,-1,-1,-1,-1,-1,-1,-1,-1,-1,-1,-1,-1,-1,-1,-1,-1,-1,-1,-1,-1,-1,-1],"loss_changes":[9.425068E1,3.0825663E1,3.2827393E1,1.5308932E1,2.4703377E1,9.025009E0,1.157691E1,1.1303564E1,5.9601326E0,5.189493E0,1.9902534E1,7.494835E0,0E0,4.9451594E0,2.6352262E0,7.6145954E0,4.4528656E0,4.6163564E0,0E0,2.5788975E0,4.9484897E0,1.7067982E1,1.0003393E1,4.548174E0,7.758774E0,3.4272265E-1,6.048753E0,0E0,0E0,1.2497551E0,0E0,3.5570755E0,0E0,0E0,0E0,0E0,0E0,0E0,2.3640442E0,1.8663643E1,7.865193E0,3.2727299E0,3.8371487E0,7.959758E-1,0E0,3.1371002E0,7.333959E-1,0E0,0E0,6.9344773E0,4.5346375E0,0E0,0E0,0E0,0E0,0E0,0E0,0E0,0E0,0E0,0E0,0E0,0E0,0E0,0E0,0E0,0E0,0E0,0E0,0E0,0E0,0E0,0E0,0E0,0E0],"parents":[2147483647,0,0,1,1,2,2,3,3,4,4,5,5,6,6,7,7,8,8,9,9,10,10,11,11,13,13,14,14,15,15,16,16,17,17,19,19,20,20,21,21,22,22,23,23,24,24,25,25,26,26,29,29,31,31,38,38,39,39,40,40,41,41,42,42,43,43,45,45,46,46,49,49,50,50],"right_children":[2,4,6,8,10,12,14,16,18,20,22,24,-1,26,28,30,32,34,-1,36,38,40,42,44,46,48,50,-1,-1,52,-1,54,-1,-1,-1,-1,-1,-1,56,58,60,62,64,66,-1,68,70,-1,-1,72,74,-1,-1,-1,-1,-1,-1,-1,-1,-1,-1,-1,-1,-1,-1,-1,-1,-1,-1,-1,-1,-1,-1,-1,-1],"split_conditions":[3.988487E-1,-7.8937435E-1,4.099223E-1,1.3890189E0,-1.2604971E0,1.1000403E0,3.5188589E-1,-3.835861E-1,1.0298853E0,1.5101862E-2,1.7090873E0,-1.6116718E0,3.199392E-2,-1.4508419E0,1.5057834E0,-8.123576E-1,2.0368943E0,-8.8839227E-1,-4.703701E-2,-8.184757E-1,-5.046659E-1,1.4283091E0,-8.3865154E-1,-9.8111343E-1,1.1906526E0,2.7799305E-1,3.4508455E-1,-8.136849E-2,-6.226191E-3,-5.0764702E-2,5.212408E-2,-1.164869E0,1.8967438E-2,5.7376485E-2,-3.2729283E-2,-7.871544E-4,-8.374514E-2,-5.2880634E-2,1.6185741E0,-4.7728232E-1,-1.3071065E0,-4.0937188E-1,3.0007067E-1,-1.5608937E0,-5.1091414E-2,-1.6010101E0,-8.6263865E-1,-1.2392286E-2,-6.411686E-2,4.2320478E-1,2.810812E-1,-6.636642E-2,-4.7748053E-5,3.3522116E-3,-7.6296866E-2,5.033086E-2,-2.1070106E-2,3.5510322E-3,3.6794286E-2,3.9094537E-2,-7.0800334E-2,4.859633E-2,-3.3175334E-2,-9.375941E-2,5.476139E-4,-9.190066E-4,4.8554827E-2,6.125599E-3,-7.2037436E-2,-8.184004E-3,3.70492E-2,-7.418474E-2,5.373013E-3,5.8871537E-2,-8.032408E-3],"split_indices":[747,418,568,643,733,418,266,648,64,672,540,766,0,298,40,134,80,252,0,662,611,262,467,628,740,76,606,0,0,116,0,678,0,0,0,0,0,0,239,748,295,370,458,216,0,167,12,0,0,499,547,0,0,0,0,0,0,0,0,0,0,0,0,0,0,0,0,0,0,0,0,0,0,0,0],"split_type":[0,0,0,0,0,0,0,0,0,0,0,0,0,0,0,0,0,0,0,0,0,0,0,0,0,0,0,0,0,0,0,0,0,0,0,0,0,0,0,0,0,0,0,0,0,0,0,0,0,0,0,0,0,0,0,0,0,0,0,0,0,0,0,0,0,0,0,0,0,0,0,0,0,0,0],"sum_hessian":[4.0891415E2,2.9138788E2,1.1752627E2,3.5610775E1,2.557771E2,7.212192E1,4.540435E1,2.6529152E1,9.081623E0,1.2733047E1,2.4304405E2,7.011599E1,2.0059319E0,3.923732E1,6.167029E0,5.9679375E0,2.0561214E1,7.590983E0,1.4906399E0,6.950634E0,5.7824125E0,2.3326793E2,9.776124E0,4.486701E0,6.562929E1,2.5031388E0,3.673418E1,4.459272E0,1.707757E0,2.4265654E0,3.5413718E0,1.9473742E1,1.0874735E0,6.526923E0,1.0640599E0,1.1075404E0,5.843094E0,2.3836696E0,3.3987427E0,2.2622722E2,7.0407085E0,3.4259737E0,6.35015E0,2.8534489E0,1.6332521E0,6.350915E1,2.1201367E0,1.0394441E0,1.4636946E0,2.5926434E1,1.0807748E1,1.4187433E0,1.0078223E0,1.4243883E0,1.8049353E1,2.302471E0,1.0962716E0,5.6384476E1,1.6984274E2,1.4477156E0,5.592993E0,2.3594823E0,1.0664914E0,5.0516906E0,1.2984593E0,1.1021237E0,1.7513251E0,1.1567677E0,6.2352383E1,1.0626012E0,1.0575356E0,2.0807312E0,2.3845701E1,7.513509E0,3.294239E0],"tree_param":{"num_deleted":"0","num_feature":"768","num_nodes":"75","size_leaf_vector":"1"}},{"base_weights":[-3.6417175E-2,1.6302142E-1,-1.1298478E0,2.4414238E-1,-9.7933507E-1,3.5597447E-1,-1.2508885E0,4.1520798E-1,-2.6637587E-1,-1.4690849E0,-1.4042854E-1,5.1028218E-2,-3.6188435E-2,-1.331879E0,3.8421072E-2,4.8619837E-1,-7.369655E-1,2.297296E-1,-8.606479E-1,-4.5645456E-3,-1.5729396E0,-8.267353E-1,5.0276417E-2,6.841231E-3,-1.3635675E0,4.5885094E-2,-5.2527666E-2,5.510489E-1,-7.014084E-1,2.387157E-1,-1.4670779E0,-1.339886E-1,7.659031E-1,6.1527467E-1,-1.1085643E0,-8.2976915E-2,-1.3664345E-2,3.9140053E-2,-1.4065005E0,-1.4202397E0,-2.7276194E-1,3.511716E-2,2.3089636E-3,-6.914885E-2,3.312505E-2,4.6035413E-2,-5.7726413E-2,3.5512794E-2,-9.566909E-2,5.0158794E-3,-6.371092E-2,-4.249831E-2,4.6192925E-2,5.4290004E-2,-3.5807725E-2,-6.677481E-2,1.06294E-2,-8.18336E-2,-1.3071151E-2,-1.5276381E-4,-7.2643705E-2,-5.336274E-2,4.2180885E-2],"categories":[],"categories_nodes":[],"categories_segments":[],"categories_sizes":[],"default_left":[0,0,0,0,0,0,0,0,0,0,0,0,0,0,0,0,0,0,0,0,0,0,0,0,0,0,0,0,0,0,0,0,0,0,0,0,0,0,0,0,0,0,0,0,0,0,0,0,0,0,0,0,0,0,0,0,0,0,0,0,0,0,0],"id":16,"left_children":[1,3,5,7,9,11,13,15,17,19,21,-1,-1,23,25,27,29,31,33,-1,35,37,-1,-1,39,-1,-1,41,43,45,47,49,51,53,55,-1,-1,-1,57,59,61,-1,-1,-1,-1,-1,-1,-1,-1,-1,-1,-1,-1,-1,-1,-1,-1,-1,-1,-1,-1,-1,-1],"loss_changes":[8.683868E1,3.1463188E1,1.1492065E1,2.7655323E1,9.054361E0,4.61747E0,6.00515E0,1.9713238E1,2.37155E1,1.8776951E0,8.235257E0,0E0,0E0,2.6847382E0,5.121621E0,1.7599884E1,1.04167E1,8.734991E0,1.4039316E1,0E0,1.0179482E0,7.1073875E0,0E0,0E0,2.8663635E0,0E0,0E0,1.619828E1,1.2083074E1,7.627314E0,9.349466E0,7.401343E0,5.389662E0,4.4694242E0,9.761433E0,0E0,0E0,0E0,9.135914E-1,2.2986221E0,4.3038034E0,0E0,0E0,0E0,0E0,0E0,0E0,0E0,0E0,0E0,0E0,0E0,0E0,0E0,0E0,0E0,0E0,0E0,0E0,0E0,0E0,0E0,0E0],"parents":[2147483647,0,0,1,1,2,2,3,3,4,4,5,5,6,6,7,7,8,8,9,9,10,10,13,13,14,14,15,15,16,16,17,17,18,18,20,20,21,21,24,24,27,27,28,28,29,29,30,30,31,31,32,32,33,33,34,34,38,38,39,39,40,40],"right_children":[2,4,6,8,10,12,14,16,18,20,22,-1,-1,24,26,28,30,32,34,-1,36,38,-1,-1,40,-1,-1,42,44,46,48,50,52,54,56,-1,-1,-1,58,60,62,-1,-1,-1,-1,-1,-1,-1,-1,-1,-1,-1,-1,-1,-1,-1,-1,-1,-1,-1,-1,-1,-1],"split_conditions":[1.1313834E0,1.3456712E0,-5.638178E-1,3.769528E-1,6.590297E-1,-6.4804417E-1,4.099223E-1,9.9352425E-1,2.7287164E-1,-1.4466661E0,1.8614297E0,5.1028218E-2,-3.6188435E-2,-1.6599059E0,4.3345213E-1,1.4610769E0,6.891151E-1,-1.9255741E-1,-1.0226079E0,-4.5645456E-3,6.497817E-1,-6.363157E-1,5.0276417E-2,6.841231E-3,1.7024407E0,4.5885094E-2,-5.2527666E-2,7.524555E-1,-1.6053785E-1,-9.841425E-1,-3.3143392E-1,-1.1149228E0,-7.7301407E-1,1.5589299E0,3.3424526E-1,-8.2976915E-2,-1.3664345E-2,3.9140053E-2,3.674598E-1,-1.8808525E0,1.7752854E0,3.511716E-2,2.3089636E-3,-6.914885E-2,3.312505E-2,4.6035413E-2,-5.7726413E-2,3.5512794E-2,-9.566909E-2,5.0158794E-3,-6.371092E-2,-4.249831E-2,4.6192925E-2,5.4290004E-2,-3.5807725E-2,-6.677481E-2,1.06294E-2,-8.18336E-2,-1.3071151E-2,-1.5276381E-4,-7.2643705E-2,-5.336274E-2,4.2180885E-2],"split_indices":[610,21,747,178,689,733,568,355,698,605,307,0,0,372,35,759,231,428,275,0,753,621,0,0,383,0,0,526,609,745,615,234,559,284,559,0,0,0,611,133,209,0,0,0,0,0,0,0,0,0,0,0,0,0,0,0,0,0,0,0,0,0,0],"split_type":[0,0,0,0,0,0,0,0,0,0,0,0,0,0,0,0,0,0,0,0,0,0,0,0,0,0,0,0,0,0,0,0,0,0,0,0,0,0,0,0,0,0,0,0,0,0,0,0,0,0,0,0,0,0,0,0,0,0,0,0,0,0,0],"sum_hessian":[3.963659E2,3.3594196E2,6.0423935E1,3.1440195E2,2.1540014E1,4.4053664E0,5.601857E1,2.356324E2,7.876955E1,1.3125953E1,8.414061E0,2.760851E0,1.6445158E0,5.267657E1,3.3419988E0,2.2250116E2,1.313124E1,4.3264908E1,3.5504642E1,1.05176E0,1.2074193E1,5.436648E0,2.977413E0,1.0424631E0,5.1634106E1,1.9360416E0,1.4059572E0,2.114886E2,1.1012559E1,5.9084983E0,7.2227416E0,2.6225027E1,1.7039883E1,4.893046E0,3.0611595E1,1.1060311E1,1.0138812E0,1.346979E0,4.089669E0,4.8796883E1,2.8372254E0,1.6242389E2,4.9064716E1,7.3337703E0,3.6787891E0,4.194469E0,1.7140293E0,1.128047E0,6.0946946E0,2.251121E1,3.7138162E0,1.1272423E0,1.5912641E1,3.7516887E0,1.141357E0,2.611501E1,4.4965854E0,3.047734E0,1.041935E0,1.1230016E0,4.767388E1,1.6832862E0,1.1539391E0],"tree_param":{"num_deleted":"0","num_feature":"768","num_nodes":"63","size_leaf_vector":"1"}},{"base_weights":[-9.041134E-3,1.6376545E-1,-1.0619255E0,-4.2144212E-1,3.4046257E-1,-1.1677078E0,1.3347943E-1,-1.2479138E0,-8.246518E-2,4.074594E-1,-7.2646517E-1,3.6593728E-2,-1.2217106E0,4.0181067E-2,-4.5220003E-2,-1.3991888E0,2.5398556E-2,8.5262334E-1,-3.7946248E-1,4.9350587E-1,-2.6669663E-1,2.5523573E-1,-1.3459619E0,-1.2674636E0,2.0913107E-2,-2.0505034E-3,-1.482998E0,1.1266056E0,-2.8272126E-2,-6.0675037E-1,6.5333945E-1,7.1223897E-1,9.6382946E-2,1.0023971E-1,-1.2059855E0,7.980841E-1,-4.2300146E-2,1.787223E-2,-1.6774712E0,-1.385847E0,-7.2389686E-1,-7.819089E-2,1.3920305E-3,6.000631E-2,9.0678E-3,-5.9474718E-2,-3.3679963E-3,-2.8958937E-2,5.74587E-2,3.8094044E-2,-4.6620727E-2,-7.477112E-2,9.2985425E-3,-4.731406E-2,3.0879004E-2,1.941683E-2,-8.844817E-2,-4.074014E-3,5.2441027E-2,-2.4607284E-2,-8.970297E-2,-7.092013E-2,-9.12496E-3,-6.0072035E-2,1.6183244E-2],"categories":[],"categories_nodes":[],"categories_segments":[],"categories_sizes":[],"default_left":[0,0,0,0,0,0,0,0,0,0,0,0,0,0,0,0,0,0,0,0,0,0,0,0,0,0,0,0,0,0,0,0,0,0,0,0,0,0,0,0,0,0,0,0,0,0,0,0,0,0,0,0,0,0,0,0,0,0,0,0,0,0,0,0,0],"id":17,"left_children":[1,3,5,7,9,11,13,15,17,19,21,-1,23,-1,-1,25,-1,27,29,31,33,35,37,39,-1,-1,41,43,-1,45,47,49,51,53,55,57,-1,-1,59,61,63,-1,-1,-1,-1,-1,-1,-1,-1,-1,-1,-1,-1,-1,-1,-1,-1,-1,-1,-1,-1,-1,-1,-1,-1],"loss_changes":[7.175202E1,3.5177544E1,7.186447E0,2.2035215E1,1.893712E1,6.144455E0,4.4947405E0,6.796913E0,1.618353E1,1.4402771E1,9.932745E0,0E0,4.2923813E0,0E0,0E0,2.370758E0,0E0,6.1051435E0,1.073312E1,1.8913002E1,9.94216E0,4.8245516E0,6.148611E0,2.1517181E0,0E0,0E0,2.4968643E0,6.2527657E-1,0E0,1.1427352E1,5.813774E0,1.22020035E1,1.1511032E1,1.2178139E1,7.9406843E0,1.2242715E0,0E0,0E0,2.7808762E-1,1.275528E0,5.8225546E0,0E0,0E0,0E0,0E0,0E0,0E0,0E0,0E0,0E0,0E0,0E0,0E0,0E0,0E0,0E0,0E0,0E0,0E0,0E0,0E0,0E0,0E0,0E0,0E0],"parents":[2147483647,0,0,1,1,2,2,3,3,4,4,5,5,6,6,7,7,8,8,9,9,10,10,12,12,15,15,17,17,18,18,19,19,20,20,21,21,22,22,23,23,26,26,27,27,29,29,30,30,31,31,32,32,33,33,34,34,35,35,38,38,39,39,40,40],"right_children":[2,4,6,8,10,12,14,16,18,20,22,-1,24,-1,-1,26,-1,28,30,32,34,36,38,40,-1,-1,42,44,-1,46,48,50,52,54,56,58,-1,-1,60,62,64,-1,-1,-1,-1,-1,-1,-1,-1,-1,-1,-1,-1,-1,-1,-1,-1,-1,-1,-1,-1,-1,-1,-1,-1],"split_conditions":[1.1576355E0,-5.7849014E-1,1.0203104E0,-4.4937775E-1,1.2097957E0,-1.4237188E0,1.2957894E-2,1.7358328E0,-1.028374E0,1.2355887E0,-3.5274214E-1,3.6593728E-2,1.044849E0,4.0181067E-2,-4.5220003E-2,-1.0399871E0,2.5398556E-2,1.5866824E0,3.9512315E-1,2.7627572E-1,3.8122892E-1,8.2696766E-1,-1.0987003E0,2.095811E0,2.0913107E-2,-2.0505034E-3,6.1421984E-1,3.4773496E-1,-2.8272126E-2,6.90965E-1,-1.1906222E0,1.7090873E0,-7.9390544E-1,-2.6027784E-1,4.8938066E-1,-3.7671426E-1,-4.2300146E-2,1.787223E-2,-8.9519906E-1,2.1032188E0,-6.5474164E-1,-7.819089E-2,1.3920305E-3,6.000631E-2,9.0678E-3,-5.9474718E-2,-3.3679963E-3,-2.8958937E-2,5.74587E-2,3.8094044E-2,-4.6620727E-2,-7.477112E-2,9.2985425E-3,-4.731406E-2,3.0879004E-2,1.941683E-2,-8.844817E-2,-4.074014E-3,5.2441027E-2,-2.4607284E-2,-8.970297E-2,-7.092013E-2,-9.12496E-3,-6.0072035E-2,1.6183244E-2],"split_indices":[610,748,736,298,49,606,55,660,484,416,436,0,576,0,0,540,0,88,690,215,156,359,7,747,0,0,562,461,0,131,189,540,261,609,596,568,0,0,53,33,131,0,0,0,0,0,0,0,0,0,0,0,0,0,0,0,0,0,0,0,0,0,0,0,0],"split_type":[0,0,0,0,0,0,0,0,0,0,0,0,0,0,0,0,0,0,0,0,0,0,0,0,0,0,0,0,0,0,0,0,0,0,0,0,0,0,0,0,0,0,0,0,0,0,0,0,0,0,0,0,0,0,0,0,0,0,0,0,0,0,0,0,0],"sum_hessian":[3.9240448E2,3.3780594E2,5.459856E1,7.8021034E1,2.597849E2,5.018116E1,4.417399E0,2.1912931E1,5.6108105E1,2.4501733E2,1.476756E1,1.040167E0,4.914099E1,2.8213847E0,1.596014E0,2.036184E1,1.5510924E0,1.3074033E1,4.3034073E1,2.1752174E2,2.7495602E1,5.941001E0,8.826559E0,4.8028217E1,1.1127769E0,1.2700038E0,1.9091835E1,1.11292925E1,1.9447397E0,3.5609943E1,7.42413E0,1.3975305E2,7.776869E1,2.0414062E1,7.08154E0,4.163779E0,1.7772224E0,1.4251943E0,7.401365E0,3.8166412E1,9.861805E0,1.808912E1,1.0027138E0,1.0075955E1,1.0533372E0,1.6537731E1,1.9072212E1,2.0816326E0,5.3424973E0,1.3617938E2,3.5736582E0,3.3075545E0,7.4461136E1,6.4788847E0,1.3935177E1,1.9289812E0,5.152559E0,1.0734019E0,3.0903769E0,1.1303716E0,6.270993E0,3.6987038E1,1.1793721E0,6.672961E0,3.1888437E0],"tree_param":{"num_deleted":"0","num_feature":"768","num_nodes":"65","size_leaf_vector":"1"}},{"base_weights":[-3.7728273E-3,1.765243E-1,-1.0712608E0,-3.7202334E-1,3.6915472E-1,2.987792E-2,-1.136779E0,1.778567E-1,-7.4141103E-1,-8.986773E-1,4.5618078E-1,2.0975916E-2,-1.1914288E0,6.486585E-1,-6.9282764E-1,5.14575E-1,-9.5488274E-1,3.2458815E-1,-1.3161281E0,-8.2467645E-1,5.090981E-1,-1.2838178E0,-6.908267E-2,-6.456537E-1,8.0504155E-1,-1.0636251E0,4.4964507E-2,-4.1835636E-2,1.0439181E0,1.0947326E-1,-1.127804E0,-3.806239E-2,4.284043E-2,-1.5611805E0,2.2975542E-2,3.0624274E-2,-1.2882937E0,7.101098E-1,1.6035196E-1,1.09080635E-2,-1.3323623E0,-4.4219356E-2,3.967284E-2,-4.6668106E-4,-4.7190364E-2,-2.827155E-2,4.8903868E-2,8.04081E-3,-7.1659446E-2,1.4676468E-2,5.6388028E-2,-7.169386E-2,4.671386E-2,-6.43677E-2,6.14894E-3,-1.8040163E-2,-8.267676E-2,1.4451896E-2,-7.860049E-2,4.0823016E-2,1.1807885E-3,1.6874906E-2,-5.5187464E-2,-2.2573578E-4,-6.831333E-2],"categories":[],"categories_nodes":[],"categories_segments":[],"categories_sizes":[],"default_left":[0,0,0,0,0,0,0,0,0,0,0,0,0,0,0,0,0,0,0,0,0,0,0,0,0,0,0,0,0,0,0,0,0,0,0,0,0,0,0,0,0,0,0,0,0,0,0,0,0,0,0,0,0,0,0,0,0,0,0,0,0,0,0,0,0],"id":18,"left_children":[1,3,5,7,9,-1,11,13,15,17,19,-1,21,23,25,27,29,31,33,35,37,39,41,43,45,47,-1,-1,49,51,53,-1,-1,55,-1,-1,57,59,61,-1,63,-1,-1,-1,-1,-1,-1,-1,-1,-1,-1,-1,-1,-1,-1,-1,-1,-1,-1,-1,-1,-1,-1,-1,-1],"loss_changes":[7.611073E1,3.588762E1,6.9268417E0,1.8093506E1,2.8092945E1,0E0,5.205368E0,1.5345838E1,1.4725534E1,8.828826E0,1.6378391E1,0E0,5.4805603E0,5.3983593E0,8.771137E0,6.8549237E0,8.539528E0,3.5349805E0,6.1409645E0,7.267468E0,1.578001E1,3.9047852E0,4.3176327E0,5.894135E-1,5.758155E0,5.296239E0,0E0,0E0,7.498264E-2,1.0635209E1,8.026009E0,0E0,0E0,6.4284897E-1,0E0,0E0,3.888483E0,1.0460014E1,1.922538E1,0E0,2.161827E0,0E0,0E0,0E0,0E0,0E0,0E0,0E0,0E0,0E0,0E0,0E0,0E0,0E0,0E0,0E0,0E0,0E0,0E0,0E0,0E0,0E0,0E0,0E0,0E0],"parents":[2147483647,0,0,1,1,2,2,3,3,4,4,6,6,7,7,8,8,9,9,10,10,12,12,13,13,14,14,15,15,16,16,17,17,18,18,19,19,20,20,21,21,22,22,23,23,24,24,25,25,28,28,29,29,30,30,33,33,36,36,37,37,38,38,40,40],"right_children":[2,4,6,8,10,-1,12,14,16,18,20,-1,22,24,26,28,30,32,34,36,38,40,42,44,46,48,-1,-1,50,52,54,-1,-1,56,-1,-1,58,60,62,-1,64,-1,-1,-1,-1,-1,-1,-1,-1,-1,-1,-1,-1,-1,-1,-1,-1,-1,-1,-1,-1,-1,-1,-1,-1],"split_conditions":[1.1313834E0,-5.4859275E-1,-8.172383E-1,-3.5783765E-1,-1.1795785E0,2.987792E-2,-1.0545459E0,8.2848316E-1,-1.3973491E0,-1.4434319E0,-1.5362895E0,2.0975916E-2,1.592394E0,-8.845743E-1,2.6262578E-2,-9.3597823E-1,-9.203716E-1,-1.7912428E0,-3.6630577E-1,-5.232369E-1,5.573495E-1,-1.9260527E0,-8.1050694E-1,-1.3892075E-1,-1.1534805E0,-4.647437E-1,4.4964507E-2,-4.1835636E-2,-1.0434325E0,-9.605293E-1,7.692035E-1,-3.806239E-2,4.284043E-2,-1.893558E0,2.2975542E-2,3.0624274E-2,-1.0597156E0,8.377105E-1,6.6686535E-1,1.09080635E-2,-1.7852571E0,-4.4219356E-2,3.967284E-2,-4.6668106E-4,-4.7190364E-2,-2.827155E-2,4.8903868E-2,8.04081E-3,-7.1659446E-2,1.4676468E-2,5.6388028E-2,-7.169386E-2,4.671386E-2,-6.43677E-2,6.14894E-3,-1.8040163E-2,-8.267676E-2,1.4451896E-2,-7.860049E-2,4.0823016E-2,1.1807885E-3,1.6874906E-2,-5.5187464E-2,-2.2573578E-4,-6.831333E-2],"split_indices":[610,748,747,600,733,0,537,336,169,415,298,0,383,250,174,197,234,727,559,266,106,93,456,18,325,755,0,0,18,639,498,0,0,521,0,0,638,411,739,0,394,0,0,0,0,0,0,0,0,0,0,0,0,0,0,0,0,0,0,0,0,0,0,0,0],"split_type":[0,0,0,0,0,0,0,0,0,0,0,0,0,0,0,0,0,0,0,0,0,0,0,0,0,0,0,0,0,0,0,0,0,0,0,0,0,0,0,0,0,0,0,0,0,0,0,0,0,0,0,0,0,0,0,0,0,0,0,0,0,0,0,0,0],"sum_hessian":[3.9346976E2,3.3732986E2,5.6139874E1,8.742919E1,2.4990068E2,1.8140281E0,5.4325848E1,3.5339863E1,5.208933E1,1.5452707E1,2.3444797E2,1.6164591E0,5.270939E1,2.3102655E1,1.2237209E1,7.3622355E0,4.4727093E1,3.988263E0,1.1464444E1,8.723062E0,2.2572491E2,4.8567547E1,4.141843E0,2.1531696E0,2.0949486E1,1.0194821E1,2.0423877E0,1.9088163E0,5.453419E0,6.302318E0,3.8424774E1,1.1702976E0,2.8179653E0,1.0180264E1,1.2841799E0,2.0493138E0,6.6737475E0,1.4253427E2,8.3190636E1,1.4111801E0,4.7156364E1,2.1162012E0,2.0256417E0,1.0160396E0,1.1371301E0,2.0943298E0,1.8855156E1,2.4945872E0,7.7002344E0,1.0004419E0,4.452977E0,1.9378397E0,4.3644786E0,3.405188E1,4.3728943E0,1.0778359E0,9.102428E0,1.0145513E0,5.659196E0,1.2325109E2,1.9283184E1,7.360845E1,9.582183E0,1.202296E0,4.5954067E1],"tree_param":{"num_deleted":"0","num_feature":"768","num_nodes":"65","size_leaf_vector":"1"}},{"base_weights":[-3.624894E-2,2.5387594E-1,-6.2552667E-1,-8.0067195E-2,5.5518025E-1,-1.0346403E0,-2.4872001E-2,2.201115E-2,-1.2575071E0,-1.1682849E0,6.1893016E-1,-1.1001928E0,4.4933684E-2,1.4855558E-1,-1.0830584E0,-2.365503E-1,6.583347E-1,2.0593362E-2,-1.6004114E0,-9.1441415E-2,7.7579464E-3,-9.1908026E-1,6.8989605E-1,-1.1994879E0,-3.4986217E-2,-8.317268E-1,2.8451034E-1,1.9902421E-2,-7.881918E-2,3.400033E-2,-9.27335E-1,-7.2265035E-1,8.289191E-1,-9.5167495E-2,-5.2334E-1,2.6618516E-2,-1.4863855E0,-7.6893425E-1,7.3842394E-1,-1.2696191E0,-1.9505853E-2,4.4501908E-2,-8.168731E-1,3.6107108E-2,-1.4414648E0,9.055656E-1,-2.9393269E-2,-8.378119E-2,8.181772E-3,1.1564302E-2,-6.1516166E-2,-7.2007105E-2,1.2312491E-2,5.041781E-2,-1.046148E-2,-4.4610254E-2,6.4696367E-3,-1.5396523E-2,-8.661885E-2,-1.0754406E-1,1.5560883E-2,-6.2837064E-2,3.851167E-2,2.1376334E-2,-6.536399E-2,4.4697244E-2,-5.0278127E-2,5.1423013E-3,-5.788846E-2,-8.081497E-2,-2.1198766E-2,5.366611E-2,-2.598312E-2,5.6118253E-3,-5.41099E-2],"categories":[],"categories_nodes":[],"categories_segments":[],"categories_sizes":[],"default_left":[0,0,0,0,0,0,0,0,0,0,0,0,0,0,0,0,0,0,0,0,0,0,0,0,0,0,0,0,0,0,0,0,0,0,0,0,0,0,0,0,0,0,0,0,0,0,0,0,0,0,0,0,0,0,0,0,0,0,0,0,0,0,0,0,0,0,0,0,0,0,0,0,0,0,0],"id":19,"left_children":[1,3,5,7,9,11,13,15,17,19,21,23,-1,25,27,29,31,-1,33,-1,-1,35,37,39,41,43,45,-1,-1,47,49,51,53,-1,55,-1,57,59,61,63,65,-1,67,-1,69,71,73,-1,-1,-1,-1,-1,-1,-1,-1,-1,-1,-1,-1,-1,-1,-1,-1,-1,-1,-1,-1,-1,-1,-1,-1,-1,-1,-1,-1],"loss_changes":[6.596988E1,2.607001E1,3.1252796E1,1.4878136E1,1.5676369E1,1.0581169E1,9.813045E0,1.9024313E1,6.311631E0,4.8303866E0,1.5030216E1,7.7487717E0,0E0,6.3763356E0,6.126977E0,1.5409533E1,8.467183E0,0E0,1.7435455E0,0E0,0E0,5.9346023E0,9.533962E0,5.548424E0,6.0146093E0,6.5985813E0,8.059079E0,0E0,0E0,1.3591857E1,8.4262085E0,3.278786E0,5.8355007E0,0E0,8.91305E-1,0E0,8.448849E-1,7.4870615E0,8.779549E0,4.6209106E0,5.2167163E0,0E0,1.5247169E0,0E0,1.2352562E-1,3.8727064E0,4.346842E0,0E0,0E0,0E0,0E0,0E0,0E0,0E0,0E0,0E0,0E0,0E0,0E0,0E0,0E0,0E0,0E0,0E0,0E0,0E0,0E0,0E0,0E0,0E0,0E0,0E0,0E0,0E0,0E0],"parents":[2147483647,0,0,1,1,2,2,3,3,4,4,5,5,6,6,7,7,8,8,9,9,10,10,11,11,13,13,14,14,15,15,16,16,18,18,21,21,22,22,23,23,24,24,25,25,26,26,29,29,30,30,31,31,32,32,34,34,36,36,37,37,38,38,39,39,40,40,42,42,44,44,45,45,46,46],"right_children":[2,4,6,8,10,12,14,16,18,20,22,24,-1,26,28,30,32,-1,34,-1,-1,36,38,40,42,44,46,-1,-1,48,50,52,54,-1,56,-1,58,60,62,64,66,-1,68,-1,70,72,74,-1,-1,-1,-1,-1,-1,-1,-1,-1,-1,-1,-1,-1,-1,-1,-1,-1,-1,-1,-1,-1,-1,-1,-1,-1,-1,-1,-1],"split_conditions":[2.1896577E-1,5.1238406E-2,3.9999175E-1,1.5829473E0,-1.2511587E0,1.4715432E0,3.655493E-1,9.945129E-1,-1.1304361E0,-7.275338E-1,-1.6128412E0,1.592394E0,4.4933684E-2,-3.9720422E-1,-1.0322679E0,1.0130107E0,-1.7785074E0,2.0593362E-2,7.6981336E-1,-9.1441415E-2,7.7579464E-3,-4.533431E-1,-1.7600689E0,7.22282E-1,-5.292801E-1,1.8898988E-1,5.274495E-1,1.9902421E-2,-7.881918E-2,-1.3329972E0,-1.212449E0,1.0041941E0,-6.5185124E-1,-9.5167495E-2,-2.0391293E0,2.6618516E-2,-6.341337E-1,-4.2133418E-1,-1.5934708E0,-1.4712834E0,-5.4175186E-1,4.4501908E-2,-3.8569018E-1,3.6107108E-2,8.5651577E-1,1.4525797E0,6.816623E-1,-8.378119E-2,8.181772E-3,1.1564302E-2,-6.1516166E-2,-7.2007105E-2,1.2312491E-2,5.041781E-2,-1.046148E-2,-4.4610254E-2,6.4696367E-3,-1.5396523E-2,-8.661885E-2,-1.0754406E-1,1.5560883E-2,-6.2837064E-2,3.851167E-2,2.1376334E-2,-6.536399E-2,4.4697244E-2,-5.0278127E-2,5.1423013E-3,-5.788846E-2,-8.081497E-2,-2.1198766E-2,5.366611E-2,-2.598312E-2,5.6118253E-3,-5.41099E-2],"split_indices":[747,499,568,684,158,418,266,97,190,465,633,383,0,319,335,545,423,0,569,0,0,731,152,608,497,181,49,0,0,545,412,425,305,0,530,0,579,413,43,738,462,0,467,0,756,290,428,0,0,0,0,0,0,0,0,0,0,0,0,0,0,0,0,0,0,0,0,0,0,0,0,0,0,0,0],"split_type":[0,0,0,0,0,0,0,0,0,0,0,0,0,0,0,0,0,0,0,0,0,0,0,0,0,0,0,0,0,0,0,0,0,0,0,0,0,0,0,0,0,0,0,0,0,0,0,0,0,0,0,0,0,0,0,0,0,0,0,0,0,0,0,0,0,0,0,0,0,0,0,0,0,0,0],"sum_hessian":[3.8394083E2,2.576558E2,1.2628502E2,1.2255704E2,1.3509877E2,7.46901E1,5.1594917E1,1.1368261E2,8.874427E0,4.2009497E0,1.3089781E2,7.2657455E1,2.032651E0,4.5068237E1,6.5266805E0,8.128273E1,3.2399883E1,1.4779844E0,7.396442E0,2.5475655E0,1.6533843E0,5.2462926E0,1.2565152E2,6.634676E1,6.31069E0,4.865874E0,4.0202362E1,1.6789907E0,4.8476896E0,5.909036E1,2.2192368E1,3.2063346E0,2.9193548E1,5.1740336E0,2.2224085E0,1.4916041E0,3.7546885E0,3.5673022E0,1.2208422E2,6.2553013E1,3.7937503E0,2.8273845E0,3.4833055E0,1.3193264E0,3.5465474E0,1.2864741E1,2.733762E1,3.3242714E0,5.5766087E1,4.649484E0,1.7542883E1,1.5627307E0,1.6436039E0,2.491573E1,4.2778187E0,1.185561E0,1.0368476E0,1.0372752E0,2.7174134E0,1.1301329E0,2.4371693E0,1.3115609E0,1.2077266E2,1.133219E0,6.1419796E1,2.017873E0,1.7758775E0,1.1307936E0,2.352512E0,2.5242841E0,1.0222634E0,1.173087E1,1.1338711E0,2.4883528E1,2.4540925E0],"tree_param":{"num_deleted":"0","num_feature":"768","num_nodes":"75","size_leaf_vector":"1"}},{"base_weights":[-1.3202161E-2,-9.5186514E-1,1.7612286E-1,-1.1865929E0,-1.3870619E-1,3.3800614E-1,-3.2597908E-1,-1.2334186E0,8.534384E-3,7.232465E-1,-6.8012863E-1,-8.842801E-2,4.8284537E-1,-1.2649466E0,-1.3911353E-1,-1.3194598E0,-4.0865943E-1,5.568375E-2,-3.5507094E-2,-1.1382275E0,5.085151E-1,-8.9928377E-1,2.3027585E-1,-1.4070792E0,5.291883E-1,1.4348909E-2,-1.4392552E0,-9.479167E-1,7.1411245E-2,-6.707992E-2,-1.701268E-2,-9.9468035E-1,4.5711257E-2,-1.3961359E0,1.3388771E-2,-6.717174E-3,4.0966958E-2,-1.7085989E0,-3.1481016E-1,5.2477944E-1,-6.283609E-1,3.6779547E-3,-9.78029E-2,2.1744795E-1,8.341843E-1,-1.1012458E-2,-1.6459227E0,2.6319046E-2,-1.172936E0,1.966044E-1,-6.534173E-2,-5.9109535E-2,-1.0076929E-2,-1.9714637E-2,-7.748811E-2,-4.90011E-3,-9.791399E-2,1.615201E-2,-8.101045E-2,5.381893E-2,3.2839999E-3,1.9412769E-2,-5.9942227E-2,2.0304313E-2,-3.2275002E-2,-4.495804E-3,4.777278E-2,-1.3710304E-2,-8.8545E-2,6.914735E-4,-7.3484674E-2,4.41476E-2,-4.5004226E-3],"categories":[],"categories_nodes":[],"categories_segments":[],"categories_sizes":[],"default_left":[0,0,0,0,0,0,0,0,0,0,0,0,0,0,0,0,0,0,0,0,0,0,0,0,0,0,0,0,0,0,0,0,0,0,0,0,0,0,0,0,0,0,0,0,0,0,0,0,0,0,0,0,0,0,0,0,0,0,0,0,0,0,0,0,0,0,0,0,0,0,0,0,0],"id":20,"left_children":[1,3,5,7,9,11,13,15,-1,17,19,21,23,25,27,29,31,-1,-1,33,35,37,39,41,43,-1,45,47,49,-1,-1,51,-1,53,-1,-1,-1,55,57,59,61,-1,-1,63,65,-1,67,-1,69,71,-1,-1,-1,-1,-1,-1,-1,-1,-1,-1,-1,-1,-1,-1,-1,-1,-1,-1,-1,-1,-1,-1,-1],"loss_changes":[6.844879E1,1.2174324E1,2.6167336E1,3.390358E0,7.778179E0,1.5045876E1,1.3627104E1,2.9014664E0,0E0,4.4330497E0,6.081064E0,1.6340929E1,1.6639275E1,3.9117718E0,1.1430691E1,4.855652E-1,5.5832534E0,0E0,0E0,3.1307192E0,8.098716E-1,7.8909044E0,1.1863982E1,3.896618E0,1.6729557E1,0E0,2.608717E0,5.2130184E0,9.553956E0,0E0,0E0,4.5435047E-1,0E0,4.0245724E-1,0E0,0E0,0E0,2.722105E0,1.01593075E1,8.668242E0,7.4855113E0,0E0,0E0,1.4800562E1,1.0121548E1,0E0,1.2167015E0,0E0,4.3620987E0,9.9671335E0,0E0,0E0,0E0,0E0,0E0,0E0,0E0,0E0,0E0,0E0,0E0,0E0,0E0,0E0,0E0,0E0,0E0,0E0,0E0,0E0,0E0,0E0,0E0],"parents":[2147483647,0,0,1,1,2,2,3,3,4,4,5,5,6,6,7,7,9,9,10,10,11,11,12,12,13,13,14,14,15,15,16,16,19,19,20,20,21,21,22,22,23,23,24,24,26,26,27,27,28,28,31,31,33,33,37,37,38,38,39,39,40,40,43,43,44,44,46,46,48,48,49,49],"right_children":[2,4,6,8,10,12,14,16,-1,18,20,22,24,26,28,30,32,-1,-1,34,36,38,40,42,44,-1,46,48,50,-1,-1,52,-1,54,-1,-1,-1,56,58,60,62,-1,-1,64,66,-1,68,-1,70,72,-1,-1,-1,-1,-1,-1,-1,-1,-1,-1,-1,-1,-1,-1,-1,-1,-1,-1,-1,-1,-1,-1,-1],"split_conditions":[-1.1762962E0,-6.0432594E-2,8.1362E-1,4.099223E-1,5.503603E-1,-5.3385377E-1,-6.118671E-1,1.592394E0,8.534384E-3,1.5658278E0,1.5406229E-1,-8.488473E-2,-2.0040996E0,-9.364319E-1,-7.958593E-1,2.1583278E-1,-7.284944E-1,5.568375E-2,-3.5507094E-2,-9.517226E-2,-2.6842983E-2,-5.4277617E-1,6.3039553E-1,4.9142025E-2,-7.010011E-2,1.4348909E-2,-6.739101E-1,-7.585821E-1,2.105359E0,-6.707992E-2,-1.701268E-2,1.5554807E0,4.5711257E-2,-1.3627874E0,1.3388771E-2,-6.717174E-3,4.0966958E-2,-6.249625E-1,6.1284494E-1,4.5426938E-1,-5.8595973E-1,3.6779547E-3,-9.78029E-2,7.341998E-1,-4.7724366E-1,-1.1012458E-2,-8.261686E-1,2.6319046E-2,-5.079439E-1,-1.7314665E-1,-6.534173E-2,-5.9109535E-2,-1.0076929E-2,-1.9714637E-2,-7.748811E-2,-4.90011E-3,-9.791399E-2,1.615201E-2,-8.101045E-2,5.381893E-2,3.2839999E-3,1.9412769E-2,-5.9942227E-2,2.0304313E-2,-3.2275002E-2,-4.495804E-3,4.777278E-2,-1.3710304E-2,-8.8545E-2,6.914735E-4,-7.3484674E-2,4.41476E-2,-4.5004226E-3],"split_indices":[161,418,602,568,356,748,580,383,0,656,536,23,688,248,761,712,456,0,0,481,245,11,636,46,298,0,390,55,602,0,0,62,0,456,0,0,0,331,255,710,504,0,0,487,162,0,344,0,254,733,0,0,0,0,0,0,0,0,0,0,0,0,0,0,0,0,0,0,0,0,0,0,0],"split_type":[0,0,0,0,0,0,0,0,0,0,0,0,0,0,0,0,0,0,0,0,0,0,0,0,0,0,0,0,0,0,0,0,0,0,0,0,0,0,0,0,0,0,0,0,0,0,0,0,0,0,0,0,0,0,0,0,0,0,0,0,0,0,0,0,0,0,0,0,0,0,0,0,0],"sum_hessian":[3.8322278E2,6.3645287E1,3.1957748E2,4.90323E1,1.4612987E1,2.4190985E2,7.7667625E1,4.7485332E1,1.5469679E0,5.5081315E0,9.104856E0,6.143197E1,1.8047789E2,1.1933671E1,6.5733955E1,4.2456356E1,5.028977E0,4.5042925E0,1.0038387E0,6.6026382E0,2.502217E0,1.6818968E1,4.4613E1,3.6168208E0,1.7686107E2,1.1397487E0,1.0793922E1,1.2852817E1,5.288114E1,4.1155792E1,1.3005625E0,3.6570487E0,1.3719282E0,5.5851507E0,1.0174875E0,1.0005736E0,1.5016434E0,6.246368E0,1.0572599E1,3.3508686E1,1.1104312E1,1.212533E0,2.4042878E0,8.8310616E1,8.855045E1,1.8641497E0,8.929772E0,1.5245948E0,1.1328221E1,4.9263622E1,3.6175163E0,2.56106E0,1.0959885E0,1.2167735E0,4.368377E0,1.0252672E0,5.2211003E0,7.6077824E0,2.9648166E0,1.4610232E1,1.8898455E1,4.106268E0,6.9980445E0,7.29035E1,1.5407109E1,1.0302539E1,7.824791E1,1.012366E0,7.9174066E0,2.4567623E0,8.871459E0,1.3899074E1,3.536455E1],"tree_param":{"num_deleted":"0","num_feature":"768","num_nodes":"73","size_leaf_vector":"1"}},{"base_weights":[2.2047743E-2,2.6946163E-1,-6.0554844E-1,-2.4698641E-2,5.508078E-1,-1.0278889E0,-2.3547085E-2,-5.5997145E-1,2.2449802E-1,-6.548108E-1,6.213622E-1,-1.0955364E0,2.754309E-1,1.7561352E-1,-1.0181967E0,-1.1944907E0,-9.744627E-2,-1.0500432E-1,6.82023E-1,4.248319E-1,-1.5492688E0,-5.0807244E-1,7.000383E-1,-1.2109419E0,-2.0067118E-1,4.3572154E-2,-3.1770818E-2,7.918989E-1,-6.580637E-2,-1.3781027E0,1.5096219E-2,1.5439704E-2,-1.3944895E0,-5.4059577E-1,5.286463E-1,-5.6606126E-1,3.6152598E-1,-4.565243E-2,7.9016954E-1,4.5728303E-2,-3.0539582E-2,-1.0357349E-1,2.3547153E-3,1.9183983E-1,-1.4940758E0,7.6341456E-1,-4.4379428E-1,7.652527E-2,-1.2744709E0,7.66552E-1,-9.5809007E-1,1.0613093E0,-2.2839589E-2,-9.28074E-1,6.708633E-2,-7.7545136E-2,-1.6024103E-2,1.9108629E-2,-7.916798E-2,-7.278315E-2,-2.985834E-3,-4.1944664E-2,3.740693E-2,3.4864232E-2,-3.6461025E-2,-2.553617E-2,4.207601E-2,-4.0487386E-2,4.549918E-2,4.8935972E-2,-4.5564823E-2,-8.832854E-2,-2.4341142E-2,4.1771688E-2,-3.945658E-3,-6.1217356E-2,3.557816E-2,-3.724903E-2,3.840382E-2,-6.6087924E-2,-1.3988878E-3,5.143201E-2,-4.7613736E-4,-4.9748765E-3,-5.9115317E-2,1.1163498E-2,5.7144154E-2,-7.164278E-2,1.1328766E-2,5.1866103E-2,-5.9743593E-3],"categories":[],"categories_nodes":[],"categories_segments":[],"categories_sizes":[],"default_left":[0,0,0,0,0,0,0,0,0,0,0,0,0,0,0,0,0,0,0,0,0,0,0,0,0,0,0,0,0,0,0,0,0,0,0,0,0,0,0,0,0,0,0,0,0,0,0,0,0,0,0,0,0,0,0,0,0,0,0,0,0,0,0,0,0,0,0,0,0,0,0,0,0,0,0,0,0,0,0,0,0,0,0,0,0,0,0,0,0,0,0],"id":21,"left_children":[1,3,5,7,9,11,13,15,17,19,21,23,25,27,29,31,33,35,37,39,41,43,45,47,49,-1,-1,51,53,55,-1,-1,57,59,61,63,65,-1,67,-1,-1,-1,-1,69,71,73,75,77,79,81,83,85,-1,87,89,-1,-1,-1,-1,-1,-1,-1,-1,-1,-1,-1,-1,-1,-1,-1,-1,-1,-1,-1,-1,-1,-1,-1,-1,-1,-1,-1,-1,-1,-1,-1,-1,-1,-1,-1,-1],"loss_changes":[5.8198036E1,2.225676E1,2.6028084E1,1.7779251E1,1.2095818E1,5.7147446E0,9.210598E0,1.230604E1,1.379326E1,8.464989E0,1.1937012E1,5.8053436E0,2.63214E0,5.8308506E0,4.0998335E0,5.7693634E0,7.380482E0,1.1772355E1,7.3179417E0,2.8143892E0,3.9625998E0,6.544014E0,9.202068E0,4.3243484E0,6.5137544E0,0E0,0E0,4.1883597E0,3.3659601E0,6.4922714E-1,0E0,0E0,5.9248257E0,6.7192845E0,3.9604764E0,6.1641636E0,1.1876809E1,0E0,7.704527E0,0E0,0E0,0E0,0E0,6.264275E0,2.0440578E-1,7.1159515E0,7.2300196E0,2.488706E0,2.8692093E0,8.2748795E-1,8.196478E-1,3.8443756E-1,0E0,2.607921E0,4.814795E0,0E0,0E0,0E0,0E0,0E0,0E0,0E0,0E0,0E0,0E0,0E0,0E0,0E0,0E0,0E0,0E0,0E0,0E0,0E0,0E0,0E0,0E0,0E0,0E0,0E0,0E0,0E0,0E0,0E0,0E0,0E0,0E0,0E0,0E0,0E0,0E0],"parents":[2147483647,0,0,1,1,2,2,3,3,4,4,5,5,6,6,7,7,8,8,9,9,10,10,11,11,12,12,13,13,14,14,15,15,16,16,17,17,18,18,19,19,20,20,21,21,22,22,23,23,24,24,27,27,28,28,29,29,32,32,33,33,34,34,35,35,36,36,38,38,43,43,44,44,45,45,46,46,47,47,48,48,49,49,50,50,51,51,53,53,54,54],"right_children":[2,4,6,8,10,12,14,16,18,20,22,24,26,28,30,32,34,36,38,40,42,44,46,48,50,-1,-1,52,54,56,-1,-1,58,60,62,64,66,-1,68,-1,-1,-1,-1,70,72,74,76,78,80,82,84,86,-1,88,90,-1,-1,-1,-1,-1,-1,-1,-1,-1,-1,-1,-1,-1,-1,-1,-1,-1,-1,-1,-1,-1,-1,-1,-1,-1,-1,-1,-1,-1,-1,-1,-1,-1,-1,-1,-1],"split_conditions":[3.988487E-1,5.1238406E-2,3.669824E-1,1.3553858E-1,-1.1791934E0,9.1377044E-1,1.012583E-1,5.313045E-1,8.57727E-1,-5.4902077E-1,-1.4541142E0,1.592394E0,6.572997E-1,1.1384838E-1,1.169245E0,-9.928007E-1,1.9834699E-1,-2.684819E-1,-4.3672074E-2,1.2558471E0,9.608899E-1,3.9934453E-1,1.2687471E0,-3.836248E-1,2.4512054E-1,4.3572154E-2,-3.1770818E-2,6.437245E-1,-7.876139E-1,8.551476E-1,1.5096219E-2,1.5439704E-2,-7.529354E-1,-1.2053761E0,-2.3696953E-1,-1.320471E0,-5.9532475E-1,-4.565243E-2,-2.1371443E0,4.5728303E-2,-3.0539582E-2,-1.0357349E-1,2.3547153E-3,4.816761E-1,-2.36468E-1,1.3232185E0,1.180469E0,1.3039641E0,2.4765887E0,7.9092133E-1,-1.0671256E0,8.948979E-3,-2.2839589E-2,1.1506952E0,1.3280638E0,-7.7545136E-2,-1.6024103E-2,1.9108629E-2,-7.916798E-2,-7.278315E-2,-2.985834E-3,-4.1944664E-2,3.740693E-2,3.4864232E-2,-3.6461025E-2,-2.553617E-2,4.207601E-2,-4.0487386E-2,4.549918E-2,4.8935972E-2,-4.5564823E-2,-8.832854E-2,-2.4341142E-2,4.1771688E-2,-3.945658E-3,-6.1217356E-2,3.557816E-2,-3.724903E-2,3.840382E-2,-6.6087924E-2,-1.3988878E-3,5.143201E-2,-4.7613736E-4,-4.9748765E-3,-5.9115317E-2,1.1163498E-2,5.7144154E-2,-7.164278E-2,1.1328766E-2,5.1866103E-2,-5.9743593E-3],"split_indices":[747,499,568,681,339,418,143,749,207,269,633,383,157,573,181,747,498,315,760,563,205,620,636,719,68,0,0,407,25,189,0,0,471,735,369,336,491,0,687,0,0,0,0,29,715,350,311,7,46,741,35,380,0,50,151,0,0,0,0,0,0,0,0,0,0,0,0,0,0,0,0,0,0,0,0,0,0,0,0,0,0,0,0,0,0,0,0,0,0,0,0],"split_type":[0,0,0,0,0,0,0,0,0,0,0,0,0,0,0,0,0,0,0,0,0,0,0,0,0,0,0,0,0,0,0,0,0,0,0,0,0,0,0,0,0,0,0,0,0,0,0,0,0,0,0,0,0,0,0,0,0,0,0,0,0,0,0,0,0,0,0,0,0,0,0,0,0,0,0,0,0,0,0,0,0,0,0,0,0,0,0,0,0,0,0],"sum_hessian":[3.7275287E2,2.6776425E2,1.04988625E2,1.3134706E2,1.3641719E2,6.039541E1,4.4593216E1,4.13279E1,9.0019165E1,7.084135E0,1.2933305E2,5.756689E1,2.8285189E0,3.78399E1,6.7533145E0,1.6757051E1,2.4570848E1,5.277903E1,3.7240135E1,3.4476902E0,3.6364448E0,8.067161E0,1.21265884E2,5.0678024E1,6.888866E0,1.735897E0,1.0926219E0,1.0009063E1,2.783084E1,5.2720647E0,1.4812499E0,1.9037328E0,1.4853318E1,1.4467372E1,1.0103477E1,2.6437931E1,2.63411E1,1.8919996E0,3.5348137E1,2.420132E0,1.0275584E0,2.5158455E0,1.1205993E0,5.1891155E0,2.8780453E0,1.15214775E2,6.0511146E0,2.3734543E0,4.830457E1,3.020119E0,3.868747E0,8.356232E0,1.6528311E0,2.9174535E0,2.4913385E1,4.1307516E0,1.1413132E0,