{"learner":{"attributes":{"scikit_learn":"{\"_estimator_type\": \"classifier\"}"},"feature_names":[],"feature_types":[],"gradient_booster":{"model":{"cats":{"enc":[],"feature_segments":[],"sorted_idx":[]},"gbtree_model_param":{"num_parallel_tree":"1","num_trees":"300"},"iteration_indptr":[0,1,2,3,4,5,6,7,8,9,10,11,12,13,14,15,16,17,18,19,20,21,22,23,24,25,26,27,28,29,30,31,32,33,34,35,36,37,38,39,40,41,42,43,44,45,46,47,48,49,50,51,52,53,54,55,56,57,58,59,60,61,62,63,64,65,66,67,68,69,70,71,72,73,74,75,76,77,78,79,80,81,82,83,84,85,86,87,88,89,90,91,92,93,94,95,96,97,98,99,100,101,102,103,104,105,106,107,108,109,110,111,112,113,114,115,116,117,118,119,120,121,122,123,124,125,126,127,128,129,130,131,132,133,134,135,136,137,138,139,140,141,142,143,144,145,146,147,148,149,150,151,152,153,154,155,156,157,158,159,160,161,162,163,164,165,166,167,168,169,170,171,172,173,174,175,176,177,178,179,180,181,182,183,184,185,186,187,188,189,190,191,192,193,194,195,196,197,198,199,200,201,202,203,204,205,206,207,208,209,210,211,212,213,214,215,216,217,218,219,220,221,222,223,224,225,226,227,228,229,230,231,232,233,234,235,236,237,238,239,240,241,242,243,244,245,246,247,248,249,250,251,252,253,254,255,256,257,258,259,260,261,262,263,264,265,266,267,268,269,270,271,272,273,274,275,276,277,278,279,280,281,282,283,284,285,286,287,288,289,290,291,292,293,294,295,296,297,298,299,300],"tree_info":[0,0,0,0,0,0,0,0,0,0,0,0,0,0,0,0,0,0,0,0,0,0,0,0,0,0,0,0,0,0,0,0,0,0,0,0,0,0,0,0,0,0,0,0,0,0,0,0,0,0,0,0,0,0,0,0,0,0,0,0,0,0,0,0,0,0,0,0,0,0,0,0,0,0,0,0,0,0,0,0,0,0,0,0,0,0,0,0,0,0,0,0,0,0,0,0,0,0,0,0,0,0,0,0,0,0,0,0,0,0,0,0,0,0,0,0,0,0,0,0,0,0,0,0,0,0,0,0,0,0,0,0,0,0,0,0,0,0,0,0,0,0,0,0,0,0,0,0,0,0,0,0,0,0,0,0,0,0,0,0,0,0,0,0,0,0,0,0,0,0,0,0,0,0,0,0,0,0,0,0,0,0,0,0,0,0,0,0,0,0,0,0,0,0,0,0,0,0,0,0,0,0,0,0,0,0,0,0,0,0,0,0,0,0,0,0,0,0,0,0,0,0,0,0,0,0,0,0,0,0,0,0,0,0,0,0,0,0,0,0,0,0,0,0,0,0,0,0,0,0,0,0,0,0,0,0,0,0,0,0,0,0,0,0,0,0,0,0,0,0,0,0,0,0,0,0,0,0,0,0,0,0,0,0,0,0,0,0,0,0,0,0,0,0,0,0,0,0,0,0],"trees":[{"base_weights":[4.4010226E-2,-1.2295915E0,1.0234377E0,6.9330506E-2,-1.9339434E0,1.2894193E0,-6.692577E-2,-6.0777098E-2,9.1631633E-1,-1.11798145E-1,2.1634864E-2,-4.6893846E-2,1.4623542E0,6.063776E-2,-1.2080387E-3,-1.2080387E-3,7.770023E-2],"categories":[],"categories_nodes":[],"categories_segments":[],"categories_sizes":[],"default_left":[0,0,0,0,0,0,0,0,0,0,0,0,0,0,0,0,0],"id":0,"left_children":[1,3,5,7,9,11,-1,-1,13,-1,-1,-1,15,-1,-1,-1,-1],"loss_changes":[5.2630848E1,1.6929243E1,1.6694378E1,9.188627E0,9.500107E0,9.816132E0,0E0,0E0,1.4350185E0,0E0,0E0,0E0,2.8624954E0,0E0,0E0,0E0,0E0],"parents":[2147483647,0,0,1,1,2,2,3,3,4,4,5,5,8,8,12,12],"right_children":[2,4,6,8,10,12,-1,-1,14,-1,-1,-1,16,-1,-1,-1,-1],"split_conditions":[1.4395745E-1,-1.3551025E-1,1.1128961E0,-2.1032257E0,4.7842434E-1,-7.441625E-1,-6.692577E-2,-6.0777098E-2,2.5819123E-1,-1.11798145E-1,2.1634864E-2,-4.6893846E-2,-5.518565E-1,6.063776E-2,-1.2080387E-3,-1.2080387E-3,7.770023E-2],"split_indices":[712,756,439,414,25,614,0,0,0,0,0,0,569,0,0,0,0],"split_type":[0,0,0,0,0,0,0,0,0,0,0,0,0,0,0,0,0],"sum_hessian":[4.0183594E1,1.735741E1,2.2826183E1,6.419864E0,1.0937547E1,2.0924002E1,1.902182E0,2.3777275E0,4.0421367E0,9.748683E0,1.1888638E0,1.1888638E0,1.9735138E1,2.853273E0,1.1888638E0,1.1888638E0,1.8546274E1],"tree_param":{"num_deleted":"0","num_feature":"768","num_nodes":"17","size_leaf_vector":"1"}},{"base_weights":[-8.512829E-2,-1.2462986E0,8.915954E-1,-1.7286897E0,4.700731E-1,1.2142032E0,-7.070299E-2,-3.60764E-1,-1.0512572E-1,5.2542817E-2,-1.3127165E-2,1.4481134E0,-2.4482545E-2,4.3709155E-2,-5.5076677E-2,2.0461261E-2,7.4874066E-2],"categories":[],"categories_nodes":[],"categories_segments":[],"categories_sizes":[],"default_left":[0,0,0,0,0,0,0,0,0,0,0,0,0,0,0,0,0],"id":1,"left_children":[1,3,5,7,9,11,-1,13,-1,-1,-1,15,-1,-1,-1,-1,-1],"loss_changes":[4.5583866E1,1.5990662E1,1.7992369E1,6.6684113E0,2.3216846E0,8.573652E0,0E0,4.918859E0,0E0,0E0,0E0,2.900467E-1,0E0,0E0,0E0,0E0,0E0],"parents":[2147483647,0,0,1,1,2,2,3,3,4,4,5,5,7,7,11,11],"right_children":[2,4,6,8,10,12,-1,14,-1,-1,-1,16,-1,-1,-1,-1,-1],"split_conditions":[1.4395745E-1,1.3503085E0,1.1748517E0,-1.4168477E-1,-7.0933115E-1,9.588315E-1,-7.070299E-2,8.603665E-2,-1.0512572E-1,5.2542817E-2,-1.3127165E-2,-8.1778383E-1,-2.4482545E-2,4.3709155E-2,-5.5076677E-2,2.0461261E-2,7.4874066E-2],"split_indices":[712,288,305,756,0,194,0,629,0,0,0,6,0,0,0,0,0],"split_type":[0,0,0,0,0,0,0,0,0,0,0,0,0,0,0,0,0],"sum_hessian":[3.8212593E1,1.733181E1,2.0880783E1,1.3523746E1,3.8080633E0,1.8733034E1,2.1477497E0,3.3242986E0,1.0199448E1,1.8818413E0,1.9262221E0,1.660372E1,2.1293137E0,1.1788764E0,2.1454222E0,1.1746142E0,1.5429106E1],"tree_param":{"num_deleted":"0","num_feature":"768","num_nodes":"17","size_leaf_vector":"1"}},{"base_weights":[-2.9445145E-2,-1.381859E0,8.192498E-1,4.6039946E-2,-1.6841035E0,-8.019776E-2,1.1033359E0,-3.084014E-1,-1.947303E0,-4.6741536E-1,1.3829207E0,-4.3609563E-2,2.0432558E-2,-1.04577556E-1,-2.0542031E-2,-7.574111E-2,4.5705874E-2,7.399583E-2,-2.6214211E-3],"categories":[],"categories_nodes":[],"categories_segments":[],"categories_sizes":[],"default_left":[0,0,0,0,0,0,0,0,0,0,0,0,0,0,0,0,0,0,0],"id":2,"left_children":[1,3,5,-1,7,-1,9,11,13,15,17,-1,-1,-1,-1,-1,-1,-1,-1],"loss_changes":[4.48272E1,1.2025494E1,1.8303877E1,0E0,4.3447456E0,0E0,1.0347597E1,1.7234757E0,1.6398926E0,7.296182E0,2.723549E0,0E0,0E0,0E0,0E0,0E0,0E0,0E0,0E0],"parents":[2147483647,0,0,1,1,2,2,4,4,6,6,7,7,8,8,9,9,10,10],"right_children":[2,4,6,-1,8,-1,10,12,14,16,18,-1,-1,-1,-1,-1,-1,-1,-1],"split_conditions":[-1.698535E-1,-6.836057E-1,-6.0271525E-1,4.6039946E-2,-7.3690844E-1,-8.019776E-2,-8.3148146E-1,-8.359621E-1,1.8371841E0,-5.838048E-1,1.2502841E0,-4.3609563E-2,2.0432558E-2,-1.04577556E-1,-2.0542031E-2,-7.574111E-2,4.5705874E-2,7.399583E-2,-2.6214211E-3],"split_indices":[87,41,743,0,177,0,633,1,230,49,313,0,0,0,0,0,0,0,0],"split_type":[0,0,0,0,0,0,0,0,0,0,0,0,0,0,0,0,0,0,0],"sum_hessian":[3.706901E1,1.40507E1,2.301831E1,1.3928325E0,1.2657867E1,1.9278727E0,2.1090439E1,2.3815622E0,1.0276305E1,3.0852423E0,1.8005196E1,1.212145E0,1.1694174E0,9.064065E0,1.2122401E0,1.6999491E0,1.3852931E0,1.6836401E1,1.1687945E0],"tree_param":{"num_deleted":"0","num_feature":"768","num_nodes":"19","size_leaf_vector":"1"}},{"base_weights":[-5.585635E-2,5.7829785E-1,-9.498049E-2,8.820086E-1,-1.1278557E0,-6.577474E-1,1.327738E0,-8.4667586E-2,2.0824889E-2,4.190509E-2,-1.116159E0,-2.3324322E-2,7.288464E-2,-8.5013345E-2,-6.380874E-3],"categories":[],"categories_nodes":[],"categories_segments":[],"categories_sizes":[],"default_left":[0,0,0,0,0,0,0,0,0,0,0,0,0,0,0],"id":3,"left_children":[1,3,-1,5,7,9,11,-1,-1,-1,13,-1,-1,-1,-1],"loss_changes":[4.8711746E1,1.7092962E1,0E0,1.9358229E1,5.1883802E0,5.5401306E0,5.627449E0,0E0,0E0,0E0,2.9985433E0,0E0,0E0,0E0,0E0],"parents":[2147483647,0,0,1,1,3,3,4,4,5,5,6,6,10,10],"right_children":[2,4,-1,6,8,10,12,-1,-1,-1,14,-1,-1,-1,-1],"split_conditions":[6.1346537E-1,1.1748517E0,-9.498049E-2,-4.1577843E-1,5.543862E-1,-9.341177E-1,-5.53237E-1,-8.4667586E-2,2.0824889E-2,4.190509E-2,7.652423E-1,-2.3324322E-2,7.288464E-2,-8.5013345E-2,-6.380874E-3],"split_indices":[370,305,0,743,186,434,693,0,0,0,83,0,0,0,0],"split_type":[0,0,0,0,0,0,0,0,0,0,0,0,0,0,0],"sum_hessian":[3.9722054E1,3.0066952E1,9.655103E0,2.5933582E1,4.133369E0,5.7151484E0,2.0218433E1,2.9548955E0,1.1784736E0,1.1463158E0,4.568833E0,1.1906099E0,1.9027822E1,2.4193285E0,2.1495044E0],"tree_param":{"num_deleted":"0","num_feature":"768","num_nodes":"15","size_leaf_vector":"1"}},{"base_weights":[-4.0381543E-2,6.133344E-1,-1.7467656E0,8.1115043E-1,-7.551294E-2,-9.380388E-2,-1.7628128E-2,1.0804691E0,-1.0245644E0,1.3790555E0,-2.6278699E-2,-7.29516E-2,1.5458241E-3,1.674704E-2,7.114196E-2,-6.359707E-2,7.9398745E-1,5.0402075E-2,1.0474193E-2],"categories":[],"categories_nodes":[],"categories_segments":[],"categories_sizes":[],"default_left":[0,0,0,0,0,0,0,0,0,0,0,0,0,0,0,0,0,0,0],"id":4,"left_children":[1,3,5,7,-1,-1,-1,9,11,13,15,-1,-1,-1,-1,-1,17,-1,-1],"loss_changes":[4.7166122E1,1.4086568E1,1.4489441E0,1.5275499E1,0E0,0E0,0E0,8.455887E0,1.9618683E0,4.4157028E-1,7.543789E0,0E0,0E0,0E0,0E0,0E0,3.4826708E-1,0E0,0E0],"parents":[2147483647,0,0,1,1,2,2,3,3,7,7,8,8,9,9,10,10,16,16],"right_children":[2,4,6,8,-1,-1,-1,10,12,14,16,-1,-1,-1,-1,-1,18,-1,-1],"split_conditions":[6.1346537E-1,1.229392E0,1.6240185E0,1.1748517E0,-7.551294E-2,-9.380388E-2,-1.7628128E-2,2.3066998E-1,5.6054896E-1,-1.3872386E0,5.042805E-1,-7.29516E-2,1.5458241E-3,1.674704E-2,7.114196E-2,-6.359707E-2,3.1999495E0,5.0402075E-2,1.0474193E-2],"split_indices":[370,709,568,305,0,0,0,148,723,409,45,0,0,0,0,0,3,0,0],"split_type":[0,0,0,0,0,0,0,0,0,0,0,0,0,0,0,0,0,0,0],"sum_hessian":[4.0322426E1,2.9616793E1,1.0705633E1,2.76584E1,1.9583931E0,9.480675E0,1.2249582E0,2.4478556E1,3.1798437E0,1.9083914E1,5.394641E0,1.9817553E0,1.1980885E0,1.1161778E0,1.7967737E1,1.9232832E0,3.4713576E0,2.0104787E0,1.4608788E0],"tree_param":{"num_deleted":"0","num_feature":"768","num_nodes":"19","size_leaf_vector":"1"}},{"base_weights":[3.9013542E-2,6.2346166E-1,-1.6436694E0,8.624391E-1,-9.3590236E-1,-1.5970591E-2,-8.889339E-2,1.2744522E0,-5.042974E-1,2.1976043E-2,-7.648447E-2,1.354313E0,-4.75185E-3,4.117307E-2,-9.369931E-1,1.6504643E-2,6.9767E-2,-5.945722E-3,-7.9092436E-2],"categories":[],"categories_nodes":[],"categories_segments":[],"categories_sizes":[],"default_left":[0,0,0,0,0,0,0,0,0,0,0,0,0,0,0,0,0,0,0],"id":5,"left_children":[1,3,5,7,9,-1,-1,11,13,-1,-1,15,-1,-1,17,-1,-1,-1,-1],"loss_changes":[4.1818325E1,1.2550239E1,1.3813419E0,1.6322575E1,4.484028E0,0E0,0E0,2.4996796E0,4.8886933E0,0E0,0E0,4.0291977E-1,0E0,0E0,2.909957E0,0E0,0E0,0E0,0E0],"parents":[2147483647,0,0,1,1,2,2,3,3,4,4,7,7,8,8,11,11,14,14],"right_children":[2,4,6,8,10,-1,-1,12,14,-1,-1,16,-1,-1,18,-1,-1,-1,-1],"split_conditions":[6.1346537E-1,1.1748517E0,-1.3083979E0,3.2378274E-1,-5.789393E-1,-1.5970591E-2,-8.889339E-2,8.531957E-1,2.666427E-1,2.1976043E-2,-7.648447E-2,-1.1817646E0,-4.75185E-3,4.117307E-2,-1.4818002E0,1.6504643E-2,6.9767E-2,-5.945722E-3,-7.9092436E-2],"split_indices":[370,305,348,349,733,0,0,711,515,0,0,55,0,0,124,0,0,0,0],"split_type":[0,0,0,0,0,0,0,0,0,0,0,0,0,0,0,0,0,0,0],"sum_hessian":[4.048044E1,3.0512115E1,9.968323E0,2.6844969E1,3.667147E0,1.2282461E0,8.740077E0,2.067873E1,6.1662383E0,1.1841147E0,2.4830322E0,1.954978E1,1.1289502E0,1.2936087E0,4.8726296E0,1.1013288E0,1.8448452E1,2.6699166E0,2.2027133E0],"tree_param":{"num_deleted":"0","num_feature":"768","num_nodes":"19","size_leaf_vector":"1"}},{"base_weights":[2.9830537E-3,-1.3311716E0,6.747286E-1,9.088777E-3,-1.621939E0,-7.308333E-2,9.806919E-1,-8.820387E-2,-3.0266767E-2,1.2043445E0,-3.375456E-1,-2.1741396E-2,1.3257877E0,2.974462E-2,-6.1646134E-2,1.6196527E-2,6.8358414E-2],"categories":[],"categories_nodes":[],"categories_segments":[],"categories_sizes":[],"default_left":[0,0,0,0,0,0,0,0,0,0,0,0,0,0,0,0,0],"id":6,"left_children":[1,3,5,-1,7,-1,9,-1,-1,11,13,-1,15,-1,-1,-1,-1],"loss_changes":[3.5926697E1,6.200857E0,1.8859781E1,0E0,5.739193E-1,0E0,7.4583187E0,0E0,0E0,4.6907787E0,4.2821045E0,0E0,3.651085E-1,0E0,0E0,0E0,0E0],"parents":[2147483647,0,0,1,1,2,2,4,4,6,6,9,9,10,10,12,12],"right_children":[2,4,6,-1,8,-1,10,-1,-1,12,14,-1,16,-1,-1,-1,-1],"split_conditions":[-4.1577843E-1,-1.0041591E0,-1.3847641E0,9.088777E-3,3.688416E-1,-7.308333E-2,9.026676E-1,-8.820387E-2,-3.0266767E-2,-9.485105E-1,2.9368886E-1,-2.1741396E-2,-8.753229E-1,2.974462E-2,-6.1646134E-2,1.6196527E-2,6.8358414E-2],"split_indices":[743,762,413,0,20,0,159,0,0,763,244,0,719,0,0,0,0],"split_type":[0,0,0,0,0,0,0,0,0,0,0,0,0,0,0,0,0],"sum_hessian":[3.808506E1,1.24253645E1,2.5659695E1,2.0634534E0,1.0361911E1,2.7412932E0,2.2918402E1,8.445782E0,1.9161297E0,1.966793E1,3.2504702E0,1.178651E0,1.8489279E1,1.7566772E0,1.493793E0,1.0835583E0,1.7405722E1],"tree_param":{"num_deleted":"0","num_feature":"768","num_nodes":"17","size_leaf_vector":"1"}},{"base_weights":[5.103298E-2,5.520846E-1,-1.4748887E0,8.0630624E-1,-1.1790034E0,-8.110845E-2,-1.2659462E-2,-5.503804E-1,1.1781665E0,-6.8923496E-2,-1.8075295E-2,2.0326905E-2,-6.503139E-2,1.3006164E0,-1.7136237E-2,1.973441E-2,-1.08095845E-2,6.7212634E-2,1.397715E-2],"categories":[],"categories_nodes":[],"categories_segments":[],"categories_sizes":[],"default_left":[0,0,0,0,0,0,0,0,0,0,0,0,0,0,0,0,0,0,0],"id":7,"left_children":[1,3,5,7,9,-1,-1,11,13,-1,-1,15,-1,17,-1,-1,-1,-1,-1],"loss_changes":[2.98388E1,1.3847544E1,1.3267651E0,1.3839561E1,1.7981958E-1,0E0,0E0,2.7267342E0,4.326933E0,0E0,0E0,4.8966038E-1,0E0,4.9289322E-1,0E0,0E0,0E0,0E0,0E0],"parents":[2147483647,0,0,1,1,2,2,3,3,4,4,7,7,8,8,11,11,13,13],"right_children":[2,4,6,8,10,-1,-1,12,14,-1,-1,16,-1,18,-1,-1,-1,-1,-1],"split_conditions":[6.1346537E-1,9.943141E-1,5.452179E-1,-8.3746046E-1,-7.79954E-1,-8.110845E-2,-1.2659462E-2,-4.6300286E-1,9.442669E-1,-6.8923496E-2,-1.8075295E-2,7.356716E-1,-6.503139E-2,8.834929E-1,-1.7136237E-2,1.973441E-2,-1.08095845E-2,6.7212634E-2,1.397715E-2],"split_indices":[370,187,277,726,298,0,0,69,495,0,0,4,0,324,0,0,0,0,0],"split_type":[0,0,0,0,0,0,0,0,0,0,0,0,0,0,0,0,0,0,0],"sum_hessian":[3.6962128E1,2.8305824E1,8.656304E0,2.5147038E1,3.158787E0,7.432493E0,1.2238114E0,5.306575E0,1.9840462E1,1.9876102E0,1.1711767E0,3.5664842E0,1.7400905E0,1.8496136E1,1.3443269E0,1.1219393E0,2.4445448E0,1.743455E1,1.0615855E0],"tree_param":{"num_deleted":"0","num_feature":"768","num_nodes":"19","size_leaf_vector":"1"}},{"base_weights":[-7.571375E-2,-1.0501153E0,6.2358004E-1,-2.7953967E-1,-8.213196E-2,-8.724668E-1,1.2083756E0,-9.680604E-1,6.8073374E-1,-1.2791533E0,3.6199644E-2,-2.2816998E-3,6.5049835E-2,-1.7892718E-2,-6.4986505E-2,4.771804E-2,-1.197474E-3,-7.891663E-2,-5.985931E-4],"categories":[],"categories_nodes":[],"categories_segments":[],"categories_sizes":[],"default_left":[0,0,0,0,0,0,0,0,0,0,0,0,0,0,0,0,0,0,0],"id":8,"left_children":[1,3,5,7,-1,9,11,13,15,17,-1,-1,-1,-1,-1,-1,-1,-1,-1],"loss_changes":[2.622698E1,6.870287E0,2.071846E1,6.069367E0,0E0,5.4043174E0,1.9849758E0,5.829983E-1,7.949667E-1,2.2021523E0,0E0,0E0,0E0,0E0,0E0,0E0,0E0,0E0,0E0],"parents":[2147483647,0,0,1,1,2,2,3,3,5,5,6,6,7,7,8,8,9,9],"right_children":[2,4,6,8,-1,10,12,14,16,18,-1,-1,-1,-1,-1,-1,-1,-1,-1],"split_conditions":[-1.2718008E-1,-6.418271E-1,-8.5394937E-1,-9.403584E-1,-8.213196E-2,-6.1879957E-1,-9.1547084E-1,-8.359621E-1,9.363194E-1,2.8308892E-1,3.6199644E-2,-2.2816998E-3,6.5049835E-2,-1.7892718E-2,-6.4986505E-2,4.771804E-2,-1.197474E-3,-7.891663E-2,-5.985931E-4],"split_indices":[743,486,633,269,0,671,144,1,50,269,0,0,0,0,0,0,0,0,0],"split_type":[0,0,0,0,0,0,0,0,0,0,0,0,0,0,0,0,0,0,0],"sum_hessian":[3.6529224E1,1.5052822E1,2.1476402E1,7.1830564E0,7.869766E0,5.897435E0,1.5578967E1,4.1787577E0,3.0042987E0,4.8585186E0,1.0389162E0,1.1064107E0,1.4472556E1,2.2035723E0,1.9751853E0,1.9088027E0,1.0954959E0,3.7318826E0,1.1266363E0],"tree_param":{"num_deleted":"0","num_feature":"768","num_nodes":"19","size_leaf_vector":"1"}},{"base_weights":[-1.497714E-1,-1.0305073E0,6.4003396E-1,-1.2289003E0,3.0445695E-2,8.925013E-1,-4.819646E-2,1.01480916E-1,-1.4568888E0,-5.211945E-1,1.1366069E0,-3.363388E-2,4.0203553E-2,-8.068629E-2,-4.285181E-1,-5.9522487E-2,1.9179914E-2,1.2352705E0,-6.9881305E-3,1.9958077E-2,-5.0690573E-2,6.422343E-2,1.3361958E-2],"categories":[],"categories_nodes":[],"categories_segments":[],"categories_sizes":[],"default_left":[0,0,0,0,0,0,0,0,0,0,0,0,0,0,0,0,0,0,0,0,0,0,0],"id":9,"left_children":[1,3,5,7,-1,9,-1,11,13,15,17,-1,-1,-1,19,-1,-1,21,-1,-1,-1,-1,-1],"loss_changes":[2.8001396E1,6.9171467E0,9.501807E0,5.380087E0,0E0,7.134246E0,0E0,2.4220688E0,1.6942062E0,2.5620756E0,2.2479782E0,0E0,0E0,0E0,2.0124836E0,0E0,0E0,3.9012337E-1,0E0,0E0,0E0,0E0,0E0],"parents":[2147483647,0,0,1,1,2,2,3,3,5,5,7,7,8,8,9,9,10,10,14,14,17,17],"right_children":[2,4,6,8,-1,10,-1,12,14,16,18,-1,-1,-1,20,-1,-1,22,-1,-1,-1,-1,-1],"split_conditions":[1.4395745E-1,1.2753998E0,5.739925E-1,-8.2555234E-1,3.0445695E-2,-3.6879498E-1,-4.819646E-2,2.9468042E-1,8.399754E-1,3.3311385E-1,4.3366265E-1,-3.363388E-2,4.0203553E-2,-8.068629E-2,5.844823E-1,-5.9522487E-2,1.9179914E-2,7.8661215E-1,-6.9881305E-3,1.9958077E-2,-5.0690573E-2,6.422343E-2,1.3361958E-2],"split_indices":[712,655,552,618,0,693,0,742,515,24,28,0,0,0,49,0,0,518,0,0,0,0,0],"split_type":[0,0,0,0,0,0,0,0,0,0,0,0,0,0,0,0,0,0,0,0,0,0,0],"sum_hessian":[3.8306274E1,1.796651E1,2.0339762E1,1.6250391E1,1.7161195E0,1.7956877E1,2.3828864E0,2.4586005E0,1.3791791E1,2.4769473E0,1.5479929E1,1.1899798E0,1.2686208E0,1.14728565E1,2.318934E0,1.2423174E0,1.23463E0,1.4399078E1,1.0808498E0,1.0922986E0,1.2266353E0,1.3391593E1,1.0074856E0],"tree_param":{"num_deleted":"0","num_feature":"768","num_nodes":"23","size_leaf_vector":"1"}},{"base_weights":[3.0843273E-2,5.0322527E-1,-7.148517E-2,-6.774901E-1,9.0138304E-1,-7.7017084E-2,3.6505386E-1,1.1578009E0,-1.4471151E-1,4.797432E-2,-3.5156626E-2,6.439844E-2,-1.5515992E-2,-5.0560918E-2,3.467546E-1,3.4822505E-2,1.1175143E-3],"categories":[],"categories_nodes":[],"categories_segments":[],"categories_sizes":[],"default_left":[0,0,0,0,0,0,0,0,0,0,0,0,0,0,0,0,0],"id":10,"left_children":[1,3,-1,5,7,-1,9,11,13,-1,-1,-1,-1,-1,15,-1,-1],"loss_changes":[2.792486E1,1.4965437E1,0E0,8.002689E0,6.4077415E0,0E0,3.5662503E0,3.9914532E0,2.679532E0,0E0,0E0,0E0,0E0,0E0,4.6476853E-1,0E0,0E0],"parents":[2147483647,0,0,1,1,3,3,4,4,6,6,7,7,8,8,14,14],"right_children":[2,4,-1,6,8,-1,10,12,14,-1,-1,-1,-1,-1,16,-1,-1],"split_conditions":[6.7883146E-1,-5.1658154E-1,-7.148517E-2,4.057401E-1,8.845721E-1,-7.7017084E-2,4.471326E-1,3.4678546E-1,1.0595447E0,4.797432E-2,-3.5156626E-2,6.439844E-2,-1.5515992E-2,-5.0560918E-2,7.356716E-1,3.4822505E-2,1.1175143E-3],"split_indices":[370,544,0,59,766,0,161,28,65,0,0,0,0,0,4,0,0],"split_type":[0,0,0,0,0,0,0,0,0,0,0,0,0,0,0,0,0],"sum_hessian":[3.8431774E1,2.953483E1,8.896943E0,7.2711287E0,2.2263702E1,3.717167E0,3.5539615E0,1.7795017E1,4.4686847E0,2.3487003E0,1.2052612E0,1.645847E1,1.3365469E0,1.2345275E0,3.234157E0,1.0044934E0,2.2296638E0],"tree_param":{"num_deleted":"0","num_feature":"768","num_nodes":"17","size_leaf_vector":"1"}},{"base_weights":[-9.614678E-2,-1.0854707E0,6.49609E-1,-6.425555E-2,-1.4262806E0,9.758302E-1,-6.0777694E-1,4.0082015E-2,-3.20719E-2,-1.4964963E-2,-7.5904824E-2,1.1462034E0,-1.3524624E-2,-6.7967586E-2,2.8420527E-2,6.1935373E-2,-4.6583754E-4],"categories":[],"categories_nodes":[],"categories_segments":[],"categories_sizes":[],"default_left":[0,0,0,0,0,0,0,0,0,0,0,0,0,0,0,0,0],"id":11,"left_children":[1,3,5,7,9,11,13,-1,-1,-1,-1,15,-1,-1,-1,-1,-1],"loss_changes":[2.6251654E1,5.2183456E0,8.948049E0,2.945524E0,7.2442245E-1,3.8256626E0,5.026567E0,0E0,0E0,0E0,0E0,1.5888557E0,0E0,0E0,0E0,0E0,0E0],"parents":[2147483647,0,0,1,1,2,2,3,3,4,4,5,5,6,6,11,11],"right_children":[2,4,6,8,10,12,14,-1,-1,-1,-1,16,-1,-1,-1,-1,-1],"split_conditions":[-1.8805818E-1,-3.324493E-1,2.116152E-1,7.956102E-1,-1.5815393E0,1.4271979E0,-2.3432675E-1,4.0082015E-2,-3.20719E-2,-1.4964963E-2,-7.5904824E-2,1.0928175E0,-1.3524624E-2,-6.7967586E-2,2.8420527E-2,6.1935373E-2,-4.6583754E-4],"split_indices":[418,640,148,219,579,134,544,0,0,0,0,328,0,0,0,0,0],"split_type":[0,0,0,0,0,0,0,0,0,0,0,0,0,0,0,0,0],"sum_hessian":[3.362555E1,1.4256828E1,1.9368721E1,3.8647852E0,1.0392043E1,1.55565815E1,3.8121393E0,1.3902421E0,2.474543E0,1.1037675E0,9.288276E0,1.3756403E1,1.8001783E0,2.2308903E0,1.5812489E0,1.2670118E1,1.0862856E0],"tree_param":{"num_deleted":"0","num_feature":"768","num_nodes":"17","size_leaf_vector":"1"}},{"base_weights":[1.4991676E-2,4.5569143E-1,-1.3240091E0,-5.6279904E-1,8.60132E-1,-2.1163072E-2,-7.006846E-2,-1.2330407E0,3.284258E-1,-2.2333594E-2,1.0255302E0,-6.8675116E-2,-1.9438615E-2,4.6980914E-2,-3.7418842E-2,6.20491E-2,9.608885E-2,-1.9847862E-2,1.8758535E-2],"categories":[],"categories_nodes":[],"categories_segments":[],"categories_sizes":[],"default_left":[0,0,0,0,0,0,0,0,0,0,0,0,0,0,0,0,0,0,0],"id":12,"left_children":[1,3,5,7,9,-1,-1,11,13,-1,15,-1,-1,-1,-1,-1,17,-1,-1],"loss_changes":[2.1809013E1,1.1927678E1,4.47731E-2,5.482762E0,4.8415537E0,0E0,0E0,6.633663E-2,3.624325E0,0E0,3.5464058E0,0E0,0E0,0E0,0E0,0E0,7.7208084E-1,0E0,0E0],"parents":[2147483647,0,0,1,1,2,2,3,3,4,4,7,7,8,8,10,10,16,16],"right_children":[2,4,6,8,10,-1,-1,12,14,-1,16,-1,-1,-1,-1,-1,18,-1,-1],"split_conditions":[6.7883146E-1,-4.6681455E-1,-1.1840804E0,4.057401E-1,-9.567592E-1,-2.1163072E-2,-7.006846E-2,2.820338E-1,2.7425808E-1,-2.2333594E-2,3.4593982E-1,-6.8675116E-2,-1.9438615E-2,4.6980914E-2,-3.7418842E-2,6.20491E-2,1.7473242E-1,-1.9847862E-2,1.8758535E-2],"split_indices":[370,544,103,59,369,0,0,320,739,0,28,0,0,0,0,0,47,0,0],"split_type":[0,0,0,0,0,0,0,0,0,0,0,0,0,0,0,0,0,0,0],"sum_hessian":[3.493589E1,2.6781189E1,8.154703E0,7.500743E0,1.9280445E1,1.1567951E0,6.9979076E0,4.062228E0,3.438515E0,1.9750539E0,1.7305391E1,2.9453523E0,1.1168759E0,2.2747614E0,1.1637535E0,1.3776663E1,3.5287287E0,1.1227787E0,2.40595E0],"tree_param":{"num_deleted":"0","num_feature":"768","num_nodes":"19","size_leaf_vector":"1"}},{"base_weights":[-7.25965E-2,4.0353596E-1,-1.2723097E0,5.766627E-1,-5.9064485E-2,-7.0135064E-2,-6.6163912E-3,-5.805831E-1,8.962054E-1,-6.036208E-2,2.8780801E-2,6.1202478E-2,-8.038767E-2,-5.5625923E-2,4.3771124E-1,1.5375474E-3,4.0214024E-2],"categories":[],"categories_nodes":[],"categories_segments":[],"categories_sizes":[],"default_left":[0,0,0,0,0,0,0,0,0,0,0,0,0,0,0,0,0],"id":13,"left_children":[1,3,5,7,-1,-1,-1,9,11,-1,-1,-1,13,-1,15,-1,-1],"loss_changes":[2.103546E1,7.9462566E0,1.367424E0,9.595987E0,0E0,0E0,0E0,4.982276E0,6.3818817E0,0E0,0E0,0E0,3.626366E0,0E0,6.6543037E-1,0E0,0E0],"parents":[2147483647,0,0,1,1,2,2,3,3,7,7,8,8,12,12,14,14],"right_children":[2,4,6,8,-1,-1,-1,10,12,-1,-1,-1,14,-1,16,-1,-1],"split_conditions":[6.1346537E-1,1.229392E0,9.448429E-1,-8.3148146E-1,-5.9064485E-2,-7.0135064E-2,-6.6163912E-3,3.225612E-1,3.4678546E-1,-6.036208E-2,2.8780801E-2,6.1202478E-2,-2.5305557E-1,-5.5625923E-2,-8.359621E-1,1.5375474E-3,4.0214024E-2],"split_indices":[370,709,428,633,0,0,0,622,28,0,0,0,294,0,1,0,0],"split_type":[0,0,0,0,0,0,0,0,0,0,0,0,0,0,0,0,0],"sum_hessian":[3.4926525E1,2.5478476E1,9.448051E0,2.354279E1,1.9356855E0,8.271495E0,1.1765561E0,4.9173503E0,1.8625439E1,3.160316E0,1.7570343E0,1.3754605E1,4.8708344E0,1.2444314E0,3.626403E0,2.2321682E0,1.394235E0],"tree_param":{"num_deleted":"0","num_feature":"768","num_nodes":"17","size_leaf_vector":"1"}},{"base_weights":[-6.011649E-2,-8.328017E-1,6.294277E-1,-1.126617E0,4.04074E-1,-5.3161662E-2,8.423502E-1,1.995273E-2,-1.3032228E0,-5.4133832E-3,3.8785756E-2,1.0486878E0,-3.780458E-1,-7.15899E-2,-1.1800813E-3,5.9885383E-2,-1.0897577E-2,-2.489168E-3,-2.6114348E-2],"categories":[],"categories_nodes":[],"categories_segments":[],"categories_sizes":[],"default_left":[0,0,0,0,0,0,0,0,0,0,0,0,0,0,0,0,0,0,0],"id":14,"left_children":[1,3,5,7,9,-1,11,-1,13,-1,-1,15,17,-1,-1,-1,-1,-1,-1],"loss_changes":[1.825212E1,6.3138437E0,7.4377112E0,4.1011143E0,8.1333023E-1,0E0,4.597145E0,0E0,1.964592E0,0E0,0E0,3.0044289E0,1.23033494E-1,0E0,0E0,0E0,0E0,0E0,0E0],"parents":[2147483647,0,0,1,1,2,2,3,3,4,4,6,6,8,8,11,11,12,12],"right_children":[2,4,6,8,10,-1,12,-1,14,-1,-1,16,18,-1,-1,-1,-1,-1,-1],"split_conditions":[9.905077E-2,7.715036E-1,-1.235492E0,-6.399611E-1,-8.359621E-1,-5.3161662E-2,2.116152E-1,1.995273E-2,5.6727284E-1,-5.4133832E-3,3.8785756E-2,1.1551533E0,1.3065755E-2,-7.15899E-2,-1.1800813E-3,5.9885383E-2,-1.0897577E-2,-2.489168E-3,-2.6114348E-2],"split_indices":[712,100,633,41,1,0,148,0,304,0,0,305,287,0,0,0,0,0,0],"split_type":[0,0,0,0,0,0,0,0,0,0,0,0,0,0,0,0,0,0,0],"sum_hessian":[3.227311E1,1.5121073E1,1.7152037E1,1.2290624E1,2.8304493E0,1.4702818E0,1.5681755E1,1.1444358E0,1.1146188E1,1.4879075E0,1.3425417E0,1.3534173E1,2.1475825E0,1.0020421E1,1.1257669E0,1.2158187E1,1.3759862E0,1.066223E0,1.0813595E0],"tree_param":{"num_deleted":"0","num_feature":"768","num_nodes":"19","size_leaf_vector":"1"}},{"base_weights":[-1.20221585E-1,3.4388638E-1,-6.408798E-2,5.9693164E-1,-9.283238E-1,-4.718024E-1,1.0436108E0,-6.303273E-2,3.1919132E-3,1.17157124E-1,-6.10219E-2,-1.5052765E-2,5.9498485E-2,3.4556463E-2,-1.1873924E-2],"categories":[],"categories_nodes":[],"categories_segments":[],"categories_sizes":[],"default_left":[0,0,0,0,0,0,0,0,0,0,0,0,0,0,0],"id":15,"left_children":[1,3,-1,5,7,9,11,-1,-1,13,-1,-1,-1,-1,-1],"loss_changes":[1.8651884E1,8.578463E0,0E0,1.0707979E1,1.5730355E0,3.2277415E0,3.3896122E0,0E0,0E0,1.146898E0,0E0,0E0,0E0,0E0,0E0],"parents":[2147483647,0,0,1,1,3,3,4,4,5,5,6,6,9,9],"right_children":[2,4,-1,6,8,10,12,-1,-1,14,-1,-1,-1,-1,-1],"split_conditions":[5.959063E-1,1.1748517E0,-6.408798E-2,-8.081806E-1,-6.533867E-2,6.288092E-1,-8.479127E-1,-6.303273E-2,3.1919132E-3,7.769474E-1,-6.10219E-2,-1.5052765E-2,5.9498485E-2,3.4556463E-2,-1.1873924E-2],"split_indices":[370,305,0,423,49,44,269,0,0,16,0,0,0,0,0],"split_type":[0,0,0,0,0,0,0,0,0,0,0,0,0,0,0],"sum_hessian":[3.278188E1,2.3925905E1,8.855975E0,2.0399244E1,3.526661E0,5.9962487E0,1.4402995E1,2.439067E0,1.087594E0,3.8281267E0,2.168122E0,1.3100443E0,1.3092951E1,1.0995994E0,2.7285275E0],"tree_param":{"num_deleted":"0","num_feature":"768","num_nodes":"15","size_leaf_vector":"1"}},{"base_weights":[-1.0423741E-1,3.583174E-1,-1.2381058E0,-7.8602254E-1,6.7961043E-1,-6.509735E-2,-1.9255579E-2,-5.6412995E-2,-1.1883815E-2,9.640869E-1,-5.747754E-2,1.0990832E0,-2.5611604E-2,5.9420593E-2,-4.687524E-3],"categories":[],"categories_nodes":[],"categories_segments":[],"categories_sizes":[],"default_left":[0,0,0,0,0,0,0,0,0,0,0,0,0,0,0],"id":16,"left_children":[1,3,5,7,9,-1,-1,-1,-1,11,-1,13,-1,-1,-1],"loss_changes":[1.677097E1,8.9487705E0,2.0208359E-3,7.6039004E-1,1.068565E1,0E0,0E0,0E0,0E0,3.845852E0,0E0,1.7534218E0,0E0,0E0,0E0],"parents":[2147483647,0,0,1,1,2,2,3,3,4,4,9,9,11,11],"right_children":[2,4,6,8,10,-1,-1,-1,-1,12,-1,14,-1,-1,-1],"split_conditions":[5.959063E-1,-1.1694001E0,1.6565173E0,2.0021567E0,1.2643362E0,-6.509735E-2,-1.9255579E-2,-5.6412995E-2,-1.1883815E-2,1.2203962E0,-5.747754E-2,8.845721E-1,-2.5611604E-2,5.9420593E-2,-4.687524E-3],"split_indices":[370,66,21,2,431,0,0,0,0,164,0,766,0,0,0],"split_type":[0,0,0,0,0,0,0,0,0,0,0,0,0,0,0],"sum_hessian":[3.0130741E1,2.188633E1,8.2444105E0,4.480792E0,1.7405539E1,7.1806593E0,1.0637507E0,2.1077323E0,2.3730597E0,1.5472194E1,1.933345E0,1.4410047E1,1.0621465E0,1.3409542E1,1.0005045E0],"tree_param":{"num_deleted":"0","num_feature":"768","num_nodes":"15","size_leaf_vector":"1"}},{"base_weights":[-7.801738E-2,-7.60166E-1,7.441678E-1,-3.907716E-2,-1.1696771E0,-4.5225546E-2,1.0134989E0,-4.7070047E-1,3.3456344E-2,-6.455182E-2,1.1897704E-3,-1.9543638E-2,5.8329087E-2,-4.855895E-2,-1.3751587E-3],"categories":[],"categories_nodes":[],"categories_segments":[],"categories_sizes":[],"default_left":[0,0,0,0,0,0,0,0,0,0,0,0,0,0,0],"id":17,"left_children":[1,3,5,7,9,-1,11,13,-1,-1,-1,-1,-1,-1,-1],"loss_changes":[1.8192097E1,5.172553E0,7.4691896E0,2.587753E0,1.6581516E0,0E0,3.2843132E0,1.1282066E0,0E0,0E0,0E0,0E0,0E0,0E0,0E0],"parents":[2147483647,0,0,1,1,2,2,3,3,4,4,6,6,7,7],"right_children":[2,4,6,8,10,-1,12,14,-1,-1,-1,-1,-1,-1,-1],"split_conditions":[1.4395745E-1,-1.3551025E-1,-7.441625E-1,-2.3872265E-1,1.0461555E0,-4.5225546E-2,-7.876484E-1,5.2199703E-1,3.3456344E-2,-6.455182E-2,1.1897704E-3,-1.9543638E-2,5.8329087E-2,-4.855895E-2,-1.3751587E-3],"split_indices":[712,756,614,202,658,0,184,7,0,0,0,0,0,0,0],"split_type":[0,0,0,0,0,0,0,0,0,0,0,0,0,0,0],"sum_hessian":[3.042788E1,1.6671413E1,1.3756466E1,6.435272E0,1.0236141E1,1.6005467E0,1.2155919E1,4.206768E0,2.228504E0,9.21714E0,1.019001E0,1.0421319E0,1.1113787E1,1.4162135E0,2.7905545E0],"tree_param":{"num_deleted":"0","num_feature":"768","num_nodes":"15","size_leaf_vector":"1"}},{"base_weights":[-4.315224E-2,3.6339343E-1,-6.2276896E-2,-4.8776144E-1,7.494129E-1,2.5637633E-1,-1.0165111E0,9.992575E-1,-1.4303651E-1,-4.0416013E-2,4.405388E-2,-6.655487E-2,9.962571E-4,5.7321794E-2,-4.3610674E-3,-3.2188028E-2,9.305608E-3],"categories":[],"categories_nodes":[],"categories_segments":[],"categories_sizes":[],"default_left":[0,0,0,0,0,0,0,0,0,0,0,0,0,0,0,0,0],"id":18,"left_children":[1,3,-1,5,7,9,11,13,15,-1,-1,-1,-1,-1,-1,-1,-1],"loss_changes":[1.623699E1,8.548519E0,0E0,3.5565119E0,4.051382E0,3.5576975E0,1.6888685E0,2.309907E0,8.958657E-1,0E0,0E0,0E0,0E0,0E0,0E0,0E0,0E0],"parents":[2147483647,0,0,1,1,3,3,4,4,5,5,6,6,7,7,8,8],"right_children":[2,4,-1,6,8,10,12,14,16,-1,-1,-1,-1,-1,-1,-1,-1],"split_conditions":[6.7883146E-1,-4.596223E-1,-6.2276896E-2,-4.204644E-1,8.845721E-1,-1.0983709E0,-3.7292528E-1,1.3365905E0,1.8793993E0,-4.0416013E-2,4.405388E-2,-6.655487E-2,9.962571E-4,5.7321794E-2,-4.3610674E-3,-3.2188028E-2,9.305608E-3],"split_indices":[370,544,0,688,766,13,537,11,3,0,0,0,0,0,0,0,0],"split_type":[0,0,0,0,0,0,0,0,0,0,0,0,0,0,0,0,0],"sum_hessian":[3.1290453E1,2.3905422E1,7.3850303E0,7.376662E0,1.652876E1,3.2782006E0,4.098461E0,1.2820057E1,3.708704E0,1.1035156E0,2.1746852E0,2.9260302E0,1.172431E0,1.1241992E1,1.5780649E0,1.0918579E0,2.6168458E0],"tree_param":{"num_deleted":"0","num_feature":"768","num_nodes":"17","size_leaf_vector":"1"}},{"base_weights":[-1.1103254E-1,2.6047066E-1,-1.0784388E0,-7.755647E-1,6.479149E-1,-6.2406488E-2,1.9999647E-3,3.4702428E-2,-1.1656367E0,-3.517551E-1,9.9525875E-1,-6.560228E-2,-1.2109908E-2,-4.7817543E-2,8.182633E-3,-2.379271E-3,5.738477E-2],"categories":[],"categories_nodes":[],"categories_segments":[],"categories_sizes":[],"default_left":[0,0,0,0,0,0,0,0,0,0,0,0,0,0,0,0,0],"id":19,"left_children":[1,3,5,7,9,-1,-1,-1,11,13,15,-1,-1,-1,-1,-1,-1],"loss_changes":[1.1496524E1,9.87675E0,1.7302103E0,4.713766E0,6.441179E0,0E0,0E0,0E0,4.6043873E-1,1.7963052E0,2.165657E0,0E0,0E0,0E0,0E0,0E0,0E0],"parents":[2147483647,0,0,1,1,2,2,3,3,4,4,8,8,9,9,10,10],"right_children":[2,4,6,8,10,-1,-1,-1,12,14,16,-1,-1,-1,-1,-1,-1],"split_conditions":[4.3199235E-1,-8.3148146E-1,2.4801679E-1,-7.8118694E-1,-8.500084E-1,-6.2406488E-2,1.9999647E-3,3.4702428E-2,6.2691145E-2,-2.644503E-1,-1.3400186E0,-6.560228E-2,-1.2109908E-2,-4.7817543E-2,8.182633E-3,-2.379271E-3,5.738477E-2],"split_indices":[640,633,492,53,614,0,0,0,182,600,30,0,0,0,0,0,0],"split_type":[0,0,0,0,0,0,0,0,0,0,0,0,0,0,0,0,0],"sum_hessian":[3.0206995E1,2.2353542E1,7.8534517E0,5.811556E0,1.6541986E1,6.7181993E0,1.1352525E0,1.0555273E0,4.7560287E0,4.262277E0,1.227971E1,3.7419286E0,1.0141002E0,1.5677339E0,2.6945431E0,1.653778E0,1.0625933E1],"tree_param":{"num_deleted":"0","num_feature":"768","num_nodes":"17","size_leaf_vector":"1"}},{"base_weights":[-7.866421E-2,-7.1771675E-1,4.9902055E-1,2.0712843E-2,-9.12057E-1,7.555775E-1,-4.71511E-2,-6.0747024E-2,-3.3310223E-1,9.80993E-1,-3.066486E-2,-7.175118E-1,3.5381068E-2,5.6223463E-2,-6.95164E-4,-1.729905E-2,-4.4511244E-2],"categories":[],"categories_nodes":[],"categories_segments":[],"categories_sizes":[],"default_left":[0,0,0,0,0,0,0,0,0,0,0,0,0,0,0,0,0],"id":20,"left_children":[1,3,5,-1,7,9,-1,-1,11,13,-1,15,-1,-1,-1,-1,-1],"loss_changes":[1.182561E1,3.7124362E0,6.9666452E0,0E0,1.918663E0,5.2012663E0,0E0,0E0,2.8795018E0,1.8975067E0,0E0,1.6679764E-3,0E0,0E0,0E0,0E0,0E0],"parents":[2147483647,0,0,1,1,2,2,4,4,5,5,8,8,9,9,11,11],"right_children":[2,4,6,-1,8,10,-1,-1,12,14,-1,16,-1,-1,-1,-1,-1],"split_conditions":[1.09918654E-1,-3.7072292E-1,5.739925E-1,2.0712843E-2,2.3865949E-1,9.139478E-1,-4.71511E-2,-6.0747024E-2,-3.8088813E-1,1.0304443E0,-3.066486E-2,-1.1702383E0,3.5381068E-2,5.6223463E-2,-6.95164E-4,-1.729905E-2,-4.4511244E-2],"split_indices":[712,370,552,0,256,451,0,0,150,0,0,6,0,0,0,0,0],"split_type":[0,0,0,0,0,0,0,0,0,0,0,0,0,0,0,0,0],"sum_hessian":[3.0062723E1,1.4158146E1,1.5904576E1,1.9087346E0,1.2249412E1,1.390648E1,1.9980961E0,7.320923E0,4.9284887E0,1.2183548E1,1.7229323E0,3.8258927E0,1.1025962E0,1.0534155E1,1.6493928E0,2.167183E0,1.6587099E0],"tree_param":{"num_deleted":"0","num_feature":"768","num_nodes":"17","size_leaf_vector":"1"}},{"base_weights":[-2.8351795E-2,4.298955E-1,-1.1094065E0,-4.9833575E-1,7.6282734E-1,-5.924293E-2,-1.3218661E-2,-8.423992E-1,3.0598124E-2,1.5910275E-2,5.5295933E-2,1.4747386E-2,-6.0529005E-2,4.1719666E-1,-4.402947E-2,3.9285E-2,-3.2483607E-3],"categories":[],"categories_nodes":[],"categories_segments":[],"categories_sizes":[],"default_left":[0,0,0,0,0,0,0,0,0,0,0,0,0,0,0,0,0],"id":21,"left_children":[1,3,5,7,9,-1,-1,11,-1,13,-1,-1,-1,15,-1,-1,-1],"loss_changes":[1.4490952E1,6.742624E0,2.415142E-1,2.8228188E0,3.966792E0,0E0,0E0,2.464105E0,0E0,2.4929965E0,0E0,0E0,0E0,8.968153E-1,0E0,0E0,0E0],"parents":[2147483647,0,0,1,1,2,2,3,3,4,4,7,7,9,9,13,13],"right_children":[2,4,6,8,10,-1,-1,12,-1,14,-1,-1,-1,16,-1,-1,-1],"split_conditions":[6.1346537E-1,-5.602106E-1,1.5310177E0,8.62985E-1,-4.1204554E-1,-5.924293E-2,-1.3218661E-2,-6.13711E-1,3.0598124E-2,-4.994117E-1,5.5295933E-2,1.4747386E-2,-6.0529005E-2,1.3794421E0,-4.402947E-2,3.9285E-2,-3.2483607E-3],"split_indices":[370,544,704,505,321,0,0,459,0,189,0,0,0,161,0,0,0],"split_type":[0,0,0,0,0,0,0,0,0,0,0,0,0,0,0,0,0],"sum_hessian":[2.7288847E1,1.9588032E1,7.7008157E0,5.039852E0,1.4548179E1,6.7004E0,1.0004156E0,4.0317607E0,1.0080916E0,4.9085445E0,9.639634E0,1.0346211E0,2.9971397E0,3.760105E0,1.1484398E0,1.7744315E0,1.9856733E0],"tree_param":{"num_deleted":"0","num_feature":"768","num_nodes":"17","size_leaf_vector":"1"}},{"base_weights":[2.9736802E-3,-6.512579E-1,5.9401995E-1,-9.747673E-1,1.8798405E-1,-4.3495157E-1,9.121117E-1,-1.155606E0,1.3943513E-2,3.538854E-2,-9.0444265E-3,3.2214843E-2,-4.6393506E-2,5.4699536E-2,-2.1325095E-2,-6.414673E-2,-2.647571E-3],"categories":[],"categories_nodes":[],"categories_segments":[],"categories_sizes":[],"default_left":[0,0,0,0,0,0,0,0,0,0,0,0,0,0,0,0,0],"id":22,"left_children":[1,3,5,7,9,11,13,15,-1,-1,-1,-1,-1,-1,-1,-1,-1],"loss_changes":[1.2069248E1,4.205963E0,5.7630687E0,2.7833462E0,1.0791658E0,3.0176382E0,3.5943298E0,1.2913685E0,0E0,0E0,0E0,0E0,0E0,0E0,0E0,0E0,0E0],"parents":[2147483647,0,0,1,1,2,2,3,3,4,4,5,5,6,6,7,7],"right_children":[2,4,6,8,10,12,14,16,-1,-1,-1,-1,-1,-1,-1,-1,-1],"split_conditions":[-1.698535E-1,3.8845474E-1,-5.365047E-1,1.1167519E0,4.0321043E-1,-8.868487E-1,1.1748517E0,4.4285998E-1,1.3943513E-2,3.538854E-2,-9.0444265E-3,3.2214843E-2,-4.6393506E-2,5.4699536E-2,-2.1325095E-2,-6.414673E-2,-2.647571E-3],"split_indices":[87,482,757,332,14,611,305,373,0,0,0,0,0,0,0,0,0],"split_type":[0,0,0,0,0,0,0,0,0,0,0,0,0,0,0,0,0],"sum_hessian":[2.9211943E1,1.3816513E1,1.5395429E1,9.8558235E0,3.9606895E0,3.5486817E0,1.1846746E1,8.681679E0,1.1741449E0,1.2626792E0,2.6980104E0,1.016325E0,2.5323567E0,1.0590542E1,1.2562054E0,7.636375E0,1.0453036E0],"tree_param":{"num_deleted":"0","num_feature":"768","num_nodes":"17","size_leaf_vector":"1"}},{"base_weights":[-5.1672865E-2,4.836125E-1,-8.012041E-1,-7.259291E-1,8.1038517E-1,-1.8552545E-1,-1.1010466E0,5.9250775E-3,-5.1586013E-2,1.0031068E0,-3.6278915E-2,-2.729181E-2,3.186418E-2,-1.203683E-2,-6.0129937E-2,5.499022E-2,8.2498705E-3],"categories":[],"categories_nodes":[],"categories_segments":[],"categories_sizes":[],"default_left":[0,0,0,0,0,0,0,0,0,0,0,0,0,0,0,0,0],"id":23,"left_children":[1,3,5,7,9,11,13,-1,-1,15,-1,-1,-1,-1,-1,-1,-1],"loss_changes":[1.1797556E1,7.3921123E0,2.0524983E0,1.2039242E0,4.8795013E0,1.8913714E0,4.1102695E-1,0E0,0E0,8.6248493E-1,0E0,0E0,0E0,0E0,0E0,0E0,0E0],"parents":[2147483647,0,0,1,1,2,2,3,3,4,4,5,5,6,6,9,9],"right_children":[2,4,6,8,10,12,14,-1,-1,16,-1,-1,-1,-1,-1,-1,-1],"split_conditions":[2.0404616E-1,-1.1189888E0,-2.1546656E-2,-2.0609064E-1,5.959063E-1,-6.1088693E-1,-1.0234727E0,5.9250775E-3,-5.1586013E-2,6.690058E-1,-3.6278915E-2,-2.729181E-2,3.186418E-2,-1.203683E-2,-6.0129937E-2,5.499022E-2,8.2498705E-3],"split_indices":[349,633,651,59,370,440,284,0,0,550,0,0,0,0,0,0,0],"split_type":[0,0,0,0,0,0,0,0,0,0,0,0,0,0,0,0,0],"sum_hessian":[2.7438961E1,1.6214203E1,1.1224758E1,3.1889322E0,1.302527E1,4.206377E0,7.0183806E0,1.0106198E0,2.1783123E0,1.1881398E1,1.1438725E0,3.1594586E0,1.0469185E0,1.0968517E0,5.9215293E0,1.0372427E1,1.5089707E0],"tree_param":{"num_deleted":"0","num_feature":"768","num_nodes":"17","size_leaf_vector":"1"}},{"base_weights":[-7.189871E-2,-6.555391E-1,4.7920203E-1,2.4460485E-2,-1.0006565E0,-5.1334167E-1,9.6422195E-1,-1.9047892E-2,3.6592584E-2,7.3968256E-3,-1.1539212E0,3.373204E-2,-9.18634E-1,5.2969422E-2,9.4910286E-4,-1.3411743E-2,-6.2186744E-2,-5.943298E-3,-5.561728E-2],"categories":[],"categories_nodes":[],"categories_segments":[],"categories_sizes":[],"default_left":[0,0,0,0,0,0,0,0,0,0,0,0,0,0,0,0,0,0,0],"id":24,"left_children":[1,3,5,7,9,11,13,-1,-1,-1,15,-1,17,-1,-1,-1,-1,-1,-1],"loss_changes":[9.640007E0,3.4282112E0,7.952195E0,1.9591013E0,1.8685579E0,3.3822217E0,9.4718933E-1,0E0,0E0,0E0,3.52314E-1,0E0,5.961435E-1,0E0,0E0,0E0,0E0,0E0,0E0],"parents":[2147483647,0,0,1,1,2,2,3,3,4,4,5,5,6,6,10,10,12,12],"right_children":[2,4,6,8,10,12,14,-1,-1,-1,16,-1,18,-1,-1,-1,-1,-1,-1],"split_conditions":[-1.2718008E-1,-1.08785376E-1,-8.5394937E-1,7.238483E-1,-1.0539005E0,7.461638E-2,1.168521E0,-1.9047892E-2,3.6592584E-2,7.3968256E-3,-1.0879977E0,3.373204E-2,-2.4836941E-1,5.2969422E-2,9.4910286E-4,-1.3411743E-2,-6.2186744E-2,-5.943298E-3,-5.561728E-2],"split_indices":[743,640,633,18,762,431,684,0,0,0,103,0,492,0,0,0,0,0,0],"split_type":[0,0,0,0,0,0,0,0,0,0,0,0,0,0,0,0,0,0,0],"sum_hessian":[2.7994331E1,1.3503748E1,1.4490583E1,4.858992E0,8.644756E0,4.737461E0,9.753122E0,3.3821077E0,1.4768845E0,1.0218203E0,7.622936E0,1.0360473E0,3.7014136E0,8.751285E0,1.0018374E0,1.0688792E0,6.5540566E0,1.0363415E0,2.665072E0],"tree_param":{"num_deleted":"0","num_feature":"768","num_nodes":"19","size_leaf_vector":"1"}},{"base_weights":[-5.748809E-2,3.831862E-1,-1.070319E0,-5.467259E-1,7.240334E-1,-1.2803351E-2,-5.7564147E-2,-5.1631045E-2,1.7809147E-2,9.752114E-1,-1.9177008E-1,5.3362347E-2,1.9735224E-4,-1.4544954E-2,-3.0377198E-3],"categories":[],"categories_nodes":[],"categories_segments":[],"categories_sizes":[],"default_left":[0,0,0,0,0,0,0,0,0,0,0,0,0,0,0],"id":25,"left_children":[1,3,5,7,9,-1,-1,-1,-1,11,13,-1,-1,-1,-1],"loss_changes":[1.2514902E1,6.6192064E0,2.6463985E-1,2.928268E0,3.5910902E0,0E0,0E0,0E0,0E0,1.0485945E0,3.4547076E-2,0E0,0E0,0E0,0E0],"parents":[2147483647,0,0,1,1,2,2,3,3,4,4,9,9,10,10],"right_children":[2,4,6,8,10,-1,-1,-1,-1,12,14,-1,-1,-1,-1],"split_conditions":[3.556815E-1,-5.602106E-1,-1.4733721E0,4.057401E-1,1.4183612E0,-1.2803351E-2,-5.7564147E-2,-5.1631045E-2,1.7809147E-2,1.0945227E0,-7.0933115E-1,5.3362347E-2,1.9735224E-4,-1.4544954E-2,-3.0377198E-3],"split_indices":[370,544,216,59,612,0,0,0,0,161,0,0,0,0,0],"split_type":[0,0,0,0,0,0,0,0,0,0,0,0,0,0,0],"sum_hessian":[2.612076E1,1.863465E1,7.486111E0,4.836234E0,1.3798414E1,1.0535276E0,6.432584E0,3.0508027E0,1.7854315E0,1.0777574E1,3.0208411E0,9.7544365E0,1.0231371E0,1.024982E0,1.995859E0],"tree_param":{"num_deleted":"0","num_feature":"768","num_nodes":"15","size_leaf_vector":"1"}},{"base_weights":[-3.7524298E-2,-9.261484E-1,3.4523305E-1,-5.4674853E-2,2.795304E-3,5.65595E-1,-4.068719E-2,8.331339E-1,-5.873753E-1,-3.336437E-3,5.2596547E-2,-4.876192E-2,8.313629E-3],"categories":[],"categories_nodes":[],"categories_segments":[],"categories_sizes":[],"default_left":[0,0,0,0,0,0,0,0,0,0,0,0,0],"id":26,"left_children":[1,3,5,-1,-1,7,-1,9,11,-1,-1,-1,-1],"loss_changes":[9.157205E0,1.3913169E0,5.28439E0,0E0,0E0,5.567072E0,0E0,2.7822046E0,1.2398573E0,0E0,0E0,0E0,0E0],"parents":[2147483647,0,0,1,1,2,2,5,5,7,7,8,8],"right_children":[2,4,6,-1,-1,8,-1,10,12,-1,-1,-1,-1],"split_conditions":[-4.7744286E-1,1.8371841E0,5.844823E-1,-5.4674853E-2,2.795304E-3,1.1748517E0,-4.068719E-2,-1.3540679E0,-4.6424434E-1,-3.336437E-3,5.2596547E-2,-4.876192E-2,8.313629E-3],"split_indices":[512,230,49,0,0,305,0,72,389,0,0,0,0],"split_type":[0,0,0,0,0,0,0,0,0,0,0,0,0],"sum_hessian":[2.4982817E1,7.093831E0,1.7888987E1,5.9640403E0,1.1297907E0,1.546125E1,2.4277353E0,1.2774432E1,2.6868184E0,2.6344714E0,1.0139961E1,1.5797696E0,1.1070487E0],"tree_param":{"num_deleted":"0","num_feature":"768","num_nodes":"13","size_leaf_vector":"1"}},{"base_weights":[-5.410943E-2,2.7164373E-1,-1.0181383E0,-6.198371E-1,6.734603E-1,-5.602433E-2,-1.1698796E-2,3.3797175E-2,-9.5254314E-1,-3.281773E-1,9.8270315E-1,-5.8145072E-2,1.8435335E-3,-3.4264196E-2,5.576379E-4,3.3736607E-5,5.379614E-2],"categories":[],"categories_nodes":[],"categories_segments":[],"categories_sizes":[],"default_left":[0,0,0,0,0,0,0,0,0,0,0,0,0,0,0,0,0],"id":27,"left_children":[1,3,5,7,9,-1,-1,-1,11,13,15,-1,-1,-1,-1,-1,-1],"loss_changes":[8.676154E0,7.8615155E0,2.9691076E-1,3.6518705E0,4.9080124E0,0E0,0E0,0E0,1.2847705E0,5.216721E-1,1.0577059E0,0E0,0E0,0E0,0E0,0E0,0E0],"parents":[2147483647,0,0,1,1,2,2,3,3,4,4,8,8,9,9,10,10],"right_children":[2,4,6,8,10,-1,-1,-1,12,14,16,-1,-1,-1,-1,-1,-1],"split_conditions":[9.00895E-1,-8.3148146E-1,2.2755904E-1,-7.8118694E-1,-9.1345847E-1,-5.602433E-2,-1.1698796E-2,3.3797175E-2,-3.804891E-1,2.0021567E0,-7.958865E-1,-5.8145072E-2,1.8435335E-3,-3.4264196E-2,5.576379E-4,3.3736607E-5,5.379614E-2],"split_indices":[287,633,666,53,418,0,0,0,503,2,385,0,0,0,0,0,0],"split_type":[0,0,0,0,0,0,0,0,0,0,0,0,0,0,0,0,0],"sum_hessian":[2.5747246E1,1.9781229E1,5.9660172E0,5.9772835E0,1.3803946E1,4.8978558E0,1.0681612E0,1.010411E0,4.966872E0,3.241971E0,1.0561974E1,3.9514208E0,1.0154514E0,1.0828614E0,2.1591096E0,1.0030032E0,9.55897E0],"tree_param":{"num_deleted":"0","num_feature":"768","num_nodes":"17","size_leaf_vector":"1"}},{"base_weights":[-1.3441266E-1,4.804675E-1,-6.885499E-1,7.328307E-1,-2.964261E-2,-5.9932496E-2,-1.0657825E0,4.9694255E-2,-3.5257127E-2,3.5591744E-2,-4.3319848E-1,-7.65756E-3,-5.851659E-2,-4.2698525E-2,1.1216066E-3],"categories":[],"categories_nodes":[],"categories_segments":[],"categories_sizes":[],"default_left":[0,0,0,0,0,0,0,0,0,0,0,0,0,0,0],"id":28,"left_children":[1,3,5,7,-1,9,11,-1,-1,-1,13,-1,-1,-1,-1],"loss_changes":[9.208165E0,3.9392345E0,3.2832646E0,4.801273E0,0E0,2.138567E0,6.5675926E-1,0E0,0E0,0E0,9.593013E-1,0E0,0E0,0E0,0E0],"parents":[2147483647,0,0,1,1,2,2,3,3,5,5,6,6,10,10],"right_children":[2,4,6,8,-1,10,12,-1,-1,-1,14,-1,-1,-1,-1],"split_conditions":[-1.2287941E-1,1.1489664E0,8.074699E-2,4.3199235E-1,-2.964261E-2,-3.6759478E-1,-1.6451466E0,4.9694255E-2,-3.5257127E-2,3.5591744E-2,5.444753E-1,-7.65756E-3,-5.851659E-2,-4.2698525E-2,1.1216066E-3],"split_indices":[112,305,756,640,0,731,761,0,0,0,126,0,0,0,0],"split_type":[0,0,0,0,0,0,0,0,0,0,0,0,0,0,0],"sum_hessian":[2.5054035E1,1.1939124E1,1.3114912E1,9.923177E0,2.0159469E0,5.353222E0,7.76169E0,8.659865E0,1.2633114E0,1.449396E0,3.9038258E0,1.0511205E0,6.71057E0,1.5750326E0,2.3287933E0],"tree_param":{"num_deleted":"0","num_feature":"768","num_nodes":"15","size_leaf_vector":"1"}},{"base_weights":[-9.443778E-2,-6.302567E-1,4.0007466E-1,-1.04698844E-1,-5.562253E-2,8.0493164E-1,-7.109553E-1,3.8867805E-2,-4.4331527E-1,-1.9574387E-2,5.1973242E-2,8.9360215E-3,-5.2573632E-2,6.8746186E-3,-4.482431E-2],"categories":[],"categories_nodes":[],"categories_segments":[],"categories_sizes":[],"default_left":[0,0,0,0,0,0,0,0,0,0,0,0,0,0,0],"id":29,"left_children":[1,3,5,7,-1,9,11,-1,13,-1,-1,-1,-1,-1,-1],"loss_changes":[7.363096E0,3.2461152E0,7.125122E0,2.5706053E0,0E0,3.534593E0,1.5275002E0,0E0,1.7083367E0,0E0,0E0,0E0,0E0,0E0,0E0],"parents":[2147483647,0,0,1,1,2,2,3,3,5,5,6,6,8,8],"right_children":[2,4,6,8,-1,10,12,-1,14,-1,-1,-1,-1,-1,-1],"split_conditions":[-1.2718008E-1,2.0511389E-1,1.1748517E0,-4.6719614E-1,-5.562253E-2,-1.1655636E0,-4.1512573E-1,3.8867805E-2,-1.3074807E0,-1.9574387E-2,5.1973242E-2,8.9360215E-3,-5.2573632E-2,6.8746186E-3,-4.482431E-2],"split_indices":[743,435,305,161,0,723,687,0,636,0,0,0,0,0,0],"split_type":[0,0,0,0,0,0,0,0,0,0,0,0,0,0,0],"sum_hessian":[2.5836887E1,1.2268788E1,1.35681E1,6.4528065E0,5.8159814E0,1.0146313E1,3.4217868E0,1.4305952E0,5.0222116E0,1.5532956E0,8.593018E0,1.0786719E0,2.3431149E0,2.5064335E0,2.5157778E0],"tree_param":{"num_deleted":"0","num_feature":"768","num_nodes":"15","size_leaf_vector":"1"}},{"base_weights":[-1.0623689E-1,3.12219E-1,-7.6940453E-1,7.2413546E-1,-4.83837E-1,-9.6455747E-1,2.3809379E-2,9.305522E-1,-2.2926526E-2,-1.6175698E-3,-4.2544026E-2,-1.0959299E0,3.656001E-4,5.141997E-2,2.3894464E-3,-1.3299376E-2,-5.898888E-2],"categories":[],"categories_nodes":[],"categories_segments":[],"categories_sizes":[],"default_left":[0,0,0,0,0,0,0,0,0,0,0,0,0,0,0,0,0],"id":30,"left_children":[1,3,5,7,9,11,-1,13,-1,-1,-1,15,-1,-1,-1,-1,-1],"loss_changes":[7.1087794E0,5.559757E0,2.8571234E0,3.0802722E0,9.695475E-1,1.1390562E0,0E0,7.787466E-1,0E0,0E0,0E0,2.2970963E-1,0E0,0E0,0E0,0E0,0E0],"parents":[2147483647,0,0,1,1,2,2,3,3,4,4,5,5,7,7,11,11],"right_children":[2,4,6,8,10,12,-1,14,-1,-1,-1,16,-1,-1,-1,-1,-1],"split_conditions":[4.2179185E-1,2.4071452E-1,9.001903E-1,6.1346537E-1,-5.5923566E-2,3.8845474E-1,2.3809379E-2,1.2176443E0,-2.2926526E-2,-1.6175698E-3,-4.2544026E-2,-1.4402677E0,3.656001E-4,5.141997E-2,2.3894464E-3,-1.3299376E-2,-5.898888E-2],"split_indices":[647,349,387,370,75,482,0,351,0,0,0,564,0,0,0,0,0],"split_type":[0,0,0,0,0,0,0,0,0,0,0,0,0,0,0,0,0],"sum_hessian":[2.3750984E1,1.4886725E1,8.864259E0,9.869917E0,5.016809E0,7.858632E0,1.0056268E0,8.584751E0,1.2851658E0,2.7375715E0,2.2792375E0,6.810387E0,1.0482447E0,7.579632E0,1.005119E0,1.0077486E0,5.8026385E0],"tree_param":{"num_deleted":"0","num_feature":"768","num_nodes":"17","size_leaf_vector":"1"}},{"base_weights":[-8.128314E-2,-4.2444056E-1,4.5102753E-2,1.0268945E-1,-8.5976905E-1,6.07375E-1,-3.74045E-1,7.212631E-3,-1.0417447E0,4.553988E-2,-1.5148222E-2,-3.9040025E-2,4.5409516E-4,-6.398286E-3,-5.7006296E-2],"categories":[],"categories_nodes":[],"categories_segments":[],"categories_sizes":[],"default_left":[0,0,0,0,0,0,0,0,0,0,0,0,0,0,0],"id":31,"left_children":[1,3,-1,5,7,9,11,-1,13,-1,-1,-1,-1,-1,-1],"loss_changes":[8.803798E0,4.4895134E0,0E0,2.5293498E0,2.089015E0,1.6650554E0,8.703339E-1,0E0,6.725998E-1,0E0,0E0,0E0,0E0,0E0,0E0],"parents":[2147483647,0,0,1,1,3,3,4,4,5,5,6,6,8,8],"right_children":[2,4,-1,6,8,10,12,-1,14,-1,-1,-1,-1,-1,-1],"split_conditions":[5.9414315E-1,-1.8198499E-1,4.5102753E-2,-4.8951414E-1,-7.3690844E-1,1.5621285E0,1.430138E-1,7.212631E-3,-7.5950253E-1,4.553988E-2,-1.5148222E-2,-3.9040025E-2,4.5409516E-4,-6.398286E-3,-5.7006296E-2],"split_indices":[505,662,0,48,177,631,25,0,259,0,0,0,0,0,0],"split_type":[0,0,0,0,0,0,0,0,0,0,0,0,0,0,0],"sum_hessian":[2.3955353E1,1.8179564E1,5.77579E0,8.568391E0,9.611173E0,4.0290666E0,4.5393243E0,1.5065147E0,8.104658E0,3.0214822E0,1.0075842E0,1.698308E0,2.841016E0,1.0113941E0,7.093264E0],"tree_param":{"num_deleted":"0","num_feature":"768","num_nodes":"15","size_leaf_vector":"1"}},{"base_weights":[-6.470581E-2,3.8561773E-1,-6.449506E-1,7.048461E-1,-7.052572E-1,-9.830644E-3,-5.0071854E-2,-2.5273731E-2,9.3258274E-1,-4.6229128E-2,-3.1039042E-3,3.44258E-2,-1.88518E-2,5.1193483E-2,3.2219507E-3],"categories":[],"categories_nodes":[],"categories_segments":[],"categories_sizes":[],"default_left":[0,0,0,0,0,0,0,0,0,0,0,0,0,0,0],"id":32,"left_children":[1,3,5,7,9,11,-1,-1,13,-1,-1,-1,-1,-1,-1],"loss_changes":[6.4681706E0,5.381927E0,2.4297266E0,3.6003509E0,4.6108127E-1,1.5119153E0,0E0,0E0,7.190428E-1,0E0,0E0,0E0,0E0,0E0,0E0],"parents":[2147483647,0,0,1,1,2,2,3,3,4,4,5,5,8,8],"right_children":[2,4,6,8,10,12,-1,-1,14,-1,-1,-1,-1,-1,-1],"split_conditions":[1.1474587E-1,1.1748517E0,-9.5504594E-1,-1.0656638E0,-6.575346E-2,1.925674E-1,-5.0071854E-2,-2.5273731E-2,6.335073E-1,-4.6229128E-2,-3.1039042E-3,3.44258E-2,-1.88518E-2,5.1193483E-2,3.2219507E-3],"split_indices":[663,305,440,134,271,49,0,0,358,0,0,0,0,0,0],"split_type":[0,0,0,0,0,0,0,0,0,0,0,0,0,0,0],"sum_hessian":[2.2802202E1,1.3027265E1,9.774938E0,1.0351828E1,2.6754377E0,3.8835468E0,5.8913913E0,1.4462237E0,8.905603E0,1.6688402E0,1.0065976E0,1.0367851E0,2.8467617E0,7.895952E0,1.0096511E0],"tree_param":{"num_deleted":"0","num_feature":"768","num_nodes":"15","size_leaf_vector":"1"}},{"base_weights":[3.271417E-2,4.1977933E-1,-6.6436154E-1,-3.4764543E-2,6.7934984E-1,-9.470591E-1,3.3705864E-2,-1.6682064E-2,8.2930833E-1,-5.560415E-3,-5.353405E-2,7.3707993E-3,4.871659E-2],"categories":[],"categories_nodes":[],"categories_segments":[],"categories_sizes":[],"default_left":[0,0,0,0,0,0,0,0,0,0,0,0,0],"id":33,"left_children":[1,3,5,-1,7,9,-1,-1,11,-1,-1,-1,-1],"loss_changes":[6.545133E0,4.971819E0,3.9223793E0,0E0,2.2690763E0,6.643014E-1,0E0,0E0,1.0145235E0,0E0,0E0,0E0,0E0],"parents":[2147483647,0,0,1,1,2,2,4,4,5,5,8,8],"right_children":[2,4,6,-1,8,10,-1,-1,12,-1,-1,-1,-1],"split_conditions":[4.2179185E-1,-1.1267929E0,9.848641E-1,-3.4764543E-2,-9.496167E-1,-7.620683E-1,3.3705864E-2,-1.6682064E-2,-1.5580686E0,-5.560415E-3,-5.353405E-2,7.3707993E-3,4.871659E-2],"split_indices":[647,701,387,0,510,462,0,0,66,0,0,0,0],"split_type":[0,0,0,0,0,0,0,0,0,0,0,0,0],"sum_hessian":[2.2224346E1,1.4545479E1,7.6788673E0,2.4296217E0,1.2115857E1,6.5812836E0,1.0975841E0,1.4043539E0,1.0711504E1,1.0927052E0,5.4885783E0,2.2322211E0,8.479282E0],"tree_param":{"num_deleted":"0","num_feature":"768","num_nodes":"13","size_leaf_vector":"1"}},{"base_weights":[-1.2915668E-2,2.8219652E-1,-9.324858E-1,8.4571624E-1,-1.2834337E-1,-5.0349236E-2,-1.4149951E-2,4.8663452E-2,-3.1153418E-4,-4.980603E-1,6.130065E-1,-5.4330107E-2,2.3762621E-1,-1.6829554E-3,4.0956303E-2,-2.8804885E-3,3.153367E-2],"categories":[],"categories_nodes":[],"categories_segments":[],"categories_sizes":[],"default_left":[0,0,0,0,0,0,0,0,0,0,0,0,0,0,0,0,0],"id":34,"left_children":[1,3,5,7,9,-1,-1,-1,-1,11,13,-1,15,-1,-1,-1,-1],"loss_changes":[6.6618056E0,4.415703E0,3.4451485E-3,8.730874E-1,3.4954686E0,0E0,0E0,0E0,0E0,3.8596706E0,6.0355604E-1,0E0,5.605321E-1,0E0,0E0,0E0,0E0],"parents":[2147483647,0,0,1,1,2,2,3,3,4,4,9,9,10,10,12,12],"right_children":[2,4,6,8,10,-1,-1,-1,-1,12,14,-1,16,-1,-1,-1,-1],"split_conditions":[6.4637446E-1,-1.8780792E-1,5.8644986E-1,2.7856404E-1,3.562999E-1,-5.0349236E-2,-1.4149951E-2,4.8663452E-2,-3.1153418E-4,4.2462024E-1,-7.304697E-1,-5.4330107E-2,-8.359621E-1,-1.6829554E-3,4.0956303E-2,-2.8804885E-3,3.153367E-2],"split_indices":[44,12,389,88,749,0,0,0,0,373,134,0,1,0,0,0,0],"split_type":[0,0,0,0,0,0,0,0,0,0,0,0,0,0,0,0,0],"sum_hessian":[2.2578554E1,1.7617723E1,4.9608297E0,6.97863E0,1.0639093E1,3.9565644E0,1.0042653E0,5.945995E0,1.032635E0,7.3178144E0,3.3212795E0,3.800479E0,3.5173352E0,1.0049906E0,2.316289E0,2.4959438E0,1.0213915E0],"tree_param":{"num_deleted":"0","num_feature":"768","num_nodes":"17","size_leaf_vector":"1"}},{"base_weights":[-8.72576E-2,-5.872967E-1,3.760525E-1,1.1526269E-2,-9.1695195E-1,6.6529673E-1,-3.86049E-2,-2.5681794E-2,1.4059911E-2,-9.259898E-3,-5.2095395E-2,8.7733203E-1,-2.1610746E-2,8.62058E-3,4.869244E-2],"categories":[],"categories_nodes":[],"categories_segments":[],"categories_sizes":[],"default_left":[0,0,0,0,0,0,0,0,0,0,0,0,0,0,0],"id":35,"left_children":[1,3,5,7,9,11,-1,-1,-1,-1,-1,13,-1,-1,-1],"loss_changes":[5.3173056E0,2.176148E0,4.5081997E0,8.35908E-1,4.5511627E-1,2.7400427E0,0E0,0E0,0E0,0E0,0E0,4.3302298E-1,0E0,0E0,0E0],"parents":[2147483647,0,0,1,1,2,2,3,3,4,4,5,5,11,11],"right_children":[2,4,6,8,10,12,-1,-1,-1,-1,-1,14,-1,-1,-1],"split_conditions":[-1.698535E-1,-1.0186317E0,3.1367812E-1,-1.4656214E0,-4.4382286E-1,7.0145226E-1,-3.86049E-2,-2.5681794E-2,1.4059911E-2,-9.259898E-3,-5.2095395E-2,-5.918225E-1,-2.1610746E-2,8.62058E-3,4.869244E-2],"split_indices":[87,440,28,440,756,506,0,0,0,0,0,418,0,0,0],"split_type":[0,0,0,0,0,0,0,0,0,0,0,0,0,0,0],"sum_hessian":[2.0998453E1,9.970225E0,1.1028228E1,3.8825529E0,6.087672E0,9.144961E0,1.8832666E0,1.0103387E0,2.8722143E0,1.2499498E0,4.8377223E0,7.832389E0,1.3125725E0,1.2788085E0,6.5535803E0],"tree_param":{"num_deleted":"0","num_feature":"768","num_nodes":"15","size_leaf_vector":"1"}},{"base_weights":[-5.983519E-2,-9.1176E-1,2.6417565E-1,-1.1474564E-2,-4.9952462E-2,4.9493486E-1,-6.090636E-1,7.0948577E-1,-2.7207239E-2,2.206789E-3,-4.3192454E-2,9.410997E-1,-8.014382E-3,8.616757E-3,5.0790187E-2],"categories":[],"categories_nodes":[],"categories_segments":[],"categories_sizes":[],"default_left":[0,0,0,0,0,0,0,0,0,0,0,0,0,0,0],"id":36,"left_children":[1,3,5,-1,-1,7,9,11,-1,-1,-1,13,-1,-1,-1],"loss_changes":[6.234208E0,1.4039326E-1,3.627387E0,0E0,0E0,3.4195442E0,6.868975E-1,2.5103068E0,0E0,0E0,0E0,3.644848E-1,0E0,0E0,0E0],"parents":[2147483647,0,0,1,1,2,2,5,5,6,6,7,7,11,11],"right_children":[2,4,6,-1,-1,8,10,12,-1,-1,-1,14,-1,-1,-1],"split_conditions":[-5.952228E-1,-1.314186E0,7.7663666E-1,-1.1474564E-2,-4.9952462E-2,1.1748517E0,2.4114583E-1,5.234603E-1,-2.7207239E-2,2.206789E-3,-4.3192454E-2,-1.2479477E0,-8.014382E-3,8.616757E-3,5.0790187E-2],"split_indices":[512,8,287,0,0,305,239,747,0,0,0,731,0,0,0],"split_type":[0,0,0,0,0,0,0,0,0,0,0,0,0,0,0],"sum_hessian":[2.0712425E1,5.207174E0,1.5505252E1,1.0022777E0,4.204896E0,1.2606992E1,2.89826E0,1.07122965E1,1.8946954E0,1.0452642E0,1.8529959E0,8.394816E0,2.31748E0,1.0363942E0,7.358422E0],"tree_param":{"num_deleted":"0","num_feature":"768","num_nodes":"15","size_leaf_vector":"1"}},{"base_weights":[5.0751258E-2,-7.328792E-1,3.612467E-1,-4.8675578E-2,-2.25782E-3,-1.5591192E-1,8.250572E-1,-4.1112326E-2,1.3170423E-1,4.9126443E-2,-6.695465E-3,3.455906E-2,-1.478103E-1,-3.0676587E-2,6.394438E-3],"categories":[],"categories_nodes":[],"categories_segments":[],"categories_sizes":[],"default_left":[0,0,0,0,0,0,0,0,0,0,0,0,0,0,0],"id":37,"left_children":[1,3,5,-1,-1,7,9,-1,11,-1,-1,-1,13,-1,-1],"loss_changes":[5.341352E0,9.905338E-1,3.873691E0,0E0,0E0,1.6842483E0,1.3985624E0,0E0,1.1351928E0,0E0,0E0,0E0,7.498455E-1,0E0,0E0],"parents":[2147483647,0,0,1,1,2,2,5,5,6,6,8,8,12,12],"right_children":[2,4,6,-1,-1,8,10,-1,12,-1,-1,-1,14,-1,-1],"split_conditions":[-4.7744286E-1,5.689491E-1,-1.0040327E-1,-4.8675578E-2,-2.25782E-3,-7.0452297E-1,9.00895E-1,-4.1112326E-2,-3.9995122E-1,4.9126443E-2,-6.695465E-3,3.455906E-2,-1.19668506E-1,-3.0676587E-2,6.394438E-3],"split_indices":[512,428,118,0,0,544,287,0,55,0,0,0,171,0,0],"split_type":[0,0,0,0,0,0,0,0,0,0,0,0,0,0,0],"sum_hessian":[1.9864431E1,5.251161E0,1.4613271E1,3.582201E0,1.6689602E0,7.2231503E0,7.3901205E0,1.6173418E0,5.6058087E0,6.326652E0,1.0634683E0,1.3769369E0,4.228872E0,1.1168605E0,3.1120112E0],"tree_param":{"num_deleted":"0","num_feature":"768","num_nodes":"15","size_leaf_vector":"1"}},{"base_weights":[-1.13930166E-1,3.28844E-1,-6.613085E-1,6.5933937E-1,-5.3416675E-1,1.2338639E-2,-8.536126E-1,8.5914975E-1,-2.3937114E-2,-4.7174223E-2,1.6706133E-2,-1.4444962E-2,-5.033606E-2,4.9056847E-2,1.7757677E-3],"categories":[],"categories_nodes":[],"categories_segments":[],"categories_sizes":[],"default_left":[0,0,0,0,0,0,0,0,0,0,0,0,0,0,0],"id":38,"left_children":[1,3,5,7,9,-1,11,13,-1,-1,-1,-1,-1,-1,-1],"loss_changes":[5.4989433E0,3.9786868E0,1.9703283E0,2.6037693E0,1.7629063E0,0E0,4.475479E-1,8.2513285E-1,0E0,0E0,0E0,0E0,0E0,0E0,0E0],"parents":[2147483647,0,0,1,1,2,2,3,3,4,4,6,6,7,7],"right_children":[2,4,6,8,10,-1,12,14,-1,-1,-1,-1,-1,-1,-1],"split_conditions":[2.422793E-1,4.2179185E-1,-1.2578585E0,7.710948E-1,-4.4207504E-1,1.2338639E-2,-1.156977E0,8.7685496E-1,-2.3937114E-2,-4.7174223E-2,1.6706133E-2,-1.4444962E-2,-5.033606E-2,4.9056847E-2,1.7757677E-3],"split_indices":[349,647,7,518,656,0,110,187,0,0,0,0,0,0,0],"split_type":[0,0,0,0,0,0,0,0,0,0,0,0,0,0,0],"sum_hessian":[2.0791416E1,1.1714665E1,9.076751E0,8.641392E0,3.0732734E0,1.5367593E0,7.5399914E0,7.55931E0,1.0820813E0,2.029807E0,1.0434664E0,2.2240126E0,5.3159785E0,6.4175835E0,1.1417269E0],"tree_param":{"num_deleted":"0","num_feature":"768","num_nodes":"15","size_leaf_vector":"1"}},{"base_weights":[-7.804975E-2,-7.46996E-1,3.427561E-1,-4.78193E-2,8.350339E-3,5.6588674E-1,-3.6377907E-2,7.324769E-1,-1.6767358E-2,4.7254037E-2,8.479851E-3],"categories":[],"categories_nodes":[],"categories_segments":[],"categories_sizes":[],"default_left":[0,0,0,0,0,0,0,0,0,0,0],"id":39,"left_children":[1,3,5,-1,-1,7,-1,9,-1,-1,-1],"loss_changes":[5.7091603E0,1.651545E0,3.415342E0,0E0,0E0,1.8926058E0,0E0,9.852586E-1,0E0,0E0,0E0],"parents":[2147483647,0,0,1,1,2,2,5,5,7,7],"right_children":[2,4,6,-1,-1,8,-1,10,-1,-1,-1],"split_conditions":[-3.4993973E-1,8.3946776E-1,4.3102142E-1,-4.78193E-2,8.350339E-3,1.1551533E0,-3.6377907E-2,5.5106395E-1,-1.6767358E-2,4.7254037E-2,8.479851E-3],"split_indices":[482,85,349,0,0,305,0,380,0,0,0],"split_type":[0,0,0,0,0,0,0,0,0,0,0],"sum_hessian":[1.8371906E1,6.794954E0,1.1576952E1,5.4907093E0,1.3042445E0,9.969813E0,1.6071389E0,8.572471E0,1.3973422E0,5.729418E0,2.843053E0],"tree_param":{"num_deleted":"0","num_feature":"768","num_nodes":"11","size_leaf_vector":"1"}},{"base_weights":[-9.126503E-2,-8.4649944E-1,2.1284203E-1,-3.568106E-3,-4.9319964E-2,4.3861663E-1,-5.7300574E-1,-5.883962E-2,4.4690367E-2,-4.481152E-2,8.598415E-3,-3.5465892E-2,3.7413064E-1,3.650719E-2,-2.2057549E-3],"categories":[],"categories_nodes":[],"categories_segments":[],"categories_sizes":[],"default_left":[0,0,0,0,0,0,0,0,0,0,0,0,0,0,0],"id":40,"left_children":[1,3,5,-1,-1,7,9,11,-1,-1,-1,-1,13,-1,-1],"loss_changes":[4.8897467E0,5.897479E-1,2.9868846E0,0E0,0E0,2.8929152E0,1.0871056E0,2.217618E0,0E0,0E0,0E0,0E0,7.493695E-1,0E0,0E0],"parents":[2147483647,0,0,1,1,2,2,5,5,6,6,7,7,12,12],"right_children":[2,4,6,-1,-1,8,10,12,-1,-1,-1,-1,14,-1,-1],"split_conditions":[-5.988858E-1,-1.170663E0,1.1748517E0,-3.568106E-3,-4.9319964E-2,-1.7115296E-1,3.3712277E-1,-1.5035273E-1,4.4690367E-2,-4.481152E-2,8.598415E-3,-3.5465892E-2,-1.092654E-1,3.650719E-2,-2.2057549E-3],"split_indices":[482,419,305,0,0,608,136,764,0,0,0,0,393,0,0],"split_type":[0,0,0,0,0,0,0,0,0,0,0,0,0,0,0],"sum_hessian":[1.950565E1,5.087513E0,1.4418138E1,1.0087066E0,4.0788064E0,1.1543529E1,2.8746083E0,5.931744E0,5.611785E0,1.8631852E0,1.011423E0,2.1153948E0,3.8163495E0,1.6587138E0,2.1576357E0],"tree_param":{"num_deleted":"0","num_feature":"768","num_nodes":"15","size_leaf_vector":"1"}},{"base_weights":[-3.992927E-2,-6.092692E-1,3.7971795E-1,-7.964185E-1,1.93667E-2,-3.2247864E-2,6.5939796E-1,-5.0029438E-2,1.2799553E-2,-1.8292986E-2,8.188661E-1,4.9961735E-2,-5.369988E-4],"categories":[],"categories_nodes":[],"categories_segments":[],"categories_sizes":[],"default_left":[0,0,0,0,0,0,0,0,0,0,0,0,0],"id":41,"left_children":[1,3,5,7,-1,-1,9,-1,-1,-1,11,-1,-1],"loss_changes":[5.076565E0,1.98504E0,3.9475234E0,1.9525499E0,0E0,0E0,1.9590192E0,0E0,0E0,0E0,1.3712578E0,0E0,0E0],"parents":[2147483647,0,0,1,1,2,2,3,3,6,6,10,10],"right_children":[2,4,6,8,-1,-1,10,-1,-1,-1,12,-1,-1],"split_conditions":[-3.5620967E-1,8.62985E-1,-5.952228E-1,1.266666E0,1.93667E-2,-3.2247864E-2,-1.4383899E0,-5.0029438E-2,1.2799553E-2,-1.8292986E-2,9.1284657E-1,4.9961735E-2,-5.369988E-4],"split_indices":[544,505,512,387,0,0,617,0,0,0,196,0,0],"split_type":[0,0,0,0,0,0,0,0,0,0,0,0,0],"sum_hessian":[1.927949E1,7.9889436E0,1.1290546E1,6.8950152E0,1.0939283E0,2.1408763E0,9.14967E0,5.8159456E0,1.0790694E0,1.0573661E0,8.092304E0,6.4791684E0,1.6131356E0],"tree_param":{"num_deleted":"0","num_feature":"768","num_nodes":"13","size_leaf_vector":"1"}},{"base_weights":[-9.320122E-2,7.467157E-1,-3.7006575E-1,5.016804E-3,4.36305E-2,-5.473194E-1,2.9038686E-2,-4.292167E-2,-8.0897117E-1,1.9822708E-1,-2.9824017E-2,-9.529092E-1,-4.9342574E-3,-5.3859535E-3,3.109378E-2,-8.1973355E-3,-5.2478373E-2],"categories":[],"categories_nodes":[],"categories_segments":[],"categories_sizes":[],"default_left":[0,0,0,0,0,0,0,0,0,0,0,0,0,0,0,0,0],"id":42,"left_children":[1,3,5,-1,-1,7,-1,9,11,13,-1,15,-1,-1,-1,-1,-1],"loss_changes":[5.0167565E0,3.5066104E-1,3.014508E0,0E0,0E0,1.8130574E0,0E0,8.9757264E-1,8.4272814E-1,6.9135815E-1,0E0,4.0012026E-1,0E0,0E0,0E0,0E0,0E0],"parents":[2147483647,0,0,1,1,2,2,5,5,7,7,8,8,9,9,11,11],"right_children":[2,4,6,-1,-1,8,-1,10,12,14,-1,16,-1,-1,-1,-1,-1],"split_conditions":[-6.170042E-1,-7.8552437E-1,8.3946776E-1,5.016804E-3,4.36305E-2,-4.7841105E-1,2.9038686E-2,7.303062E-1,7.7710503E-1,-1.9145383E0,-2.9824017E-2,-3.4693536E-1,-4.9342574E-3,-5.3859535E-3,3.109378E-2,-8.1973355E-3,-5.2478373E-2],"split_indices":[41,403,85,0,0,159,0,218,150,11,0,547,0,0,0,0,0],"split_type":[0,0,0,0,0,0,0,0,0,0,0,0,0,0,0,0,0],"sum_hessian":[1.9385124E1,4.385103E0,1.500002E1,1.0077896E0,3.3773139E0,1.3000816E1,1.9992038E0,4.838147E0,8.162669E0,3.8171656E0,1.0209814E0,6.5032196E0,1.6594493E0,2.6495068E0,1.1676589E0,1.0040361E0,5.4991837E0],"tree_param":{"num_deleted":"0","num_feature":"768","num_nodes":"17","size_leaf_vector":"1"}},{"base_weights":[-3.7510954E-2,-7.699097E-1,2.8104803E-1,-4.4083977E-3,-4.4736322E-2,-4.106131E-1,5.965097E-1,-7.409856E-1,1.9933287E-2,8.390671E-1,-1.7800404E-1,-1.0275737E-2,-4.313616E-2,1.3834791E-2,4.7377557E-2,2.2877537E-2,-3.703567E-2],"categories":[],"categories_nodes":[],"categories_segments":[],"categories_sizes":[],"default_left":[0,0,0,0,0,0,0,0,0,0,0,0,0,0,0,0,0],"id":43,"left_children":[1,3,5,-1,-1,7,9,11,-1,13,15,-1,-1,-1,-1,-1,-1],"loss_changes":[4.483637E0,4.1561604E-1,3.1858585E0,0E0,0E0,1.5825444E0,1.964946E0,6.83496E-2,0E0,1.9748831E-1,1.4582341E0,0E0,0E0,0E0,0E0,0E0,0E0],"parents":[2147483647,0,0,1,1,2,2,5,5,6,6,7,7,9,9,10,10],"right_children":[2,4,6,-1,-1,8,10,12,-1,14,16,-1,-1,-1,-1,-1,-1],"split_conditions":[-4.7744286E-1,-7.68203E-1,-4.596223E-1,-4.4083977E-3,-4.4736322E-2,5.9414315E-1,7.940965E-1,-8.9231946E-2,1.9933287E-2,-1.3046123E0,1.7526616E-1,-1.0275737E-2,-4.313616E-2,1.3834791E-2,4.7377557E-2,2.2877537E-2,-3.703567E-2],"split_indices":[512,299,544,0,0,505,662,590,0,74,302,0,0,0,0,0,0],"split_type":[0,0,0,0,0,0,0,0,0,0,0,0,0,0,0,0,0],"sum_hessian":[1.7289894E1,4.811326E0,1.2478568E1,1.0086297E0,3.8026965E0,3.8141909E0,8.664377E0,2.768423E0,1.0457677E0,6.534573E0,2.129804E0,1.0107504E0,1.7576728E0,1.6308684E0,4.9037046E0,1.087923E0,1.0418808E0],"tree_param":{"num_deleted":"0","num_feature":"768","num_nodes":"17","size_leaf_vector":"1"}},{"base_weights":[-1.6082697E-1,6.657586E-2,-8.147812E-1,4.311617E-1,-4.5937672E-1,-1.0966006E-2,-4.5520615E-2,4.2190284E-2,-1.0425396E-2,-8.609811E-1,1.7890284E-2,-4.8700683E-2,-1.380499E-2],"categories":[],"categories_nodes":[],"categories_segments":[],"categories_sizes":[],"default_left":[0,0,0,0,0,0,0,0,0,0,0,0,0],"id":44,"left_children":[1,3,5,7,9,-1,-1,-1,-1,11,-1,-1,-1],"loss_changes":[2.881568E0,3.080378E0,8.396697E-2,2.655356E0,2.4865284E0,0E0,0E0,0E0,0E0,4.471922E-2,0E0,0E0,0E0],"parents":[2147483647,0,0,1,1,2,2,3,3,4,4,9,9],"right_children":[2,4,6,8,10,-1,-1,-1,-1,12,-1,-1,-1],"split_conditions":[6.4637446E-1,5.2326095E-1,4.3309703E-1,1.1006368E0,2.6237833E-1,-1.0966006E-2,-4.5520615E-2,4.2190284E-2,-1.0425396E-2,2.2620709E-1,1.7890284E-2,-4.8700683E-2,-1.380499E-2],"split_indices":[44,739,152,303,186,0,0,0,0,635,0,0,0],"split_type":[0,0,0,0,0,0,0,0,0,0,0,0,0],"sum_hessian":[1.8012194E1,1.4031236E1,3.980958E0,8.393299E0,5.637936E0,1.006602E0,2.974356E0,4.908045E0,3.485254E0,3.7442346E0,1.8937017E0,2.580262E0,1.1639727E0],"tree_param":{"num_deleted":"0","num_feature":"768","num_nodes":"13","size_leaf_vector":"1"}},{"base_weights":[-8.224286E-2,1.4049345E-1,-4.303424E-2,3.1758833E-1,-3.7062522E-2,-2.6177487E-1,6.0797745E-1,-3.784976E-2,5.242955E-3,8.2881767E-1,-6.638951E-3,4.7392804E-2,3.9898544E-3],"categories":[],"categories_nodes":[],"categories_segments":[],"categories_sizes":[],"default_left":[0,0,0,0,0,0,0,0,0,0,0,0,0],"id":45,"left_children":[1,3,-1,5,-1,7,9,-1,-1,11,-1,-1,-1],"loss_changes":[3.2477188E0,2.5591564E0,0E0,2.3618245E0,0E0,9.9995565E-1,1.585969E0,0E0,0E0,5.5636215E-1,0E0,0E0,0E0],"parents":[2147483647,0,0,1,1,3,3,5,5,6,6,9,9],"right_children":[2,4,-1,6,-1,8,10,-1,-1,12,-1,-1,-1],"split_conditions":[7.3589724E-1,1.1128961E0,-4.303424E-2,-5.814536E-1,-3.7062522E-2,4.9263617E-1,8.001636E-1,-3.784976E-2,5.242955E-3,1.1470134E-1,-6.638951E-3,4.7392804E-2,3.9898544E-3],"split_indices":[370,439,0,395,0,308,447,0,0,612,0,0,0],"split_type":[0,0,0,0,0,0,0,0,0,0,0,0,0],"sum_hessian":[1.7033606E1,1.3881266E1,3.15234E0,1.2092377E1,1.7888894E0,4.0702496E0,8.022127E0,1.2785575E0,2.7916918E0,6.0881877E0,1.9339393E0,5.0242467E0,1.063941E0],"tree_param":{"num_deleted":"0","num_feature":"768","num_nodes":"13","size_leaf_vector":"1"}},{"base_weights":[-4.4373795E-2,1.7278707E-1,-4.2778086E-2,-4.1673437E-1,4.7466257E-1,-4.1441593E-2,1.2742698E-2,-7.729901E-2,4.388738E-2,-3.0543227E-2,9.321177E-3],"categories":[],"categories_nodes":[],"categories_segments":[],"categories_sizes":[],"default_left":[0,0,0,0,0,0,0,0,0,0,0],"id":46,"left_children":[1,3,-1,5,7,-1,-1,9,-1,-1,-1],"loss_changes":[3.4260762E0,2.9583127E0,0E0,1.8124579E0,2.4542804E0,0E0,0E0,8.8021994E-1,0E0,0E0,0E0],"parents":[2147483647,0,0,1,1,3,3,4,4,7,7],"right_children":[2,4,-1,6,8,-1,-1,10,-1,-1,-1],"split_conditions":[7.3589724E-1,-4.596223E-1,-4.2778086E-2,4.0951058E-1,-5.7577693E-1,-4.1441593E-2,1.2742698E-2,2.2152074E-1,4.388738E-2,-3.0543227E-2,9.321177E-3],"split_indices":[370,544,0,59,269,0,0,554,0,0,0],"split_type":[0,0,0,0,0,0,0,0,0,0,0],"sum_hessian":[1.7609665E1,1.4511757E1,3.097907E0,4.785618E0,9.726139E0,2.8206716E0,1.9649465E0,4.4461145E0,5.280024E0,1.0352579E0,3.4108567E0],"tree_param":{"num_deleted":"0","num_feature":"768","num_nodes":"11","size_leaf_vector":"1"}},{"base_weights":[-1.43465E-2,1.9455218E-1,-4.110467E-2,4.0518785E-1,-6.031302E-1,-2.738551E-1,8.289029E-1,-4.075293E-2,-1.7934444E-3,-3.3162236E-2,3.304523E-3,5.197707E-3,4.6188697E-2],"categories":[],"categories_nodes":[],"categories_segments":[],"categories_sizes":[],"default_left":[0,0,0,0,0,0,0,0,0,0,0,0,0],"id":47,"left_children":[1,3,-1,5,7,9,11,-1,-1,-1,-1,-1,-1],"loss_changes":[3.220281E0,2.8014245E0,0E0,3.8631155E0,4.012668E-1,7.861006E-1,4.5625973E-1,0E0,0E0,0E0,0E0,0E0,0E0],"parents":[2147483647,0,0,1,1,3,3,4,4,5,5,6,6],"right_children":[2,4,-1,6,8,10,12,-1,-1,-1,-1,-1,-1],"split_conditions":[6.4637446E-1,1.1748517E0,-4.110467E-2,-8.2363266E-1,6.486247E-1,2.997637E-1,-5.4560393E-1,-4.075293E-2,-1.7934444E-3,-3.3162236E-2,3.304523E-3,5.197707E-3,4.6188697E-2],"split_indices":[44,305,0,269,461,742,428,0,0,0,0,0,0],"split_type":[0,0,0,0,0,0,0,0,0,0,0,0,0],"sum_hessian":[1.713672E1,1.4218651E1,2.9180708E0,1.1637659E1,2.5809915E0,4.607458E0,7.0302005E0,1.5609802E0,1.0200113E0,1.7042722E0,2.903186E0,1.0560702E0,5.9741306E0],"tree_param":{"num_deleted":"0","num_feature":"768","num_nodes":"13","size_leaf_vector":"1"}},{"base_weights":[-2.1404542E-2,-5.704173E-1,4.306725E-1,-8.343781E-1,1.27913235E-2,-2.2563426E-1,6.916358E-1,-4.6582036E-2,-1.0038454E-2,-3.7554275E-2,2.0816745E-2,9.126416E-3,4.373793E-2],"categories":[],"categories_nodes":[],"categories_segments":[],"categories_sizes":[],"default_left":[0,0,0,0,0,0,0,0,0,0,0,0,0],"id":48,"left_children":[1,3,5,7,-1,9,11,-1,-1,-1,-1,-1,-1],"loss_changes":[4.3916793E0,1.9524987E0,1.8226794E0,1.9983435E-1,0E0,1.5009058E0,5.1236534E-1,0E0,0E0,0E0,0E0,0E0,0E0],"parents":[2147483647,0,0,1,1,2,2,3,3,5,5,6,6],"right_children":[2,4,6,8,-1,10,12,-1,-1,-1,-1,-1,-1],"split_conditions":[-1.8351723E-1,1.1465049E0,1.0105937E-1,8.894817E-1,1.27913235E-2,1.7401351E-1,-1.7583541E0,-4.6582036E-2,-1.0038454E-2,-3.7554275E-2,2.0816745E-2,9.126416E-3,4.373793E-2],"split_indices":[482,214,581,168,0,411,66,0,0,0,0,0,0],"split_type":[0,0,0,0,0,0,0,0,0,0,0,0,0],"sum_hessian":[1.5704601E1,6.9737496E0,8.730852E0,5.277801E0,1.6959484E0,2.5224428E0,6.2084093E0,4.1676683E0,1.1101325E0,1.2936335E0,1.2288092E0,2.1705954E0,4.037814E0],"tree_param":{"num_deleted":"0","num_feature":"768","num_nodes":"13","size_leaf_vector":"1"}},{"base_weights":[-1.2496768E-1,2.4553747E-1,-6.3284194E-1,5.702741E-1,-5.884222E-1,4.1405624E-3,-3.9914284E-2,-1.7822398E-2,7.893706E-1,-3.9638717E-2,-2.1084032E-3,4.6121772E-2,-2.061087E-4],"categories":[],"categories_nodes":[],"categories_segments":[],"categories_sizes":[],"default_left":[0,0,0,0,0,0,0,0,0,0,0,0,0],"id":49,"left_children":[1,3,5,7,9,-1,-1,-1,11,-1,-1,-1,-1],"loss_changes":[3.464069E0,3.283986E0,9.773557E-1,1.9754939E0,3.621137E-1,0E0,0E0,0E0,7.491741E-1,0E0,0E0,0E0,0E0],"parents":[2147483647,0,0,1,1,2,2,3,3,4,4,8,8],"right_children":[2,4,6,8,10,-1,-1,-1,12,-1,-1,-1,-1],"split_conditions":[1.1474587E-1,1.1748517E0,1.5048595E-1,-1.1964052E0,7.6108897E-1,4.1405624E-3,-3.9914284E-2,-1.7822398E-2,1.086756E0,-3.9638717E-2,-2.1084032E-3,4.6121772E-2,-2.061087E-4],"split_indices":[663,305,507,355,697,0,0,0,578,0,0,0,0],"split_type":[0,0,0,0,0,0,0,0,0,0,0,0,0],"sum_hessian":[1.6583473E1,9.887135E0,6.6963377E0,7.343734E0,2.5434012E0,1.3511562E0,5.3451815E0,1.2843523E0,6.0593815E0,1.5225334E0,1.0208678E0,5.0500183E0,1.0093632E0],"tree_param":{"num_deleted":"0","num_feature":"768","num_nodes":"13","size_leaf_vector":"1"}},{"base_weights":[-1.3875157E-1,1.7741865E-1,-6.605897E-1,5.245017E-1,-3.9711708E-1,1.1856525E-2,-8.9262885E-1,7.672267E-1,-1.9627513E-2,1.7563368E-3,-3.8291644E-2,-4.8574526E-2,-1.34961605E-2,1.2402686E-3,4.5400765E-2],"categories":[],"categories_nodes":[],"categories_segments":[],"categories_sizes":[],"default_left":[0,0,0,0,0,0,0,0,0,0,0,0,0,0,0],"id":50,"left_children":[1,3,5,7,9,-1,11,13,-1,-1,-1,-1,-1,-1,-1],"loss_changes":[2.9452696E0,2.4939692E0,1.6028965E0,1.987608E0,8.055702E-1,0E0,8.695126E-3,6.3903356E-1,0E0,0E0,0E0,0E0,0E0,0E0,0E0],"parents":[2147483647,0,0,1,1,2,2,3,3,4,4,6,6,7,7],"right_children":[2,4,6,8,10,-1,12,14,-1,-1,-1,-1,-1,-1,-1],"split_conditions":[4.2179185E-1,2.4071452E-1,-1.205817E0,1.066191E0,-4.1748202E-1,1.1856525E-2,4.5412588E-1,-4.4487187E-1,-1.9627513E-2,1.7563368E-3,-3.8291644E-2,-4.8574526E-2,-1.34961605E-2,1.2402686E-3,4.5400765E-2],"split_indices":[647,349,7,42,75,0,390,100,0,0,0,0,0,0,0],"split_type":[0,0,0,0,0,0,0,0,0,0,0,0,0,0,0],"sum_hessian":[1.6140882E1,1.0462124E1,5.678758E0,6.576361E0,3.8857625E0,1.1618428E0,4.5169153E0,5.329206E0,1.2471553E0,2.2052684E0,1.6804938E0,3.5120277E0,1.0048875E0,1.0369961E0,4.2922096E0],"tree_param":{"num_deleted":"0","num_feature":"768","num_nodes":"15","size_leaf_vector":"1"}},{"base_weights":[-3.8686782E-2,1.6654319E-1,-4.0948253E-2,-3.0510796E-2,3.4475496E-1,6.530437E-1,-2.8126904E-1,8.6155635E-1,-3.056538E-3,-3.4471486E-2,4.570684E-3,1.14701195E-2,4.6735156E-2],"categories":[],"categories_nodes":[],"categories_segments":[],"categories_sizes":[],"default_left":[0,0,0,0,0,0,0,0,0,0,0,0,0],"id":51,"left_children":[1,3,-1,-1,5,7,9,11,-1,-1,-1,-1,-1],"loss_changes":[2.8949714E0,2.2134318E0,0E0,0E0,2.5785165E0,1.3356171E0,7.9216504E-1,9.69882E-2,0E0,0E0,0E0,0E0,0E0],"parents":[2147483647,0,0,1,1,4,4,5,5,6,6,7,7],"right_children":[2,4,-1,-1,6,8,10,12,-1,-1,-1,-1,-1],"split_conditions":[7.3589724E-1,-7.386788E-1,-4.0948253E-2,-3.0510796E-2,4.8720762E-1,6.961768E-1,1.0157704E0,-1.8071121E-1,-3.056538E-3,-3.4471486E-2,4.570684E-3,1.14701195E-2,4.6735156E-2],"split_indices":[370,289,0,0,762,684,457,313,0,0,0,0,0],"split_type":[0,0,0,0,0,0,0,0,0,0,0,0,0],"sum_hessian":[1.6226421E1,1.3470064E1,2.7563574E0,2.0613403E0,1.1408724E1,7.615347E0,3.7933772E0,5.734668E0,1.8806789E0,1.4048645E0,2.3885126E0,1.023707E0,4.710961E0],"tree_param":{"num_deleted":"0","num_feature":"768","num_nodes":"13","size_leaf_vector":"1"}},{"base_weights":[3.3148427E-2,3.6139053E-1,-6.747113E-1,5.159736E-1,-2.4684977E-2,-4.2539265E-2,8.8730175E-4,8.338883E-1,-2.0378638E-2,1.1069799E-2,4.550158E-2,1.211715E-2,-2.5026336E-2],"categories":[],"categories_nodes":[],"categories_segments":[],"categories_sizes":[],"default_left":[0,0,0,0,0,0,0,0,0,0,0,0,0],"id":52,"left_children":[1,3,5,7,-1,-1,-1,9,11,-1,-1,-1,-1],"loss_changes":[3.896947E0,1.7606558E0,6.649227E-1,1.7455745E0,0E0,0E0,0E0,9.647179E-2,7.203366E-1,0E0,0E0,0E0,0E0],"parents":[2147483647,0,0,1,1,2,2,3,3,7,7,8,8],"right_children":[2,4,6,8,-1,-1,-1,10,12,-1,-1,-1,-1],"split_conditions":[5.9934676E-1,6.82228E-1,4.5079353E-1,2.0404616E-1,-2.4684977E-2,-4.2539265E-2,8.8730175E-4,-5.465533E-1,4.0434262E-1,1.1069799E-2,4.550158E-2,1.211715E-2,-2.5026336E-2],"split_indices":[623,647,362,349,0,0,0,403,22,0,0,0,0],"split_type":[0,0,0,0,0,0,0,0,0,0,0,0,0],"sum_hessian":[1.4722501E1,1.0392737E1,4.3297634E0,9.137455E0,1.2552823E0,3.2697134E0,1.06005E0,5.388665E0,3.74879E0,1.0279019E0,4.3607635E0,2.7431183E0,1.0056717E0],"tree_param":{"num_deleted":"0","num_feature":"768","num_nodes":"13","size_leaf_vector":"1"}},{"base_weights":[-2.349567E-2,2.5519988E-1,-3.9761048E-2,-4.133136E-1,4.9758035E-1,-3.4849893E-2,9.531393E-3,7.608876E-1,-3.560732E-2,-1.0676263E-3,4.5519024E-2,1.1830013E-2,-2.1672478E-2],"categories":[],"categories_nodes":[],"categories_segments":[],"categories_sizes":[],"default_left":[0,0,0,0,0,0,0,0,0,0,0,0,0],"id":53,"left_children":[1,3,-1,5,7,-1,-1,9,11,-1,-1,-1,-1],"loss_changes":[3.5791109E0,2.1970217E0,0E0,7.8673357E-1,1.3570712E0,0E0,0E0,7.6624846E-1,5.451591E-1,0E0,0E0,0E0,0E0],"parents":[2147483647,0,0,1,1,3,3,4,4,7,7,8,8],"right_children":[2,4,-1,6,8,-1,-1,10,12,-1,-1,-1,-1],"split_conditions":[7.7663666E-1,-8.2565445E-1,-3.9761048E-2,6.2541497E-1,5.4923075E-1,-3.4849893E-2,9.531393E-3,-5.9838957E-1,-1.2330185E0,-1.0676263E-3,4.5519024E-2,1.1830013E-2,-2.1672478E-2],"split_indices":[287,616,0,517,12,0,0,6,36,0,0,0,0],"split_type":[0,0,0,0,0,0,0,0,0,0,0,0,0],"sum_hessian":[1.469754E1,1.128975E1,3.4077897E0,2.8164442E0,8.473306E0,1.8114742E0,1.0049701E0,5.386302E0,3.087004E0,1.0017395E0,4.3845625E0,2.0735512E0,1.0134529E0],"tree_param":{"num_deleted":"0","num_feature":"768","num_nodes":"13","size_leaf_vector":"1"}},{"base_weights":[-3.4527387E-2,2.9300433E-1,-5.850943E-1,-4.9893972E-1,5.679444E-1,1.4041368E-3,-4.196654E-2,-3.506417E-2,-1.2917406E-3,7.5316674E-1,-1.8238675E-2,4.3269925E-2,1.4735361E-3],"categories":[],"categories_nodes":[],"categories_segments":[],"categories_sizes":[],"default_left":[0,0,0,0,0,0,0,0,0,0,0,0,0],"id":54,"left_children":[1,3,5,7,9,-1,-1,-1,-1,11,-1,-1,-1],"loss_changes":[2.9840746E0,2.5578172E0,9.825413E-1,2.9054123E-1,1.6950941E0,0E0,0E0,0E0,0E0,5.5813026E-1,0E0,0E0,0E0],"parents":[2147483647,0,0,1,1,2,2,3,3,4,4,9,9],"right_children":[2,4,6,8,10,-1,-1,-1,-1,12,-1,-1,-1],"split_conditions":[3.677289E-1,-5.9852105E-1,-3.1765983E-1,-1.6652407E-1,1.0726905E0,1.4041368E-3,-4.196654E-2,-3.506417E-2,-1.2917406E-3,7.503476E-1,-1.8238675E-2,4.3269925E-2,1.4735361E-3],"split_indices":[756,403,713,202,751,0,0,0,0,716,0,0,0],"split_type":[0,0,0,0,0,0,0,0,0,0,0,0,0],"sum_hessian":[1.4597344E1,9.445838E0,5.151507E0,2.2242713E0,7.221566E0,1.7706144E0,3.3808923E0,1.2201306E0,1.0041409E0,6.1856933E0,1.0358729E0,5.185686E0,1.0000072E0],"tree_param":{"num_deleted":"0","num_feature":"768","num_nodes":"13","size_leaf_vector":"1"}},{"base_weights":[-9.6674226E-2,-6.2132996E-1,1.8675496E-1,-4.3377247E-2,1.1415589E-2,-3.279286E-2,3.4744862E-1,-2.22169E-2,5.9115654E-1,9.782233E-4,4.027632E-2],"categories":[],"categories_nodes":[],"categories_segments":[],"categories_sizes":[],"default_left":[0,0,0,0,0,0,0,0,0,0,0],"id":55,"left_children":[1,3,5,-1,-1,-1,7,-1,9,-1,-1],"loss_changes":[2.3863554E0,1.3666434E0,1.6741695E0,0E0,0E0,0E0,2.119833E0,0E0,9.385607E-1,0E0,0E0],"parents":[2147483647,0,0,1,1,2,2,6,6,8,8],"right_children":[2,4,6,-1,-1,-1,8,-1,10,-1,-1],"split_conditions":[-2.5836253E-1,9.848641E-1,-1.2052256E0,-4.3377247E-2,1.1415589E-2,-3.279286E-2,-8.3148146E-1,-2.22169E-2,-9.013175E-1,9.782233E-4,4.027632E-2],"split_indices":[54,387,171,0,0,0,633,0,614,0,0],"split_type":[0,0,0,0,0,0,0,0,0,0,0],"sum_hessian":[1.4267498E1,4.586058E0,9.681439E0,3.539334E0,1.0467241E0,1.0570881E0,8.6243515E0,1.8360238E0,6.7883277E0,2.149146E0,4.6391816E0],"tree_param":{"num_deleted":"0","num_feature":"768","num_nodes":"11","size_leaf_vector":"1"}},{"base_weights":[-1.3770062E-1,3.5156247E-1,-4.5418113E-1,3.5801146E-2,-2.1794885E-2,-8.0347264E-1,1.3080831E-1,7.0062703E-3,-1.2157722E-2,-4.6652097E-2,-6.768218E-3,2.525021E-2,-2.4348794E-2],"categories":[],"categories_nodes":[],"categories_segments":[],"categories_sizes":[],"default_left":[0,0,0,0,0,0,0,0,0,0,0,0,0],"id":56,"left_children":[1,3,5,-1,7,9,11,-1,-1,-1,-1,-1,-1],"loss_changes":[2.2645118E0,8.188395E-1,1.8808511E0,0E0,1.7336833E-1,3.5686707E-1,1.1958209E0,0E0,0E0,0E0,0E0,0E0,0E0],"parents":[2147483647,0,0,1,1,2,2,4,4,5,5,6,6],"right_children":[2,4,6,-1,8,10,12,-1,-1,-1,-1,-1,-1],"split_conditions":[-4.3941098E-1,-2.1553071E-1,2.8218967E-1,3.5801146E-2,-1.205464E0,7.915548E-1,5.45939E-1,7.0062703E-3,-1.2157722E-2,-4.6652097E-2,-6.768218E-3,2.525021E-2,-2.4348794E-2],"split_indices":[189,261,85,0,583,186,518,0,0,0,0,0,0],"split_type":[0,0,0,0,0,0,0,0,0,0,0,0,0],"sum_hessian":[1.2593441E1,4.9029202E0,7.6905203E0,2.0165896E0,2.8863306E0,4.5814805E0,3.10904E0,1.8789171E0,1.0074136E0,3.505165E0,1.0763153E0,2.049936E0,1.059104E0],"tree_param":{"num_deleted":"0","num_feature":"768","num_nodes":"13","size_leaf_vector":"1"}},{"base_weights":[-1.5941788E-1,1.0900327E-1,-3.6994796E-2,3.4651825E-1,-5.439941E-1,6.2801206E-1,-2.5260976E-2,-3.8246483E-2,-1.2183533E-4,8.147143E-1,-1.266519E-2,9.454758E-3,4.4871815E-2],"categories":[],"categories_nodes":[],"categories_segments":[],"categories_sizes":[],"default_left":[0,0,0,0,0,0,0,0,0,0,0,0,0],"id":57,"left_children":[1,3,-1,5,7,9,-1,-1,-1,11,-1,-1,-1],"loss_changes":[2.5573018E0,2.0094395E0,0E0,2.5278835E0,4.1936815E-1,1.4199879E0,0E0,0E0,0E0,1.5755415E-1,0E0,0E0,0E0],"parents":[2147483647,0,0,1,1,3,3,4,4,5,5,9,9],"right_children":[2,4,-1,6,8,10,-1,-1,-1,12,-1,-1,-1],"split_conditions":[5.909704E-1,1.1748517E0,-3.6994796E-2,1.0862938E0,2.394504E-2,8.6217296E-1,-2.5260976E-2,-3.8246483E-2,-1.2183533E-4,-7.9986763E-1,-1.266519E-2,9.454758E-3,4.4871815E-2],"split_indices":[747,305,0,228,569,742,0,0,0,240,0,0,0],"split_type":[0,0,0,0,0,0,0,0,0,0,0,0,0],"sum_hessian":[1.4895062E1,1.0740652E1,4.15441E0,8.220096E0,2.5205562E0,6.3756537E0,1.8444424E0,1.4972645E0,1.0232918E0,5.323473E0,1.0521804E0,1.0054266E0,4.3180466E0],"tree_param":{"num_deleted":"0","num_feature":"768","num_nodes":"13","size_leaf_vector":"1"}},{"base_weights":[-1.5581678E-1,1.7977038E-1,-5.297814E-1,-1.862887E-1,3.3350613E-2,-4.105063E-2,-3.3510048E-3,3.0355727E-2,-5.281748E-1,3.7181329E-3,-3.875927E-2],"categories":[],"categories_nodes":[],"categories_segments":[],"categories_sizes":[],"default_left":[0,0,0,0,0,0,0,0,0,0,0],"id":58,"left_children":[1,3,5,7,-1,-1,-1,-1,9,-1,-1],"loss_changes":[1.9136796E0,1.6195164E0,9.027114E-1,1.8311876E0,0E0,0E0,0E0,0E0,7.164501E-1,0E0,0E0],"parents":[2147483647,0,0,1,1,2,2,3,3,8,8],"right_children":[2,4,6,8,-1,-1,-1,-1,10,-1,-1],"split_conditions":[1.1474587E-1,-4.015712E-1,1.016939E0,-7.093159E-1,3.3350613E-2,-4.105063E-2,-3.3510048E-3,3.0355727E-2,-3.097357E-1,3.7181329E-3,-3.875927E-2],"split_indices":[663,301,136,53,0,0,0,0,713,0,0],"split_type":[0,0,0,0,0,0,0,0,0,0,0],"sum_hessian":[1.3489829E1,7.383412E0,6.106417E0,4.5686817E0,2.8147302E0,3.2726614E0,2.8337555E0,1.1422114E0,3.4264703E0,1.1994873E0,2.226983E0],"tree_param":{"num_deleted":"0","num_feature":"768","num_nodes":"11","size_leaf_vector":"1"}},{"base_weights":[-4.6638407E-2,-6.1683226E-1,1.9442254E-1,-3.9602622E-2,1.0492959E-3,-3.5759413E-1,4.214405E-1,-3.1826466E-2,1.1564063E-2,3.94741E-2,-3.907437E-2,-2.8871438E-2,1.257733E-2],"categories":[],"categories_nodes":[],"categories_segments":[],"categories_sizes":[],"default_left":[0,0,0,0,0,0,0,0,0,0,0,0,0],"id":59,"left_children":[1,3,5,-1,-1,7,9,-1,-1,-1,11,-1,-1],"loss_changes":[2.299055E0,5.698885E-1,1.6423938E0,0E0,0E0,8.058427E-1,1.5382053E0,0E0,0E0,0E0,9.1241014E-1,0E0,0E0],"parents":[2147483647,0,0,1,1,2,2,5,5,6,6,10,10],"right_children":[2,4,6,-1,-1,8,10,-1,-1,-1,12,-1,-1],"split_conditions":[-4.7744286E-1,9.4459385E-2,-4.596223E-1,-3.9602622E-2,1.0492959E-3,5.9414315E-1,8.0234253E-1,-3.1826466E-2,1.1564063E-2,3.94741E-2,9.705801E-2,-2.8871438E-2,1.257733E-2],"split_indices":[512,225,544,0,0,505,572,0,0,0,167,0,0],"split_type":[0,0,0,0,0,0,0,0,0,0,0,0,0],"sum_hessian":[1.4853808E1,3.950549E0,1.0903259E1,2.9094539E0,1.0410951E0,3.0096989E0,7.8935604E0,1.9873964E0,1.0223024E0,3.9902353E0,3.9033253E0,1.0224434E0,2.8808818E0],"tree_param":{"num_deleted":"0","num_feature":"768","num_nodes":"13","size_leaf_vector":"1"}},{"base_weights":[-8.694765E-2,1.4677423E-1,-6.895139E-1,3.343988E-1,-2.6583334E-2,-9.188425E-3,-3.9282534E-2,7.071247E-1,-1.3360533E-2,-3.305962E-3,4.3499332E-2],"categories":[],"categories_nodes":[],"categories_segments":[],"categories_sizes":[],"default_left":[0,0,0,0,0,0,0,0,0,0,0],"id":60,"left_children":[1,3,5,7,-1,-1,-1,9,-1,-1,-1],"loss_changes":[2.2054434E0,1.653123E0,6.7183495E-2,2.362496E0,0E0,0E0,0E0,8.457732E-1,0E0,0E0,0E0],"parents":[2147483647,0,0,1,1,2,2,3,3,7,7],"right_children":[2,4,6,8,-1,-1,-1,10,-1,-1,-1],"split_conditions":[4.3102142E-1,1.1748517E0,6.3053983E-1,5.234603E-1,-2.6583334E-2,-9.188425E-3,-3.9282534E-2,-6.747346E-1,-1.3360533E-2,-3.305962E-3,4.3499332E-2],"split_indices":[349,305,335,747,0,0,0,84,0,0,0],"split_type":[0,0,0,0,0,0,0,0,0,0,0],"sum_hessian":[1.3941397E1,1.0590138E1,3.3512578E0,8.693136E0,1.8970021E0,1.0003357E0,2.350922E0,5.259337E0,3.4337997E0,1.0183553E0,4.2409816E0],"tree_param":{"num_deleted":"0","num_feature":"768","num_nodes":"11","size_leaf_vector":"1"}},{"base_weights":[-8.503444E-2,2.0016545E-1,-4.9172568E-1,6.2297285E-1,-2.5509444E-1,8.009258E-3,-7.417106E-1,-1.3036135E-3,4.1196346E-2,1.7161068E-3,-2.9910892E-2,-1.1055317E-2,-4.1041426E-2],"categories":[],"categories_nodes":[],"categories_segments":[],"categories_sizes":[],"default_left":[0,0,0,0,0,0,0,0,0,0,0,0,0],"id":61,"left_children":[1,3,5,7,9,-1,11,-1,-1,-1,-1,-1,-1],"loss_changes":[1.8642108E0,2.0181904E0,1.1886315E0,7.125709E-1,5.528685E-1,0E0,2.126956E-2,0E0,0E0,0E0,0E0,0E0,0E0],"parents":[2147483647,0,0,1,1,2,2,3,3,4,4,6,6],"right_children":[2,4,6,8,10,-1,12,-1,-1,-1,-1,-1,-1],"split_conditions":[1.6740566E-1,4.3928286E-1,-1.1210657E-1,-7.8492385E-1,-1.2191178E0,8.009258E-3,-1.237824E-1,-1.3036135E-3,4.1196346E-2,1.7161068E-3,-2.9910892E-2,-1.1055317E-2,-4.1041426E-2],"split_indices":[756,552,645,142,110,0,194,0,0,0,0,0,0],"split_type":[0,0,0,0,0,0,0,0,0,0,0,0,0],"sum_hessian":[1.4223814E1,8.659204E0,5.56461E0,4.2986174E0,4.360586E0,1.6419507E0,3.9226594E0,1.2220086E0,3.0766084E0,2.8536072E0,1.5069792E0,1.0180995E0,2.9045599E0],"tree_param":{"num_deleted":"0","num_feature":"768","num_nodes":"13","size_leaf_vector":"1"}},{"base_weights":[-7.0687704E-2,2.0097244E-1,-4.736559E-1,-2.5017653E-2,3.971147E-1,-3.760993E-2,8.141514E-3,-6.2014025E-2,4.109064E-2,1.2998073E-2,-2.947908E-2],"categories":[],"categories_nodes":[],"categories_segments":[],"categories_sizes":[],"default_left":[0,0,0,0,0,0,0,0,0,0,0],"id":62,"left_children":[1,3,5,-1,7,-1,-1,9,-1,-1,-1],"loss_changes":[1.6280923E0,1.4458511E0,1.1749716E0,0E0,1.5411556E0,0E0,0E0,9.350079E-1,0E0,0E0,0E0],"parents":[2147483647,0,0,1,1,2,2,4,4,7,7],"right_children":[2,4,6,-1,8,-1,-1,10,-1,-1,-1],"split_conditions":[4.2179185E-1,-1.1267929E0,6.587501E-1,-2.5017653E-2,-2.2620988E-1,-3.760993E-2,8.141514E-3,4.3445307E-1,4.109064E-2,1.2998073E-2,-2.947908E-2],"split_indices":[647,701,26,0,535,0,0,739,0,0,0],"split_type":[0,0,0,0,0,0,0,0,0,0,0],"sum_hessian":[1.3002878E1,8.066281E0,4.9365964E0,1.4239262E0,6.6423554E0,3.3073962E0,1.6292001E0,3.6021535E0,3.0402017E0,2.551943E0,1.0502105E0],"tree_param":{"num_deleted":"0","num_feature":"768","num_nodes":"11","size_leaf_vector":"1"}},{"base_weights":[-3.731141E-2,2.9944432E-1,-4.7400907E-1,-3.0742466E-2,5.2711827E-1,1.7286027E-3,-7.1447664E-1,-5.5594905E-3,7.130551E-1,-4.0264614E-2,-1.1178317E-2,4.20042E-2,4.957759E-3],"categories":[],"categories_nodes":[],"categories_segments":[],"categories_sizes":[],"default_left":[0,0,0,0,0,0,0,0,0,0,0,0,0],"id":63,"left_children":[1,3,5,-1,7,-1,9,-1,11,-1,-1,-1,-1],"loss_changes":[2.1018631E0,2.0180206E0,7.8169274E-1,0E0,9.164392E-1,0E0,9.386301E-3,0E0,3.5319662E-1,0E0,0E0,0E0,0E0],"parents":[2147483647,0,0,1,1,2,2,4,4,6,6,8,8],"right_children":[2,4,6,-1,8,-1,10,-1,12,-1,-1,-1,-1],"split_conditions":[7.845338E-2,-1.235492E0,-6.777199E-1,-3.0742466E-2,-3.2361406E-1,1.7286027E-3,7.052822E-2,-5.5594905E-3,2.776106E-1,-4.0264614E-2,-1.1178317E-2,4.20042E-2,4.957759E-3],"split_indices":[747,633,189,0,87,0,24,0,315,0,0,0,0],"split_type":[0,0,0,0,0,0,0,0,0,0,0,0,0],"sum_hessian":[1.2327334E1,7.1375623E0,5.189772E0,1.0839727E0,6.0535893E0,1.9409517E0,3.2488205E0,1.4562807E0,4.5973086E0,2.201204E0,1.0476166E0,3.5038495E0,1.093459E0],"tree_param":{"num_deleted":"0","num_feature":"768","num_nodes":"13","size_leaf_vector":"1"}},{"base_weights":[-1.2750305E-1,-2.9121614E-1,3.3726905E-2,-5.2170265E-1,2.764351E-1,-7.54931E-1,-7.391832E-2,3.2304402E-2,-2.1877227E-2,-4.3623324E-2,-6.6106603E-3,-1.8393997E-2,1.8831035E-2],"categories":[],"categories_nodes":[],"categories_segments":[],"categories_sizes":[],"default_left":[0,0,0,0,0,0,0,0,0,0,0,0,0],"id":64,"left_children":[1,3,-1,5,7,9,11,-1,-1,-1,-1,-1,-1],"loss_changes":[2.00257E0,1.730207E0,0E0,8.807514E-1,1.3790983E0,3.082795E-1,6.921218E-1,0E0,0E0,0E0,0E0,0E0,0E0],"parents":[2147483647,0,0,1,1,3,3,4,4,5,5,6,6],"right_children":[2,4,-1,6,8,10,12,-1,-1,-1,-1,-1,-1],"split_conditions":[8.4077173E-1,6.228403E-1,3.3726905E-2,-3.5812058E-3,7.1286345E-1,6.5556496E-1,-8.479127E-1,3.2304402E-2,-2.1877227E-2,-4.3623324E-2,-6.6106603E-3,-1.8393997E-2,1.8831035E-2],"split_indices":[505,17,0,54,348,264,269,0,0,0,0,0,0],"split_type":[0,0,0,0,0,0,0,0,0,0,0,0,0],"sum_hessian":[1.2755291E1,1.1121974E1,1.6333172E0,7.967736E0,3.1542382E0,4.7879887E0,3.1797473E0,2.1409042E0,1.013334E0,3.6903818E0,1.0976069E0,2.0352693E0,1.144478E0],"tree_param":{"num_deleted":"0","num_feature":"768","num_nodes":"13","size_leaf_vector":"1"}},{"base_weights":[-2.2000782E-2,2.2798415E-1,-5.4942816E-1,3.8992596E-1,-2.7638478E-2,-3.750405E-2,3.183598E-4,5.8879745E-1,-1.8728739E-2,4.0308334E-2,8.572565E-4],"categories":[],"categories_nodes":[],"categories_segments":[],"categories_sizes":[],"default_left":[0,0,0,0,0,0,0,0,0,0,0],"id":65,"left_children":[1,3,5,7,-1,-1,-1,9,-1,-1,-1],"loss_changes":[1.9115742E0,1.4670558E0,5.233325E-1,1.5560961E0,0E0,0E0,0E0,9.0070176E-1,0E0,0E0,0E0],"parents":[2147483647,0,0,1,1,2,2,3,3,7,7],"right_children":[2,4,6,8,-1,-1,-1,10,-1,-1,-1],"split_conditions":[4.3102142E-1,7.780413E-1,1.2352417E0,6.346233E-1,-2.7638478E-2,-3.750405E-2,3.183598E-4,1.218494E0,-1.8728739E-2,4.0308334E-2,8.572565E-4],"split_indices":[349,518,168,550,0,0,0,685,0,0,0],"split_type":[0,0,0,0,0,0,0,0,0,0,0],"sum_hessian":[1.2548185E1,8.898367E0,3.6498184E0,7.784338E0,1.1140287E0,2.4248412E0,1.2249774E0,6.3597803E0,1.4245578E0,4.310489E0,2.0492911E0],"tree_param":{"num_deleted":"0","num_feature":"768","num_nodes":"11","size_leaf_vector":"1"}},{"base_weights":[-1.3390605E-1,2.6425657E-1,-6.5040374E-1,5.361488E-1,-2.4628052E-2,-4.1100085E-2,7.233609E-4,-2.7062565E-3,3.8006958E-2],"categories":[],"categories_nodes":[],"categories_segments":[],"categories_sizes":[],"default_left":[0,0,0,0,0,0,0,0,0],"id":66,"left_children":[1,3,5,7,-1,-1,-1,-1,-1],"loss_changes":[2.6948273E0,1.8359406E0,6.5415335E-1,8.474784E-1,0E0,0E0,0E0,0E0,0E0],"parents":[2147483647,0,0,1,1,2,2,3,3],"right_children":[2,4,6,8,-1,-1,-1,-1,-1],"split_conditions":[2.116152E-1,6.7749685E-1,9.9288356E-1,5.3503666E-2,-2.4628052E-2,-4.1100085E-2,7.233609E-4,-2.7062565E-3,3.8006958E-2],"split_indices":[148,518,483,492,0,0,0,0,0],"split_type":[0,0,0,0,0,0,0,0,0],"sum_hessian":[1.1268189E1,6.638787E0,4.629402E0,5.0986385E0,1.5401483E0,3.4918504E0,1.1375517E0,1.6111617E0,3.487477E0],"tree_param":{"num_deleted":"0","num_feature":"768","num_nodes":"9","size_leaf_vector":"1"}},{"base_weights":[5.6501534E-3,-2.979149E-1,5.904723E-1,-5.771509E-1,2.7294484E-1,5.314138E-3,3.4324225E-2,-7.335581E-1,7.291328E-5,3.339057E-2,-1.8913632E-2,-4.8895474E-3,-4.3975722E-2],"categories":[],"categories_nodes":[],"categories_segments":[],"categories_sizes":[],"default_left":[0,0,0,0,0,0,0,0,0,0,0,0,0],"id":67,"left_children":[1,3,5,7,9,-1,-1,11,-1,-1,-1,-1,-1],"loss_changes":[2.5864038E0,1.6882756E0,1.5831387E-1,6.13714E-1,1.2383105E0,0E0,0E0,4.0868616E-1,0E0,0E0,0E0,0E0,0E0],"parents":[2147483647,0,0,1,1,2,2,3,3,4,4,7,7],"right_children":[2,4,6,8,10,-1,-1,12,-1,-1,-1,-1,-1],"split_conditions":[4.409957E-1,6.228403E-1,7.9175276E-1,2.5471243E-1,6.978176E-1,5.314138E-3,3.4324225E-2,3.4278876E-1,7.291328E-5,3.339057E-2,-1.8913632E-2,-4.8895474E-3,-4.3975722E-2],"split_indices":[376,17,373,491,348,0,0,647,0,0,0,0,0],"split_type":[0,0,0,0,0,0,0,0,0,0,0,0,0],"sum_hessian":[1.2577831E1,8.602894E0,3.9749367E0,5.76965E0,2.8332443E0,1.0064384E0,2.9684985E0,4.331092E0,1.438558E0,1.7479135E0,1.0853308E0,1.1204702E0,3.2106218E0],"tree_param":{"num_deleted":"0","num_feature":"768","num_nodes":"13","size_leaf_vector":"1"}},{"base_weights":[-3.7966864E-4,-5.668739E-1,2.3954527E-1,-3.3731887E-3,-3.5339896E-2,-4.035642E-1,4.781135E-1,-3.2651436E-2,3.7196707E-3,6.390449E-1,-1.4209214E-2,4.2229325E-2,7.973284E-3],"categories":[],"categories_nodes":[],"categories_segments":[],"categories_sizes":[],"default_left":[0,0,0,0,0,0,0,0,0,0,0,0,0],"id":68,"left_children":[1,3,5,-1,-1,7,9,-1,-1,11,-1,-1,-1],"loss_changes":[1.9465942E0,2.5006437E-1,1.7367272E0,0E0,0E0,4.3786824E-1,1.1381422E0,0E0,0E0,5.302763E-1,0E0,0E0,0E0],"parents":[2147483647,0,0,1,1,2,2,5,5,6,6,9,9],"right_children":[2,4,6,-1,-1,8,10,-1,-1,12,-1,-1,-1],"split_conditions":[-4.7744286E-1,-1.914334E-1,-4.596223E-1,-3.3731887E-3,-3.5339896E-2,-6.1128336E-1,9.570563E-1,-3.2651436E-2,3.7196707E-3,9.1284657E-1,-1.4209214E-2,4.2229325E-2,7.973284E-3],"split_indices":[512,756,544,0,0,534,572,0,0,196,0,0,0],"split_type":[0,0,0,0,0,0,0,0,0,0,0,0,0],"sum_hessian":[1.2322942E1,3.2608752E0,9.062067E0,1.0380526E0,2.2228227E0,2.2649152E0,6.7971516E0,1.2475045E0,1.0174108E0,5.745818E0,1.0513338E0,3.489264E0,2.256554E0],"tree_param":{"num_deleted":"0","num_feature":"768","num_nodes":"13","size_leaf_vector":"1"}},{"base_weights":[-6.5674536E-2,-3.6350077E-1,2.8403816E-1,3.3641133E-2,-3.8840584E-2,-2.9083428E-1,6.266155E-1,2.2234956E-2,-1.0208918E-2,8.109326E-3,-2.979572E-2,6.788409E-3,3.6839664E-2],"categories":[],"categories_nodes":[],"categories_segments":[],"categories_sizes":[],"default_left":[0,0,0,0,0,0,0,0,0,0,0,0,0],"id":69,"left_children":[1,3,5,7,-1,9,11,-1,-1,-1,-1,-1,-1],"loss_changes":[1.3992352E0,1.2011807E0,1.4198707E0,5.4138625E-1,0E0,5.15361E-1,1.3006687E-1,0E0,0E0,0E0,0E0,0E0,0E0],"parents":[2147483647,0,0,1,1,2,2,3,3,5,5,6,6],"right_children":[2,4,6,8,-1,10,12,-1,-1,-1,-1,-1,-1],"split_conditions":[-3.445452E-1,-6.903192E-1,-7.79954E-1,-2.984496E-1,-3.8840584E-2,-1.9524235E-1,-2.821028E-1,2.2234956E-2,-1.0208918E-2,8.109326E-3,-2.979572E-2,6.788409E-3,3.6839664E-2],"split_indices":[614,283,298,65,0,653,201,0,0,0,0,0,0],"split_type":[0,0,0,0,0,0,0,0,0,0,0,0,0],"sum_hessian":[1.1443034E1,6.158682E0,5.2843523E0,3.6092417E0,2.5494404E0,2.0295851E0,3.2547674E0,1.0039929E0,2.6052487E0,1.0052483E0,1.0243368E0,1.0058633E0,2.248904E0],"tree_param":{"num_deleted":"0","num_feature":"768","num_nodes":"13","size_leaf_vector":"1"}},{"base_weights":[-9.5456086E-2,-4.8404002E-1,2.2555444E-1,-3.7731063E-2,9.16129E-3,3.807584E-1,-1.87543E-2,-2.5978524E-3,3.6950134E-2],"categories":[],"categories_nodes":[],"categories_segments":[],"categories_sizes":[],"default_left":[0,0,0,0,0,0,0,0,0],"id":70,"left_children":[1,3,5,-1,-1,7,-1,-1,-1],"loss_changes":[1.721445E0,1.2513515E0,8.662265E-1,0E0,0E0,1.0712631E0,0E0,0E0,0E0],"parents":[2147483647,0,0,1,1,2,2,5,5],"right_children":[2,4,6,-1,-1,8,-1,-1,-1],"split_conditions":[-1.8351723E-1,1.1465049E0,1.1840422E0,-3.7731063E-2,9.16129E-3,-4.1577843E-1,-1.87543E-2,-2.5978524E-3,3.6950134E-2],"split_indices":[482,214,297,0,0,743,0,0,0],"split_type":[0,0,0,0,0,0,0,0,0],"sum_hessian":[1.1925074E1,5.1649847E0,6.760089E0,3.5816743E0,1.5833106E0,5.662891E0,1.0971977E0,2.9520912E0,2.7107997E0],"tree_param":{"num_deleted":"0","num_feature":"768","num_nodes":"9","size_leaf_vector":"1"}},{"base_weights":[-2.3797303E-1,-5.98985E-1,1.9921935E-1,-3.8288247E-2,8.073525E-3,6.427206E-1,-2.8170003E-2,7.951402E-3,3.7226535E-2],"categories":[],"categories_nodes":[],"categories_segments":[],"categories_sizes":[],"default_left":[0,0,0,0,0,0,0,0,0],"id":71,"left_children":[1,3,5,-1,-1,7,-1,-1,-1],"loss_changes":[1.9795843E0,9.740579E-1,2.4188857E0,0E0,0E0,9.395027E-2,0E0,0E0,0E0],"parents":[2147483647,0,0,1,1,2,2,5,5],"right_children":[2,4,6,-1,-1,8,-1,-1,-1],"split_conditions":[-1.3127044E-1,1.0510619E0,1.1748517E0,-3.8288247E-2,8.073525E-3,-6.3929594E-1,-2.8170003E-2,7.951402E-3,3.7226535E-2],"split_indices":[743,682,305,0,0,325,0,0,0],"split_type":[0,0,0,0,0,0,0,0,0],"sum_hessian":[1.0786319E1,5.705185E0,5.081134E0,4.6732793E0,1.0319057E0,3.3121643E0,1.7689693E0,1.0214299E0,2.2907345E0],"tree_param":{"num_deleted":"0","num_feature":"768","num_nodes":"9","size_leaf_vector":"1"}},{"base_weights":[-8.200662E-2,9.9853866E-2,-3.1804867E-2,-5.1098967E-1,3.795333E-1,-1.1379785E-3,-3.6087554E-2,-2.0304589E-1,4.023918E-2,-1.862423E-2,-1.1933342E-3],"categories":[],"categories_nodes":[],"categories_segments":[],"categories_sizes":[],"default_left":[0,0,0,0,0,0,0,0,0,0,0],"id":72,"left_children":[1,3,-1,5,7,-1,-1,9,-1,-1,-1],"loss_changes":[1.3389114E0,1.9695731E0,0E0,3.6331642E-1,2.071797E0,0E0,0E0,1.1403239E-1,0E0,0E0,0E0],"parents":[2147483647,0,0,1,1,3,3,4,4,7,7],"right_children":[2,4,-1,6,8,-1,-1,10,-1,-1,-1],"split_conditions":[6.4637446E-1,-8.3148146E-1,-3.1804867E-2,1.1453162E0,-8.479127E-1,-1.1379785E-3,-3.6087554E-2,8.046512E-1,4.023918E-2,-1.862423E-2,-1.1933342E-3],"split_indices":[44,633,0,305,269,0,0,13,0,0,0],"split_type":[0,0,0,0,0,0,0,0,0,0,0],"sum_hessian":[1.1656842E1,9.393537E0,2.2633052E0,2.6904066E0,6.7031302E0,1.1453E0,1.5451066E0,3.0488417E0,3.6542885E0,1.0125233E0,2.0363183E0],"tree_param":{"num_deleted":"0","num_feature":"768","num_nodes":"11","size_leaf_vector":"1"}},{"base_weights":[8.336495E-3,-3.0089945E-2,2.4844733E-1,-4.0258682E-1,4.8012915E-1,-4.5253853E-3,-2.5688056E-2,6.486455E-1,-1.44331595E-2,1.3852592E-2,4.0823083E-2],"categories":[],"categories_nodes":[],"categories_segments":[],"categories_sizes":[],"default_left":[0,0,0,0,0,0,0,0,0,0,0],"id":73,"left_children":[1,-1,3,5,7,-1,-1,9,-1,-1,-1],"loss_changes":[1.9187945E0,0E0,1.6072328E0,5.773619E-2,1.1420398E0,0E0,0E0,1.6995788E-1,0E0,0E0,0E0],"parents":[2147483647,0,0,2,2,3,3,4,4,7,7],"right_children":[2,-1,4,6,8,-1,-1,10,-1,-1,-1],"split_conditions":[-4.7744286E-1,-3.0089945E-2,-6.021702E-1,-8.4672946E-1,1.1368016E0,-4.5253853E-3,-2.5688056E-2,-1.3089184E0,-1.44331595E-2,1.3852592E-2,4.0823083E-2],"split_indices":[512,0,125,12,297,0,0,613,0,0,0],"split_type":[0,0,0,0,0,0,0,0,0,0,0],"sum_hessian":[1.1076982E1,2.7027645E0,8.374217E0,2.0043242E0,6.369893E0,1.002972E0,1.0013521E0,5.352849E0,1.017044E0,2.4900596E0,2.8627894E0],"tree_param":{"num_deleted":"0","num_feature":"768","num_nodes":"11","size_leaf_vector":"1"}},{"base_weights":[-5.516247E-2,4.9400812E-1,-2.521779E-1,3.208752E-2,3.5282061E-3,2.059899E-2,-3.8276243E-1,3.1137327E-3,-6.181606E-1,-3.8125288E-2,1.3810255E-3],"categories":[],"categories_nodes":[],"categories_segments":[],"categories_sizes":[],"default_left":[0,0,0,0,0,0,0,0,0,0,0],"id":74,"left_children":[1,3,5,-1,-1,-1,7,-1,9,-1,-1],"loss_changes":[1.4365276E0,1.761502E-1,9.890943E-1,0E0,0E0,0E0,9.320556E-1,0E0,5.4961324E-1,0E0,0E0],"parents":[2147483647,0,0,1,1,2,2,6,6,8,8],"right_children":[2,4,6,-1,-1,-1,8,-1,10,-1,-1],"split_conditions":[-3.7072292E-1,7.133132E-1,-1.2664907E0,3.208752E-2,3.5282061E-3,2.059899E-2,-1.2981594E0,3.1137327E-3,4.208466E-1,-3.8125288E-2,1.3810255E-3],"split_indices":[370,560,348,0,0,0,765,0,376,0,0],"split_type":[0,0,0,0,0,0,0,0,0,0,0],"sum_hessian":[1.1125781E1,2.5395248E0,8.586257E0,1.5004563E0,1.0390683E0,1.0567416E0,7.5295153E0,2.8592842E0,4.670231E0,3.6693158E0,1.0009152E0],"tree_param":{"num_deleted":"0","num_feature":"768","num_nodes":"11","size_leaf_vector":"1"}},{"base_weights":[2.3879446E-2,3.200023E-1,-4.8631868E-1,3.0207096E-2,-9.946151E-2,-3.586357E-2,4.5347135E-4,1.6472464E-2,-2.4607264E-2],"categories":[],"categories_nodes":[],"categories_segments":[],"categories_sizes":[],"default_left":[0,0,0,0,0,0,0,0,0],"id":75,"left_children":[1,3,5,-1,7,-1,-1,-1,-1],"loss_changes":[1.9820789E0,1.0436817E0,5.598731E-1,0E0,8.6806446E-1,0E0,0E0,0E0,0E0],"parents":[2147483647,0,0,1,1,2,2,4,4],"right_children":[2,4,6,-1,8,-1,-1,-1,-1],"split_conditions":[3.677289E-1,-2.4477682E-1,1.510426E-1,3.0207096E-2,-2.4715146E-1,-3.586357E-2,4.5347135E-4,1.6472464E-2,-2.4607264E-2],"split_indices":[756,370,536,0,747,0,0,0,0],"split_type":[0,0,0,0,0,0,0,0,0],"sum_hessian":[1.1089223E1,7.252567E0,3.8366563E0,4.0612526E0,3.1913142E0,2.3112435E0,1.5254127E0,1.6022645E0,1.5890498E0],"tree_param":{"num_deleted":"0","num_feature":"768","num_nodes":"9","size_leaf_vector":"1"}},{"base_weights":[-1.8580121E-1,-5.648443E-1,1.5368561E-1,-1.7514791E-3,-3.347559E-2,5.211617E-1,-2.6634363E-2,-9.50226E-3,3.7867825E-2],"categories":[],"categories_nodes":[],"categories_segments":[],"categories_sizes":[],"default_left":[0,0,0,0,0,0,0,0,0],"id":76,"left_children":[1,3,5,-1,-1,7,-1,-1,-1],"loss_changes":[1.5917267E0,2.9482687E-1,2.031982E0,0E0,0E0,9.898323E-1,0E0,0E0,0E0],"parents":[2147483647,0,0,1,1,2,2,5,5],"right_children":[2,4,6,-1,-1,8,-1,-1,-1],"split_conditions":[-4.1577843E-1,-9.341177E-1,1.1748517E0,-1.7514791E-3,-3.347559E-2,-7.9741144E-1,-2.6634363E-2,-9.50226E-3,3.7867825E-2],"split_indices":[743,434,305,0,0,614,0,0,0],"split_type":[0,0,0,0,0,0,0,0,0],"sum_hessian":[1.0695031E1,4.739489E0,5.955542E0,1.0020252E0,3.737464E0,4.03562E0,1.9199222E0,1.054824E0,2.980796E0],"tree_param":{"num_deleted":"0","num_feature":"768","num_nodes":"9","size_leaf_vector":"1"}},{"base_weights":[-1.3960455E-1,1.7736419E-1,-4.9160904E-1,-2.0192306E-2,4.2965004E-1,-3.5835475E-2,-6.3383407E-3,-3.704771E-2,3.780681E-2,-1.9635566E-2,1.8201059E-2],"categories":[],"categories_nodes":[],"categories_segments":[],"categories_sizes":[],"default_left":[0,0,0,0,0,0,0,0,0,0,0],"id":77,"left_children":[1,3,5,-1,7,-1,-1,9,-1,-1,-1],"loss_changes":[1.4826456E0,1.246242E0,4.1759443E-1,0E0,8.791497E-1,0E0,0E0,6.0691863E-1,0E0,0E0,0E0],"parents":[2147483647,0,0,1,1,2,2,4,4,7,7],"right_children":[2,4,6,-1,8,-1,-1,10,-1,-1,-1],"split_conditions":[2.3066998E-1,-3.7511235E-1,1.0652248E0,-2.0192306E-2,-4.0013567E-1,-3.5835475E-2,-6.3383407E-3,-7.5717054E-2,3.780681E-2,-1.9635566E-2,1.8201059E-2],"split_indices":[148,313,258,0,544,0,0,88,0,0,0],"split_type":[0,0,0,0,0,0,0,0,0,0,0],"sum_hessian":[1.1506915E1,6.3158374E0,5.191078E0,1.7298653E0,4.585972E0,2.6139102E0,2.577168E0,2.2525604E0,2.3334115E0,1.2049032E0,1.0476573E0],"tree_param":{"num_deleted":"0","num_feature":"768","num_nodes":"11","size_leaf_vector":"1"}},{"base_weights":[-2.0475833E-1,3.162309E-1,-3.6615318E-1,2.9224573E-2,-6.6999956E-3,-4.8143774E-1,1.3835274E-2,-6.361271E-1,-3.004423E-3,-4.0315907E-2,2.485044E-3],"categories":[],"categories_nodes":[],"categories_segments":[],"categories_sizes":[],"default_left":[0,0,0,0,0,0,0,0,0,0,0],"id":78,"left_children":[1,3,5,-1,-1,7,-1,9,-1,-1,-1],"loss_changes":[1.0594846E0,4.637314E-1,8.025998E-1,0E0,0E0,4.8474216E-1,0E0,7.1293545E-1,0E0,0E0,0E0],"parents":[2147483647,0,0,1,1,2,2,5,5,7,7],"right_children":[2,4,6,-1,-1,8,-1,10,-1,-1,-1],"split_conditions":[-6.45488E-1,-1.6484018E-1,7.87481E-1,2.9224573E-2,-6.6999956E-3,1.3757313E0,1.3835274E-2,5.2289253E-1,-3.004423E-3,-4.0315907E-2,2.485044E-3],"split_indices":[41,348,85,0,0,64,0,362,0,0,0],"split_type":[0,0,0,0,0,0,0,0,0,0,0],"sum_hessian":[1.0223118E1,2.1910276E0,8.032089E0,1.1861069E0,1.0049207E0,7.0236325E0,1.0084572E0,4.764654E0,2.2589784E0,3.6766038E0,1.0880502E0],"tree_param":{"num_deleted":"0","num_feature":"768","num_nodes":"11","size_leaf_vector":"1"}},{"base_weights":[-1.1195241E-1,2.7809775E-1,-3.9925227E-1,3.1572163E-2,-2.002726E-1,-5.827669E-1,1.1595253E-2,-2.4603399E-2,9.4366055E-3,-3.277288E-2,-5.8228155E-3],"categories":[],"categories_nodes":[],"categories_segments":[],"categories_sizes":[],"default_left":[0,0,0,0,0,0,0,0,0,0,0],"id":79,"left_children":[1,3,5,-1,7,9,-1,-1,-1,-1,-1],"loss_changes":[1.423671E0,1.0658928E0,9.639791E-1,0E0,4.4706142E-1,1.21234536E-1,0E0,0E0,0E0,0E0,0E0],"parents":[2147483647,0,0,1,1,2,2,4,4,5,5],"right_children":[2,4,6,-1,8,10,-1,-1,-1,-1,-1],"split_conditions":[7.1005866E-2,4.4741848E-1,5.1893914E-1,3.1572163E-2,3.7856868E-1,2.8970185E-1,1.1595253E-2,-2.4603399E-2,9.4366055E-3,-3.277288E-2,-5.8228155E-3],"split_indices":[12,618,186,0,231,387,0,0,0,0,0],"split_type":[0,0,0,0,0,0,0,0,0,0,0],"sum_hessian":[1.0713584E1,4.557781E0,6.1558027E0,2.437412E0,2.120369E0,4.8285327E0,1.3272698E0,1.0601794E0,