{"learner":{"attributes":{"scikit_learn":"{\"_estimator_type\": \"classifier\"}"},"feature_names":[],"feature_types":[],"gradient_booster":{"model":{"cats":{"enc":[],"feature_segments":[],"sorted_idx":[]},"gbtree_model_param":{"num_parallel_tree":"1","num_trees":"200"},"iteration_indptr":[0,1,2,3,4,5,6,7,8,9,10,11,12,13,14,15,16,17,18,19,20,21,22,23,24,25,26,27,28,29,30,31,32,33,34,35,36,37,38,39,40,41,42,43,44,45,46,47,48,49,50,51,52,53,54,55,56,57,58,59,60,61,62,63,64,65,66,67,68,69,70,71,72,73,74,75,76,77,78,79,80,81,82,83,84,85,86,87,88,89,90,91,92,93,94,95,96,97,98,99,100,101,102,103,104,105,106,107,108,109,110,111,112,113,114,115,116,117,118,119,120,121,122,123,124,125,126,127,128,129,130,131,132,133,134,135,136,137,138,139,140,141,142,143,144,145,146,147,148,149,150,151,152,153,154,155,156,157,158,159,160,161,162,163,164,165,166,167,168,169,170,171,172,173,174,175,176,177,178,179,180,181,182,183,184,185,186,187,188,189,190,191,192,193,194,195,196,197,198,199,200],"tree_info":[0,0,0,0,0,0,0,0,0,0,0,0,0,0,0,0,0,0,0,0,0,0,0,0,0,0,0,0,0,0,0,0,0,0,0,0,0,0,0,0,0,0,0,0,0,0,0,0,0,0,0,0,0,0,0,0,0,0,0,0,0,0,0,0,0,0,0,0,0,0,0,0,0,0,0,0,0,0,0,0,0,0,0,0,0,0,0,0,0,0,0,0,0,0,0,0,0,0,0,0,0,0,0,0,0,0,0,0,0,0,0,0,0,0,0,0,0,0,0,0,0,0,0,0,0,0,0,0,0,0,0,0,0,0,0,0,0,0,0,0,0,0,0,0,0,0,0,0,0,0,0,0,0,0,0,0,0,0,0,0,0,0,0,0,0,0,0,0,0,0,0,0,0,0,0,0,0,0,0,0,0,0,0,0,0,0,0,0,0,0,0,0,0,0,0,0,0,0,0,0],"trees":[{"base_weights":[-0E0,7.0379746E-1,-1.7411274E0,-5.346535E-1,1.0897155E0,-1.811236E-1,-4.2424243E-2,-1.3246754E-1,2.320442E-1,-5.4545456E-1,1.6715542E0,-3.529412E-2,1.16883114E-1,1.03999995E-1,-1.2653061E0,1.85E0,-5.945946E-2,-1.0526316E-2,-1.5789475E-1,5.2307695E-2,1.8945634E-1],"categories":[],"categories_nodes":[],"categories_segments":[],"categories_sizes":[],"default_left":[0,0,0,0,0,0,0,0,0,0,0,0,0,0,0,0,0,0,0,0,0],"id":0,"left_children":[1,3,5,7,9,-1,-1,-1,11,13,15,-1,-1,-1,17,19,-1,-1,-1,-1,-1],"loss_changes":[6.3720856E1,1.8281359E1,6.135864E-1,6.04268E0,2.808627E1,0E0,0E0,0E0,3.5121915E0,1.0731577E1,9.718441E0,0E0,0E0,0E0,2.0622978E0,1.9165039E-1,0E0,0E0,0E0,0E0,0E0],"parents":[2147483647,0,0,1,1,2,2,3,3,4,4,8,8,9,9,10,10,14,14,15,15],"right_children":[2,4,6,8,10,-1,-1,-1,12,14,16,-1,-1,-1,18,20,-1,-1,-1,-1,-1],"split_conditions":[6.13997E-1,-4.150858E-1,7.250429E-1,-7.629568E-2,-8.321433E-1,-1.811236E-1,-4.2424243E-2,-1.3246754E-1,1.0732868E-1,-7.877154E-1,1.3705245E0,-3.529412E-2,1.16883114E-1,1.03999995E-1,-5.685785E-3,-1.3619056E0,-5.945946E-2,-1.0526316E-2,-1.5789475E-1,5.2307695E-2,1.8945634E-1],"split_indices":[370,743,17,544,633,0,0,0,59,645,313,0,0,0,100,16,0,0,0,0,0],"split_type":[0,0,0,0,0,0,0,0,0,0,0,0,0,0,0,0,0,0,0,0,0],"sum_hessian":[5E1,3.603125E1,1.396875E1,8.46875E0,2.75625E1,1.290625E1,1.0625E0,3.8125E0,4.65625E0,7.25E0,2.03125E1,3.25E0,1.40625E0,2.125E0,5.125E0,1.9E1,1.3125E0,1.375E0,3.75E0,1.03125E0,1.796875E1],"tree_param":{"num_deleted":"0","num_feature":"768","num_nodes":"21","size_leaf_vector":"1"}},{"base_weights":[-3.0459876E-3,6.391459E-1,-1.5936337E0,-9.2805666E-1,8.9548177E-1,-3.4290187E-2,-1.6643658E-1,5.1212598E-2,-1.357642E-1,-4.5021155E-1,1.3747964E0,2.0100865E-1,-1.2926163E-1,-7.532976E-2,1.5153029E0,1.1812856E-1,-4.0120117E-2,1.0556835E-1,1.7070607E0,1.1103737E-1,-1.080746E-1,1.7487575E-1,4.717983E-2],"categories":[],"categories_nodes":[],"categories_segments":[],"categories_sizes":[],"default_left":[0,0,0,0,0,0,0,0,0,0,0,0,0,0,0,0,0,0,0,0,0,0,0],"id":1,"left_children":[1,3,5,7,9,-1,-1,-1,-1,11,13,15,-1,-1,17,-1,-1,19,21,-1,-1,-1,-1],"loss_changes":[5.278687E1,1.5621788E1,7.441673E-1,4.2010636E0,2.1356705E1,0E0,0E0,0E0,0E0,5.305418E0,8.30389E0,4.047059E0,0E0,0E0,5.9838333E0,0E0,0E0,5.7251325E0,2.0537949E-1,0E0,0E0,0E0,0E0],"parents":[2147483647,0,0,1,1,2,2,3,3,4,4,9,9,10,10,11,11,14,14,17,17,18,18],"right_children":[2,4,6,8,10,-1,-1,-1,-1,12,14,16,-1,-1,18,-1,-1,20,22,-1,-1,-1,-1],"split_conditions":[6.13997E-1,-1.0752323E0,-2.0393047E0,-8.1100905E-1,-4.150858E-1,-3.4290187E-2,-1.6643658E-1,5.1212598E-2,-1.357642E-1,1.5611684E0,-1.1326115E0,5.190542E-1,-1.2926163E-1,-7.532976E-2,-6.695173E-1,1.1812856E-1,-4.0120117E-2,-6.3511744E-2,1.2680656E0,1.1103737E-1,-1.080746E-1,1.7487575E-1,4.717983E-2],"split_indices":[370,633,759,41,743,0,0,0,0,545,433,286,0,0,569,0,0,10,5,0,0,0,0],"split_type":[0,0,0,0,0,0,0,0,0,0,0,0,0,0,0,0,0,0,0,0,0,0,0],"sum_hessian":[4.9680573E1,3.5817574E1,1.3862999E1,4.666536E0,3.115104E1,1.0550376E0,1.2807961E1,1.028007E0,3.6385288E0,8.197363E0,2.2953676E1,5.0527368E0,3.1446264E0,1.151525E0,2.180215E1,1.5568734E0,3.495863E0,2.7961774E0,1.9005974E1,1.5485625E0,1.2476149E0,1.7983244E1,1.0227295E0],"tree_param":{"num_deleted":"0","num_feature":"768","num_nodes":"23","size_leaf_vector":"1"}},{"base_weights":[-6.378171E-3,5.972527E-1,-1.4509234E0,-4.6480042E-1,9.416318E-1,-1.44427065E-2,-1.5530483E-1,-1.2120632E0,6.009659E-1,-2.6356804E-1,1.3484206E0,-2.1834332E-2,-1.4178571E-1,1.2314339E-1,-6.952661E-2,-1.15874946E-1,4.216631E-1,-8.018096E-2,1.5814898E0,1.0306124E-1,-7.813718E-3,1.00762166E-1,-1.0865623E-1,1.6269074E-1,4.1117683E-2],"categories":[],"categories_nodes":[],"categories_segments":[],"categories_sizes":[],"default_left":[0,0,0,0,0,0,0,0,0,0,0,0,0,0,0,0,0,0,0,0,0,0,0,0,0],"id":2,"left_children":[1,3,5,7,9,-1,-1,11,13,15,17,-1,-1,-1,-1,-1,19,21,23,-1,-1,-1,-1,-1,-1],"loss_changes":[4.436473E1,1.3564889E1,1.7762127E0,8.260732E0,1.3804981E1,0E0,0E0,8.9517117E-1,4.58824E0,5.2482595E0,7.0105095E0,0E0,0E0,0E0,0E0,0E0,1.6413388E0,5.3112864E0,2.7837372E-1,0E0,0E0,0E0,0E0,0E0,0E0],"parents":[2147483647,0,0,1,1,2,2,3,3,4,4,7,7,8,8,9,9,10,10,16,16,17,17,18,18],"right_children":[2,4,6,8,10,-1,-1,12,14,16,18,-1,-1,-1,-1,-1,20,22,24,-1,-1,-1,-1,-1,-1],"split_conditions":[5.92316E-1,-5.713177E-1,7.6662205E-2,4.16167E-1,-6.150927E-1,-1.44427065E-2,-1.5530483E-1,-1.0672431E0,4.3428582E-1,8.7436974E-1,-9.556715E-1,-2.1834332E-2,-1.4178571E-1,1.2314339E-1,-6.952661E-2,-1.15874946E-1,2.9756265E0,-2.4521351E-1,1.4781519E0,1.0306124E-1,-7.813718E-3,1.00762166E-1,-1.0865623E-1,1.6269074E-1,4.1117683E-2],"split_indices":[370,544,335,59,326,0,0,233,161,373,369,0,0,0,0,0,3,563,69,0,0,0,0,0,0],"split_type":[0,0,0,0,0,0,0,0,0,0,0,0,0,0,0,0,0,0,0,0,0,0,0,0,0],"sum_hessian":[4.888481E1,3.4891342E1,1.3993468E1,8.457874E0,2.6433468E1,1.1895548E0,1.2803913E1,4.891163E0,3.5667117E0,6.75939E0,1.9674078E1,1.1927401E0,3.698423E0,2.4332197E0,1.1334919E0,2.6311018E0,4.128288E0,2.8515327E0,1.6822544E1,1.3821945E0,2.7460935E0,1.3697406E0,1.4817921E0,1.5818509E1,1.0040351E0],"tree_param":{"num_deleted":"0","num_feature":"768","num_nodes":"25","size_leaf_vector":"1"}},{"base_weights":[-7.876152E-3,5.5179477E-1,-1.3543594E0,-8.245842E-1,7.841743E-1,-1.0175693E-2,-1.4564428E-1,4.797798E-2,-1.2182357E-1,-3.924585E-1,1.2219093E0,1.7534974E-1,-1.1360879E-1,1.4552579E0,-4.0695183E-2,1.0501267E-1,-3.544227E-2,1.5345113E-1,6.5155984E-3,1.00393094E-1,-9.8280415E-2],"categories":[],"categories_nodes":[],"categories_segments":[],"categories_sizes":[],"default_left":[0,0,0,0,0,0,0,0,0,0,0,0,0,0,0,0,0,0,0,0,0],"id":3,"left_children":[1,3,5,7,9,-1,-1,-1,-1,11,13,15,-1,17,19,-1,-1,-1,-1,-1,-1],"loss_changes":[3.7483463E1,1.1887709E1,1.7190285E0,3.4414642E0,1.623071E1,0E0,0E0,0E0,0E0,4.020088E0,6.6979065E0,3.1515934E0,0E0,1.9982033E0,5.4031143E0,0E0,0E0,0E0,0E0,0E0,0E0],"parents":[2147483647,0,0,1,1,2,2,3,3,4,4,9,9,10,10,11,11,13,13,14,14],"right_children":[2,4,6,8,10,-1,-1,-1,-1,12,14,16,-1,18,20,-1,-1,-1,-1,-1,-1],"split_conditions":[5.92316E-1,-1.0752323E0,-1.1459485E0,-5.505857E-1,-4.150858E-1,-1.0175693E-2,-1.4564428E-1,4.797798E-2,-1.2182357E-1,1.5611684E0,9.6206295E-1,5.190542E-1,-1.1360879E-1,1.2013904E0,-1.6694035E-1,1.0501267E-1,-3.544227E-2,1.5345113E-1,6.5155984E-3,1.00393094E-1,-9.8280415E-2],"split_indices":[370,633,406,733,743,0,0,0,0,545,37,286,0,572,28,0,0,0,0,0,0],"split_type":[0,0,0,0,0,0,0,0,0,0,0,0,0,0,0,0,0,0,0,0,0],"sum_hessian":[4.7748333E1,3.4145725E1,1.3602607E1,4.564118E0,2.9581608E1,1.1755052E0,1.2427102E1,1.0073783E0,3.5567396E0,8.049085E0,2.1532524E1,4.9974284E0,3.0516562E0,1.8044956E1,3.487568E0,1.5144683E0,3.48296E0,1.6973377E1,1.0715792E0,1.6226859E0,1.864882E0],"tree_param":{"num_deleted":"0","num_feature":"768","num_nodes":"21","size_leaf_vector":"1"}},{"base_weights":[-9.41886E-3,5.0294787E-1,-1.299474E0,7.7132535E-1,-5.5590516E-1,-1.9805903E-2,-1.3706592E-1,1.0294641E0,-7.043466E-1,4.6918112E-1,-1.1434305E0,1.425274E0,-4.2789858E-2,-1.2155121E-1,5.0311234E-2,-3.7060793E-2,9.6342884E-2,-3.3095356E-2,-1.2609027E-1,4.388001E-2,1.462407E-1,-1.0703323E-1,4.9490982E-1,1.0272533E-1,-4.653033E-3],"categories":[],"categories_nodes":[],"categories_segments":[],"categories_sizes":[],"default_left":[0,0,0,0,0,0,0,0,0,0,0,0,0,0,0,0,0,0,0,0,0,0,0,0,0],"id":4,"left_children":[1,3,5,7,9,-1,-1,11,13,15,17,19,21,-1,-1,-1,-1,-1,-1,-1,-1,-1,23,-1,-1],"loss_changes":[3.1944632E1,1.0262297E1,8.055115E-1,1.1400862E1,5.10067E0,0E0,0E0,1.0356842E1,3.5533922E0,1.7973685E0,7.0252895E-2,8.4114075E-3,4.679883E0,0E0,0E0,0E0,0E0,0E0,0E0,0E0,0E0,0E0,1.6661975E0,0E0,0E0],"parents":[2147483647,0,0,1,1,2,2,3,3,4,4,7,7,8,8,9,9,10,10,11,11,12,12,22,22],"right_children":[2,4,6,8,10,-1,-1,12,14,16,18,20,22,-1,-1,-1,-1,-1,-1,-1,-1,-1,24,-1,-1],"split_conditions":[6.13997E-1,4.437345E-1,-6.6804504E-1,1.1890883E0,-2.846798E-1,-1.9805903E-2,-1.3706592E-1,1.7626506E-1,5.877949E-1,5.944598E-1,-2.225489E-1,-6.6461855E-1,-2.935028E-1,-1.2155121E-1,5.0311234E-2,-3.7060793E-2,9.6342884E-2,-3.3095356E-2,-1.2609027E-1,4.388001E-2,1.462407E-1,-1.0703323E-1,2.9756265E0,1.0272533E-1,-4.653033E-3],"split_indices":[370,43,195,305,747,0,0,148,186,167,637,607,544,0,0,0,0,0,0,0,0,0,3,0,0],"split_type":[0,0,0,0,0,0,0,0,0,0,0,0,0,0,0,0,0,0,0,0,0,0,0,0,0],"sum_hessian":[4.6340317E1,3.360405E1,1.2736268E1,2.7025656E1,6.5783925E0,1.0027943E0,1.1733474E1,2.325929E1,3.7663639E0,2.470103E0,4.1082897E0,1.6747805E1,6.511486E0,2.6414597E0,1.1249043E0,1.0078301E0,1.4622728E0,1.0011687E0,3.1071208E0,1.0725102E0,1.5675295E1,1.8965701E0,4.614916E0,1.8745747E0,2.7403412E0],"tree_param":{"num_deleted":"0","num_feature":"768","num_nodes":"25","size_leaf_vector":"1"}},{"base_weights":[-1.1775403E-2,4.6838456E-1,-1.2303083E0,-4.318109E-1,7.616728E-1,-2.3536045E-2,-1.3065545E-1,-1.0565897E0,4.9112925E-1,-2.1777816E-1,1.1063156E0,-1.7923392E-2,-1.23653494E-1,-6.0916234E-2,1.04295395E-1,-9.880027E-2,3.6226177E-1,-3.8008615E-2,1.2745264E0,8.6819E-2,-4.313079E-3,1.2556444E-2,1.3906418E-1],"categories":[],"categories_nodes":[],"categories_segments":[],"categories_sizes":[],"default_left":[0,0,0,0,0,0,0,0,0,0,0,0,0,0,0,0,0,0,0,0,0,0,0],"id":5,"left_children":[1,3,5,7,9,-1,-1,11,13,15,17,-1,-1,-1,-1,-1,19,-1,21,-1,-1,-1,-1],"loss_changes":[2.7356092E1,9.18851E0,6.948681E-1,5.642043E0,8.90695E0,0E0,0E0,6.6490364E-1,3.2274258E0,3.716533E0,5.27367E0,0E0,0E0,0E0,0E0,0E0,1.067045E0,0E0,2.1517143E0,0E0,0E0,0E0,0E0],"parents":[2147483647,0,0,1,1,2,2,3,3,4,4,7,7,8,8,9,9,10,10,16,16,18,18],"right_children":[2,4,6,8,10,-1,-1,12,14,16,18,-1,-1,-1,-1,-1,20,-1,22,-1,-1,-1,-1],"split_conditions":[6.13997E-1,-5.713177E-1,-1.4846797E0,4.16167E-1,-6.150927E-1,-2.3536045E-2,-1.3065545E-1,-3.4488502E-1,-8.429169E-1,8.7436974E-1,-7.0446295E-1,-1.7923392E-2,-1.23653494E-1,-6.0916234E-2,1.04295395E-1,-9.880027E-2,2.9756265E0,-3.8008615E-2,-9.556715E-1,8.6819E-2,-4.313079E-3,1.2556444E-2,1.3906418E-1],"split_indices":[370,544,216,59,326,0,0,246,325,373,639,0,0,0,0,0,3,0,369,0,0,0,0],"split_type":[0,0,0,0,0,0,0,0,0,0,0,0,0,0,0,0,0,0,0,0,0,0,0],"sum_hessian":[4.4770397E1,3.2557003E1,1.2213392E1,7.884536E0,2.4672468E1,1.1602303E0,1.1053163E1,4.615376E0,3.2691598E0,6.5177054E0,1.8154762E1,1.1252178E0,3.490158E0,1.0572292E0,2.2119308E0,2.497708E0,4.0199976E0,1.7175921E0,1.643717E1,1.280427E0,2.7395706E0,1.6997298E0,1.4737441E1],"tree_param":{"num_deleted":"0","num_feature":"768","num_nodes":"23","size_leaf_vector":"1"}},{"base_weights":[-1.4227431E-2,4.4638988E-1,-1.1468183E0,7.49304E-1,-3.686482E-1,-1.2524548E-1,-2.4754606E-4,-2.0810686E-1,1.0783284E0,-1.0388839E-1,2.4604699E-1,-7.663138E-2,2.4500227E-2,1.2168031E0,-5.9822667E-2,1.0143681E-1,-5.124463E-1,-2.3452427E-2,1.3357525E-1,-9.110861E-2,1.696922E-2],"categories":[],"categories_nodes":[],"categories_segments":[],"categories_sizes":[],"default_left":[0,0,0,0,0,0,0,0,0,0,0,0,0,0,0,0,0,0,0,0,0],"id":6,"left_children":[1,3,5,7,9,-1,-1,11,13,-1,15,-1,-1,17,-1,-1,19,-1,-1,-1,-1],"loss_changes":[2.3544708E1,8.202681E0,1.5737858E0,7.7015896E0,4.1157246E0,0E0,0E0,1.9352611E0,4.8666763E0,0E0,3.83908E0,0E0,0E0,3.212944E0,0E0,0E0,1.1146603E0,0E0,0E0,0E0,0E0],"parents":[2147483647,0,0,1,1,2,2,3,3,4,4,7,7,8,8,10,10,13,13,16,16],"right_children":[2,4,6,8,10,-1,-1,12,14,-1,16,-1,-1,18,-1,-1,20,-1,-1,-1,-1],"split_conditions":[5.92316E-1,6.4502573E-1,7.674626E-1,-4.150858E-1,-6.227937E-2,-1.2524548E-1,-2.4754606E-4,-7.629568E-2,1.4081508E0,-1.0388839E-1,4.9310756E-1,-7.663138E-2,2.4500227E-2,-1.4989014E0,-5.9822667E-2,1.0143681E-1,2.9759082E-1,-2.3452427E-2,1.3357525E-1,-9.110861E-2,1.696922E-2],"split_indices":[370,578,277,743,201,0,0,544,455,0,707,0,0,67,0,0,622,0,0,0,0],"split_type":[0,0,0,0,0,0,0,0,0,0,0,0,0,0,0,0,0,0,0,0,0],"sum_hessian":[4.3150238E1,3.1105642E1,1.2044594E1,2.2736229E1,8.369412E0,1.09402075E1,1.1043868E0,5.9091125E0,1.6827118E1,3.6736984E0,4.6957145E0,2.3378134E0,3.571299E0,1.5796622E1,1.0304943E0,2.165157E0,2.5305572E0,1.1230026E0,1.467362E1,1.3853375E0,1.1452196E0],"tree_param":{"num_deleted":"0","num_feature":"768","num_nodes":"21","size_leaf_vector":"1"}},{"base_weights":[-1.7792892E-2,4.0676358E-1,-1.116631E0,5.5304414E-1,-1.040126E-1,-1.6751498E-2,-1.1965072E-1,-3.1538987E-1,8.7168586E-1,-9.035647E-1,2.3962224E-1,1.0812746E0,-8.36136E-2,-1.03823915E-1,-2.8060704E-2,8.171129E-2,-1.4365928E-2,1.2078928E0,-4.131256E-2,-8.342167E-3,1.3113451E-1],"categories":[],"categories_nodes":[],"categories_segments":[],"categories_sizes":[],"default_left":[0,0,0,0,0,0,0,0,0,0,0,0,0,0,0,0,0,0,0,0,0],"id":7,"left_children":[1,3,5,7,-1,-1,-1,9,11,13,15,17,-1,-1,-1,-1,-1,19,-1,-1,-1],"loss_changes":[2.0265305E1,7.213473E0,7.170296E-1,8.33771E0,0E0,0E0,0E0,3.009392E0,8.629023E0,7.4723005E-2,1.2666376E0,4.2187843E0,0E0,0E0,0E0,0E0,0E0,2.564497E0,0E0,0E0,0E0],"parents":[2147483647,0,0,1,1,2,2,3,3,7,7,8,8,9,9,10,10,11,11,17,17],"right_children":[2,4,6,8,-1,-1,-1,10,12,14,16,18,-1,-1,-1,-1,-1,20,-1,-1,-1],"split_conditions":[6.13997E-1,1.2786903E0,-1.9585513E0,-4.150858E-1,-1.040126E-1,-1.6751498E-2,-1.1965072E-1,-7.629568E-2,1.2892891E0,3.5251364E-1,-1.9399104E-1,1.5865601E0,-8.36136E-2,-1.03823915E-1,-2.8060704E-2,8.171129E-2,-1.4365928E-2,-7.842795E-1,-4.131256E-2,-8.342167E-3,1.3113451E-1],"split_indices":[370,431,759,743,0,0,0,544,439,360,10,337,0,0,0,0,0,289,0,0,0],"split_type":[0,0,0,0,0,0,0,0,0,0,0,0,0,0,0,0,0,0,0,0,0],"sum_hessian":[4.146581E1,3.0363956E1,1.1101852E1,2.8137068E1,2.2268877E0,1.1022089E0,9.999643E0,7.5554533E0,2.0581614E1,3.363243E0,4.19221E0,1.8658642E1,1.9229732E0,2.2172725E0,1.1459707E0,1.2208568E0,2.9713535E0,1.7377956E1,1.2806848E0,1.3033161E0,1.607464E1],"tree_param":{"num_deleted":"0","num_feature":"768","num_nodes":"21","size_leaf_vector":"1"}},{"base_weights":[-2.3764798E-2,3.768867E-1,-1.0684665E0,-4.1017622E-1,6.405064E-1,-1.1522601E-1,-1.2003074E-2,-9.393401E-1,4.038956E-1,-1.9312042E-1,9.6131545E-1,-1.10721745E-1,-1.34874275E-2,-4.369695E-2,8.877899E-2,-8.601938E-2,2.99132E-1,-3.367887E-2,1.1218325E0,7.618464E-2,-4.7383863E-3,6.2251007E-3,1.2413724E-1],"categories":[],"categories_nodes":[],"categories_segments":[],"categories_sizes":[],"default_left":[0,0,0,0,0,0,0,0,0,0,0,0,0,0,0,0,0,0,0,0,0,0,0],"id":8,"left_children":[1,3,5,7,9,-1,-1,11,13,15,17,-1,-1,-1,-1,-1,19,-1,21,-1,-1,-1,-1],"loss_changes":[1.7435673E1,6.519015E0,7.789011E-1,3.9010382E0,6.330739E0,0E0,0E0,5.603905E-1,1.9828894E0,2.6275055E0,3.870019E0,0E0,0E0,0E0,0E0,0E0,8.209933E-1,0E0,1.8411903E0,0E0,0E0,0E0,0E0],"parents":[2147483647,0,0,1,1,2,2,3,3,4,4,7,7,8,8,9,9,10,10,16,16,18,18],"right_children":[2,4,6,8,10,-1,-1,12,14,16,18,-1,-1,-1,-1,-1,20,-1,22,-1,-1,-1,-1],"split_conditions":[6.13997E-1,-5.713177E-1,1.8848658E0,4.16167E-1,-6.150927E-1,-1.1522601E-1,-1.2003074E-2,6.456648E-1,-7.837541E-1,8.7436974E-1,-7.0446295E-1,-1.10721745E-1,-1.34874275E-2,-4.369695E-2,8.877899E-2,-8.601938E-2,2.9756265E0,-3.367887E-2,-9.556715E-1,7.618464E-2,-4.7383863E-3,6.2251007E-3,1.2413724E-1],"split_indices":[370,544,29,59,326,0,0,635,325,373,639,0,0,0,0,0,3,0,369,0,0,0,0],"split_type":[0,0,0,0,0,0,0,0,0,0,0,0,0,0,0,0,0,0,0,0,0,0,0],"sum_hessian":[3.9694115E1,2.915296E1,1.0541154E1,7.175086E0,2.1977875E1,9.487992E0,1.0531619E0,4.2552223E0,2.9198635E0,6.218093E0,1.5759781E1,3.2091856E0,1.046037E0,1.1019585E0,1.817905E0,2.3228414E0,3.8952513E0,1.6134703E0,1.4146311E1,1.1547219E0,2.7405295E0,1.5883342E0,1.2557977E1],"tree_param":{"num_deleted":"0","num_feature":"768","num_nodes":"23","size_leaf_vector":"1"}},{"base_weights":[-2.5216997E-2,3.4178364E-1,-1.062434E0,5.4246414E-1,-7.090633E-1,-7.6590157E-3,-1.160239E-1,-3.2014224E-1,9.210763E-1,4.5330513E-2,-1.0997293E-1,-8.2692546E-1,1.3772736E-1,1.1559781E0,-9.381706E-2,-9.6139334E-2,-2.3549242E-2,-2.0216838E-2,7.4206196E-2,9.07294E-3,1.2310882E-1,7.626871E-2,-7.532889E-2],"categories":[],"categories_nodes":[],"categories_segments":[],"categories_sizes":[],"default_left":[0,0,0,0,0,0,0,0,0,0,0,0,0,0,0,0,0,0,0,0,0,0,0],"id":9,"left_children":[1,3,5,7,9,-1,-1,11,13,-1,-1,15,17,19,21,-1,-1,-1,-1,-1,-1,-1,-1],"loss_changes":[1.5215145E1,6.6217523E0,9.178257E-1,8.590366E0,2.8488796E0,0E0,0E0,2.083897E0,4.378235E0,0E0,0E0,1.0543203E-1,1.2422792E0,1.0579777E0,2.998358E0,0E0,0E0,0E0,0E0,0E0,0E0,0E0,0E0],"parents":[2147483647,0,0,1,1,2,2,3,3,4,4,7,7,8,8,11,11,12,12,13,13,14,14],"right_children":[2,4,6,8,10,-1,-1,12,14,-1,-1,16,18,20,22,-1,-1,-1,-1,-1,-1,-1,-1],"split_conditions":[6.801583E-1,1.1890883E0,-1.4846797E0,-4.150858E-1,-4.2068225E-1,-7.6590157E-3,-1.160239E-1,-7.629568E-2,8.7507284E-1,4.5330513E-2,-1.0997293E-1,5.1559556E-1,1.0732868E-1,-1.2721077E0,3.0052792E-2,-9.6139334E-2,-2.3549242E-2,-2.0216838E-2,7.4206196E-2,9.07294E-3,1.2310882E-1,7.626871E-2,-7.532889E-2],"split_indices":[370,305,216,743,687,0,0,544,37,0,0,656,59,405,564,0,0,0,0,0,0,0,0],"split_type":[0,0,0,0,0,0,0,0,0,0,0,0,0,0,0,0,0,0,0,0,0,0,0],"sum_hessian":[3.801658E1,2.8575966E1,9.440614E0,2.4400064E1,4.175902E0,1.0129977E0,8.427616E0,7.489923E0,1.6910141E1,1.0101154E0,3.1657865E0,3.1724908E0,4.3174324E0,1.3618956E1,3.2911854E0,2.0751534E0,1.0973375E0,3.1892004E0,1.1282318E0,1.0424439E0,1.2576512E1,1.3636289E0,1.9275564E0],"tree_param":{"num_deleted":"0","num_feature":"768","num_nodes":"23","size_leaf_vector":"1"}},{"base_weights":[-2.6739592E-2,3.2197896E-1,-1.0234902E0,5.137514E-1,-6.7131686E-1,-6.8545523E-3,-1.1235348E-1,-3.009758E-1,8.8381165E-1,4.3265466E-2,-1.05311535E-1,9.890391E-2,-8.7453954E-2,1.1145048E0,-8.599469E-2,8.307003E-2,-2.8381163E-2,1.19180106E-1,8.06529E-3,-7.210894E-2,7.4028306E-2],"categories":[],"categories_nodes":[],"categories_segments":[],"categories_sizes":[],"default_left":[0,0,0,0,0,0,0,0,0,0,0,0,0,0,0,0,0,0,0,0,0],"id":10,"left_children":[1,3,5,7,9,-1,-1,11,13,-1,-1,15,-1,17,19,-1,-1,-1,-1,-1,-1],"loss_changes":[1.3292282E1,5.7525425E0,8.6928844E-1,7.6108403E0,2.57469E0,0E0,0E0,2.0027683E0,3.9005833E0,0E0,0E0,1.8661206E0,0E0,1.0074577E0,2.7359E0,0E0,0E0,0E0,0E0,0E0,0E0],"parents":[2147483647,0,0,1,1,2,2,3,3,4,4,7,7,8,8,11,11,13,13,14,14],"right_children":[2,4,6,8,10,-1,-1,12,14,-1,-1,16,-1,18,20,-1,-1,-1,-1,-1,-1],"split_conditions":[6.801583E-1,1.1890883E0,-1.9585513E0,-4.150858E-1,-4.2068225E-1,-6.8545523E-3,-1.1235348E-1,1.5611684E0,8.7507284E-1,4.3265466E-2,-1.05311535E-1,-7.971711E-1,-8.7453954E-2,1.3595347E0,-5.9093654E-1,8.307003E-2,-2.8381163E-2,1.19180106E-1,8.06529E-3,-7.210894E-2,7.4028306E-2],"split_indices":[370,305,759,743,687,0,0,545,37,0,0,448,0,448,625,0,0,0,0,0,0],"split_type":[0,0,0,0,0,0,0,0,0,0,0,0,0,0,0,0,0,0,0,0,0],"sum_hessian":[3.629368E1,2.7388601E1,8.905078E0,2.3361126E1,4.027477E0,1.0042711E0,7.9008064E0,7.354997E0,1.6006128E1,1.0007126E0,3.0267642E0,4.821255E0,2.5337417E0,1.280979E1,3.1963382E0,1.2536291E0,3.5676262E0,1.1776536E1,1.0332541E0,1.8792276E0,1.3171103E0],"tree_param":{"num_deleted":"0","num_feature":"768","num_nodes":"21","size_leaf_vector":"1"}},{"base_weights":[-2.7352368E-2,2.9076988E-1,-1.0346301E-1,4.2952985E-1,-9.377071E-2,6.5682024E-1,-3.9406437E-1,8.5713786E-1,-7.785807E-2,4.616293E-2,-8.0253834E-1,1.0905212E0,-2.0055879E-2,-8.495537E-3,-9.843472E-2,-2.1159548E-2,1.2065376E-1,2.766121E-3,-1.0047007E-2],"categories":[],"categories_nodes":[],"categories_segments":[],"categories_sizes":[],"default_left":[0,0,0,0,0,0,0,0,0,0,0,0,0,0,0,0,0,0,0],"id":11,"left_children":[1,3,-1,5,-1,7,9,11,-1,-1,13,15,17,-1,-1,-1,-1,-1,-1],"loss_changes":[1.1708152E1,5.1476717E0,0E0,5.0690203E0,0E0,6.5657063E0,2.5315068E0,3.8045797E0,0E0,0E0,5.099981E-1,2.4627438E0,2.1446249E-2,0E0,0E0,0E0,0E0,0E0,0E0],"parents":[2147483647,0,0,1,1,3,3,5,5,6,6,7,7,10,10,11,11,12,12],"right_children":[2,4,-1,6,-1,8,10,12,-1,-1,14,16,18,-1,-1,-1,-1,-1,-1],"split_conditions":[7.379184E-1,1.2786903E0,-1.0346301E-1,4.8715535E-1,-9.377071E-2,1.2892891E0,-2.7856869E-1,8.63599E-1,-7.785807E-2,4.616293E-2,-6.8151015E-1,-6.08766E-1,-8.2831544E-1,-8.495537E-3,-9.843472E-2,-2.1159548E-2,1.2065376E-1,2.766121E-3,-1.0047007E-2],"split_indices":[370,431,0,287,0,439,644,702,0,0,516,569,1,0,0,0,0,0,0],"split_type":[0,0,0,0,0,0,0,0,0,0,0,0,0,0,0,0,0,0,0],"sum_hessian":[3.4599182E1,2.683529E1,7.7638917E0,2.4696146E1,2.1391437E0,1.9513443E1,5.182704E0,1.7477259E1,2.0361834E0,1.6325718E0,3.550132E0,1.3612395E1,3.864864E0,1.0142515E0,2.5358803E0,1.0462208E0,1.25661745E1,2.837269E0,1.027595E0],"tree_param":{"num_deleted":"0","num_feature":"768","num_nodes":"19","size_leaf_vector":"1"}},{"base_weights":[-3.2558836E-2,2.6916E-1,-1.0009632E-1,-4.376175E-1,5.0144833E-1,5.8208644E-2,-7.477171E-1,-2.1997748E-1,9.100395E-1,-9.9353746E-2,9.084556E-3,1.5980202E-1,-8.1439435E-2,1.0903801E-1,-1.7492898E-2,8.68196E-2,-2.1471009E-2],"categories":[],"categories_nodes":[],"categories_segments":[],"categories_sizes":[],"default_left":[0,0,0,0,0,0,0,0,0,0,0,0,0,0,0,0,0],"id":12,"left_children":[1,3,-1,5,7,-1,9,11,13,-1,-1,15,-1,-1,-1,-1,-1],"loss_changes":[1.0194534E1,4.6008677E0,0E0,2.691517E0,6.2582493E0,0E0,1.3083568E0,1.9895095E0,2.7960901E0,0E0,0E0,1.7414939E0,0E0,0E0,0E0,0E0,0E0],"parents":[2147483647,0,0,1,1,3,3,4,4,6,6,7,7,8,8,11,11],"right_children":[2,4,-1,6,8,-1,10,12,14,-1,-1,16,-1,-1,-1,-1,-1],"split_conditions":[7.379184E-1,-8.321433E-1,-1.0009632E-1,-1.60736E-1,-4.150858E-1,5.8208644E-2,-7.250261E-1,1.5611684E0,1.1572078E0,-9.9353746E-2,9.084556E-3,-6.7110157E-1,-8.1439435E-2,1.0903801E-1,-1.7492898E-2,8.68196E-2,-2.1471009E-2],"split_indices":[370,633,0,292,743,0,671,545,313,0,0,521,0,0,0,0,0],"split_type":[0,0,0,0,0,0,0,0,0,0,0,0,0,0,0,0,0],"sum_hessian":[3.2968502E1,2.568734E1,7.281163E0,6.1353946E0,1.9551945E1,1.2261935E0,4.909201E0,7.2364984E0,1.2315446E1,3.653412E0,1.2557892E0,4.8615575E0,2.3749409E0,1.0555887E1,1.7595588E0,1.2254325E0,3.6361248E0],"tree_param":{"num_deleted":"0","num_feature":"768","num_nodes":"17","size_leaf_vector":"1"}},{"base_weights":[-3.222698E-2,2.699079E-1,-9.240858E-1,-3.9452237E-1,5.158665E-1,-1.03791736E-1,-4.4315066E-3,-7.1539795E-1,5.361497E-2,-1.0062287E-1,8.014239E-1,-9.5041685E-2,1.4912827E-3,-8.0806546E-2,2.5350425E-1,-3.2110408E-2,9.669193E-1,-6.756698E-3,7.7342525E-2,1.2008E-3,1.0943072E-1],"categories":[],"categories_nodes":[],"categories_segments":[],"categories_sizes":[],"default_left":[0,0,0,0,0,0,0,0,0,0,0,0,0,0,0,0,0,0,0,0,0],"id":13,"left_children":[1,3,5,7,9,-1,-1,11,-1,13,15,-1,-1,-1,17,-1,19,-1,-1,-1,-1],"loss_changes":[9.001125E0,4.294619E0,7.996931E-1,2.572524E0,3.37333E0,0E0,0E0,1.023246E0,0E0,1.9107858E0,2.7059183E0,0E0,0E0,0E0,9.368464E-1,0E0,1.3841782E0,0E0,0E0,0E0,0E0],"parents":[2147483647,0,0,1,1,2,2,3,3,4,4,7,7,9,9,10,10,14,14,16,16],"right_children":[2,4,6,8,10,-1,-1,12,-1,14,16,-1,-1,-1,18,-1,20,-1,-1,-1,-1],"split_conditions":[6.801583E-1,-5.3051114E-1,1.4608536E0,7.388256E-1,-6.150927E-1,-1.03791736E-1,-4.4315066E-3,5.7931596E-1,5.361497E-2,3.4305772E-1,-7.0446295E-1,-9.5041685E-2,1.4912827E-3,-8.0806546E-2,-4.3866894E-1,-3.2110408E-2,-9.556715E-1,-6.756698E-3,7.7342525E-2,1.2008E-3,1.0943072E-1],"split_indices":[370,544,611,222,326,0,0,505,0,94,639,0,0,0,273,0,369,0,0,0,0],"split_type":[0,0,0,0,0,0,0,0,0,0,0,0,0,0,0,0,0,0,0,0,0],"sum_hessian":[3.1478489E1,2.4033894E1,7.444594E0,6.3300204E0,1.7703875E1,6.432543E0,1.0120512E0,4.8791165E0,1.4509035E0,5.8094616E0,1.1894412E1,3.463237E0,1.4158796E0,1.5103573E0,4.2991047E0,1.4074757E0,1.0486937E1,3.195688E0,1.1034164E0,1.363121E0,9.123816E0],"tree_param":{"num_deleted":"0","num_feature":"768","num_nodes":"21","size_leaf_vector":"1"}},{"base_weights":[-3.273513E-2,3.4531555E-1,-6.959871E-1,-6.514434E-1,5.4488194E-1,-1.0491427E-1,-1.180214E-1,-6.2396964E-3,-8.351966E-2,-7.467292E-2,7.07307E-1,6.665848E-2,-5.433231E-1,9.800745E-1,-2.1196239E-2,1.4865187E-2,-8.322328E-2,1.1006894E-1,-1.3617677E-2,-4.5321297E-2,1.8459013E-2],"categories":[],"categories_nodes":[],"categories_segments":[],"categories_sizes":[],"default_left":[0,0,0,0,0,0,0,0,0,0,0,0,0,0,0,0,0,0,0,0,0],"id":14,"left_children":[1,3,5,7,9,-1,11,-1,-1,-1,13,-1,15,17,19,-1,-1,-1,-1,-1,-1],"loss_changes":[8.034054E0,4.426091E0,2.2472034E0,3.667239E-1,4.21977E0,0E0,2.208362E0,0E0,0E0,0E0,3.2288914E0,0E0,9.5112085E-1,1.7342377E0,5.616867E-1,0E0,0E0,0E0,0E0,0E0,0E0],"parents":[2147483647,0,0,1,1,2,2,3,3,4,4,6,6,10,10,12,12,13,13,14,14],"right_children":[2,4,6,8,10,-1,12,-1,-1,-1,14,-1,16,18,20,-1,-1,-1,-1,-1,-1],"split_conditions":[3.016036E-1,-1.0752323E0,3.2770303E-1,1.7284779E-2,-1.2167921E0,-1.0491427E-1,9.6785665E-2,-6.2396964E-3,-8.351966E-2,-7.467292E-2,2.0449547E-1,6.665848E-2,-5.5141914E-1,1.1890883E0,8.889953E-1,1.4865187E-2,-8.322328E-2,1.1006894E-1,-1.3617677E-2,-4.5321297E-2,1.8459013E-2],"split_indices":[719,633,558,684,171,0,437,0,0,0,663,0,63,305,56,0,0,0,0,0,0],"split_type":[0,0,0,0,0,0,0,0,0,0,0,0,0,0,0,0,0,0,0,0,0],"sum_hessian":[3.0082518E1,1.9466219E1,1.0616299E1,2.869559E0,1.659666E1,6.0837173E0,4.532581E0,1.0008295E0,1.8687295E0,1.4521022E0,1.5144558E1,1.3938509E0,3.1387303E0,1.0767605E1,4.376953E0,1.0674728E0,2.0712574E0,9.730167E0,1.0374374E0,1.0242826E0,3.3526704E0],"tree_param":{"num_deleted":"0","num_feature":"768","num_nodes":"21","size_leaf_vector":"1"}},{"base_weights":[-3.7405763E-2,2.2539672E-1,-9.172375E-2,3.536892E-1,-8.351385E-2,5.044041E-1,-5.761926E-1,-1.3704993E-1,7.3629284E-1,-7.55679E-2,-7.2735944E-3,1.8770708E-2,-6.369264E-2,-1.3310937E-2,9.9785715E-1,6.327879E-2,-6.612426E-2,1.0983471E-1,1.8745858E-2],"categories":[],"categories_nodes":[],"categories_segments":[],"categories_sizes":[],"default_left":[0,0,0,0,0,0,0,0,0,0,0,0,0,0,0,0,0,0,0],"id":15,"left_children":[1,3,-1,5,-1,7,9,11,13,-1,-1,-1,-1,15,17,-1,-1,-1,-1],"loss_changes":[7.0726056E0,3.5154893E0,0E0,3.3480165E0,0E0,2.9726043E0,2.6216424E-1,1.0885837E0,2.8243046E0,0E0,0E0,0E0,0E0,2.384064E0,6.6071033E-1,0E0,0E0,0E0,0E0],"parents":[2147483647,0,0,1,1,3,3,5,5,6,6,7,7,8,8,13,13,14,14],"right_children":[2,4,-1,6,-1,8,10,12,14,-1,-1,-1,-1,16,18,-1,-1,-1,-1],"split_conditions":[7.379184E-1,1.2786903E0,-9.172375E-2,1.0236164E0,-8.351385E-2,-8.196968E-1,8.2776207E-1,2.3752655E-1,-8.226336E-1,-7.55679E-2,-7.2735944E-3,1.8770708E-2,-6.369264E-2,-7.738616E-3,9.92248E-1,6.327879E-2,-6.612426E-2,1.0983471E-1,1.8745858E-2],"split_indices":[370,431,0,187,0,269,690,431,625,0,0,0,0,520,1,0,0,0,0],"split_type":[0,0,0,0,0,0,0,0,0,0,0,0,0,0,0,0,0,0,0],"sum_hessian":[2.8693819E1,2.2667068E1,6.0267515E0,2.0815523E1,1.8515451E0,1.8306046E1,2.5094776E0,4.9691873E0,1.3336859E1,1.4806372E0,1.0288405E0,3.3907778E0,1.5784093E0,3.6954288E0,9.64143E0,1.8620342E0,1.8333946E0,8.2616625E0,1.3797675E0],"tree_param":{"num_deleted":"0","num_feature":"768","num_nodes":"19","size_leaf_vector":"1"}},{"base_weights":[-4.114591E-2,3.785848E-1,-5.469871E-1,6.4290595E-1,-5.4107285E-1,1.7349195E-2,-8.371025E-1,-5.489693E-2,8.01126E-1,2.4635924E-2,-8.7200314E-2,-1.0023139E-1,-3.067788E-3,9.426976E-1,-3.660574E-2,1.0679054E-1,1.1490255E-2],"categories":[],"categories_nodes":[],"categories_segments":[],"categories_sizes":[],"default_left":[0,0,0,0,0,0,0,0,0,0,0,0,0,0,0,0,0],"id":16,"left_children":[1,3,5,7,9,-1,11,-1,13,-1,-1,-1,-1,15,-1,-1,-1],"loss_changes":[6.2399063E0,4.2663503E0,2.924049E0,2.8871865E0,1.2940991E0,0E0,1.2548699E0,0E0,2.3054557E0,0E0,0E0,0E0,0E0,1.0029116E0,0E0,0E0,0E0],"parents":[2147483647,0,0,1,1,2,2,3,3,4,4,6,6,8,8,13,13],"right_children":[2,4,6,8,10,-1,12,-1,14,-1,-1,-1,-1,16,-1,-1,-1],"split_conditions":[6.4338244E-2,1.1890883E0,-1.4088017E0,-1.1392692E0,-3.6067837E-1,1.7349195E-2,9.020677E-1,-5.489693E-2,8.4749264E-1,2.4635924E-2,-8.7200314E-2,-1.0023139E-1,-3.067788E-3,9.7779E-1,-3.660574E-2,1.0679054E-1,1.1490255E-2],"split_indices":[663,305,705,134,687,0,332,0,543,0,0,0,0,578,0,0,0],"split_type":[0,0,0,0,0,0,0,0,0,0,0,0,0,0,0,0,0],"sum_hessian":[2.741422E1,1.5119841E1,1.2294381E1,1.197811E1,3.14173E0,3.6447976E0,8.649584E0,1.1143126E0,1.0863798E1,1.0052775E0,2.1364524E0,6.9772506E0,1.672333E0,9.860158E0,1.0036403E0,8.312755E0,1.5474025E0],"tree_param":{"num_deleted":"0","num_feature":"768","num_nodes":"17","size_leaf_vector":"1"}},{"base_weights":[-4.298631E-2,1.9670908E-1,-8.6709484E-2,-3.817073E-1,4.0782803E-1,-6.5549403E-1,4.4384893E-2,6.422639E-1,-2.767454E-1,-8.607161E-2,-5.6659867E-4,7.96337E-1,-4.5488063E-2,5.760196E-5,-6.53195E-2,-3.241914E-2,9.423568E-1,1.2222986E-2,1.05876505E-1],"categories":[],"categories_nodes":[],"categories_segments":[],"categories_sizes":[],"default_left":[0,0,0,0,0,0,0,0,0,0,0,0,0,0,0,0,0,0,0],"id":17,"left_children":[1,3,-1,5,7,9,-1,11,13,-1,-1,15,-1,-1,-1,-1,17,-1,-1],"loss_changes":[5.5462008E0,2.8296065E0,0E0,1.731113E0,2.829853E0,6.870694E-1,0E0,2.4939804E0,5.134264E-1,0E0,0E0,2.1742826E0,0E0,0E0,0E0,0E0,8.5971737E-1,0E0,0E0],"parents":[2147483647,0,0,1,1,3,3,4,4,5,5,7,7,8,8,11,11,16,16],"right_children":[2,4,-1,6,8,10,-1,12,14,-1,-1,16,-1,-1,-1,-1,18,-1,-1],"split_conditions":[7.379184E-1,-5.3051114E-1,-8.6709484E-2,7.388256E-1,1.1635923E0,5.7931596E-1,4.4384893E-2,1.0186566E0,-8.2831544E-1,-8.607161E-2,-5.6659867E-4,-1.5188072E0,-4.5488063E-2,5.760196E-5,-6.53195E-2,-3.241914E-2,-6.695173E-1,1.2222986E-2,1.05876505E-1],"split_indices":[370,544,0,222,219,505,0,729,1,0,0,117,0,0,0,0,569,0,0],"split_type":[0,0,0,0,0,0,0,0,0,0,0,0,0,0,0,0,0,0,0],"sum_hessian":[2.621358E1,2.0896927E1,5.316652E0,5.371702E0,1.5525226E1,4.1885967E0,1.1831053E0,1.1610836E1,3.9143891E0,2.936646E0,1.2519507E0,1.0421506E1,1.1893299E0,2.828886E0,1.085503E0,1.060816E0,9.36069E0,1.4183125E0,7.9423776E0],"tree_param":{"num_deleted":"0","num_feature":"768","num_nodes":"19","size_leaf_vector":"1"}},{"base_weights":[-4.601876E-2,-7.39604E-1,2.1504687E-1,-9.047543E-2,5.240674E-3,-6.103747E-1,3.9689633E-1,-7.888981E-2,-4.919148E-3,7.4620897E-1,-1.1296718E-1,-2.463875E-2,8.887017E-1,-7.050623E-2,2.0963694E-1,-3.6201742E-3,1.02316074E-1,6.8910636E-2,-9.349521E-3],"categories":[],"categories_nodes":[],"categories_segments":[],"categories_sizes":[],"default_left":[0,0,0,0,0,0,0,0,0,0,0,0,0,0,0,0,0,0,0],"id":18,"left_children":[1,3,5,-1,-1,7,9,-1,-1,11,13,-1,15,-1,17,-1,-1,-1,-1],"loss_changes":[4.8751135E0,1.0085144E0,3.1989043E0,0E0,0E0,3.569373E-1,3.0670338E0,0E0,0E0,1.6432338E0,1.6142939E0,0E0,1.1591387E0,0E0,8.987688E-1,0E0,0E0,0E0,0E0],"parents":[2147483647,0,0,1,1,2,2,5,5,6,6,9,9,10,10,12,12,14,14],"right_children":[2,4,6,-1,-1,8,10,-1,-1,12,14,-1,16,-1,18,-1,-1,-1,-1],"split_conditions":[-5.9085745E-1,8.365995E-1,-9.933073E-1,-9.047543E-2,5.240674E-3,7.806512E-1,7.083538E-1,-7.888981E-2,-4.919148E-3,-1.1474715E0,-1.7398018E-3,-2.463875E-2,-6.150927E-1,-7.050623E-2,2.1520051E-1,-3.6201742E-3,1.02316074E-1,6.8910636E-2,-9.349521E-3],"split_indices":[512,558,701,0,0,80,13,0,0,191,89,0,326,0,331,0,0,0,0],"split_type":[0,0,0,0,0,0,0,0,0,0,0,0,0,0,0,0,0,0,0],"sum_hessian":[2.5045343E1,6.3478074E0,1.8697536E1,5.134756E0,1.2130514E0,2.9501612E0,1.57473755E1,1.930314E0,1.0198473E0,9.069929E0,6.677446E0,1.047058E0,8.022871E0,1.9369355E0,4.7405105E0,1.1110495E0,6.9118214E0,1.3429911E0,3.3975194E0],"tree_param":{"num_deleted":"0","num_feature":"768","num_nodes":"19","size_leaf_vector":"1"}},{"base_weights":[-4.7100738E-2,1.7358431E-1,-8.2157634E-2,2.8955033E-1,-7.4262396E-2,5.9140366E-1,-1.2266536E-1,8.127615E-1,-3.2057267E-2,2.8263322E-1,-6.12967E-1,-5.099712E-3,9.7431414E-2,7.008529E-2,-6.877828E-3,-1.2872331E-3,-8.267409E-2],"categories":[],"categories_nodes":[],"categories_segments":[],"categories_sizes":[],"default_left":[0,0,0,0,0,0,0,0,0,0,0,0,0,0,0,0,0],"id":19,"left_children":[1,3,-1,5,-1,7,9,11,-1,13,15,-1,-1,-1,-1,-1,-1],"loss_changes":[4.414697E0,2.3695443E0,0E0,2.401752E0,0E0,2.4767032E0,1.910295E0,1.321847E0,0E0,8.520955E-1,5.373107E-1,0E0,0E0,0E0,0E0,0E0,0E0],"parents":[2147483647,0,0,1,1,3,3,5,5,6,6,7,7,9,9,10,10],"right_children":[2,4,-1,6,-1,8,10,12,-1,14,16,-1,-1,-1,-1,-1,-1],"split_conditions":[7.379184E-1,1.2786903E0,-8.2157634E-2,1.7604873E-2,-7.4262396E-2,1.1606048E0,-3.8880488E-1,-7.5619096E-1,-3.2057267E-2,1.3806446E0,3.7846142E-1,-5.099712E-3,9.7431414E-2,7.008529E-2,-6.877828E-3,-1.2872331E-3,-8.267409E-2],"split_indices":[370,431,0,28,0,350,220,614,0,38,73,0,0,0,0,0,0],"split_type":[0,0,0,0,0,0,0,0,0,0,0,0,0,0,0,0,0],"sum_hessian":[2.399535E1,1.9277996E1,4.7173524E0,1.7719215E1,1.5587819E0,9.977958E0,7.7412577E0,8.11665E0,1.8613081E0,4.469874E0,3.2713842E0,1.3867216E0,6.7299275E0,1.5868948E0,2.882979E0,1.1377547E0,2.1336296E0],"tree_param":{"num_deleted":"0","num_feature":"768","num_nodes":"17","size_leaf_vector":"1"}},{"base_weights":[-4.888545E-2,6.377288E-1,-2.7895656E-1,8.526316E-2,-6.1378633E-3,1.9583982E-1,-6.512647E-1,4.04523E-1,-5.3859938E-2,-8.068828E-1,1.4345641E-2,8.6203985E-2,-6.0698083E-3,-9.351199E-2,-4.766596E-3],"categories":[],"categories_nodes":[],"categories_segments":[],"categories_sizes":[],"default_left":[0,0,0,0,0,0,0,0,0,0,0,0,0,0,0],"id":20,"left_children":[1,3,5,-1,-1,7,9,11,-1,13,-1,-1,-1,-1,-1],"loss_changes":[3.9651546E0,1.0020721E0,3.4248521E0,0E0,0E0,1.5921963E0,1.4373331E0,1.6601508E0,0E0,8.401537E-1,0E0,0E0,0E0,0E0,0E0],"parents":[2147483647,0,0,1,1,2,2,5,5,6,6,7,7,9,9],"right_children":[2,4,6,-1,-1,8,10,12,-1,14,-1,-1,-1,-1,-1],"split_conditions":[-6.390845E-1,-1.2225532E-2,-2.7952686E-1,8.526316E-2,-6.1378633E-3,5.0449514E-1,1.2393476E0,2.2004224E-1,-5.3859938E-2,8.741665E-1,1.4345641E-2,8.6203985E-2,-6.0698083E-3,-9.351199E-2,-4.766596E-3],"split_indices":[41,349,370,0,0,739,130,618,0,403,0,0,0,0,0],"split_type":[0,0,0,0,0,0,0,0,0,0,0,0,0,0,0],"sum_hessian":[2.297451E1,5.32147E0,1.765304E1,3.9023137E0,1.419156E0,7.96695E0,9.68609E0,6.5539284E0,1.4130216E0,8.087195E0,1.5988948E0,2.87428E0,3.6796484E0,6.7203846E0,1.3668112E0],"tree_param":{"num_deleted":"0","num_feature":"768","num_nodes":"15","size_leaf_vector":"1"}},{"base_weights":[-4.4873472E-2,1.5767811E-1,-7.768029E-2,2.6938894E-1,-7.062766E-2,5.592878E-1,-1.1602337E-1,7.704163E-1,-2.7746005E-2,2.2899322E-1,-6.322109E-1,-1.1331942E-2,9.103662E-1,6.772319E-2,-9.699057E-3,-1.8419666E-2,-7.345097E-2,2.2025185E-2,9.8658E-2],"categories":[],"categories_nodes":[],"categories_segments":[],"categories_sizes":[],"default_left":[0,0,0,0,0,0,0,0,0,0,0,0,0,0,0,0,0,0,0],"id":21,"left_children":[1,3,-1,5,-1,7,9,11,-1,13,15,-1,17,-1,-1,-1,-1,-1,-1],"loss_changes":[3.548255E0,2.0172718E0,0E0,2.0186796E0,0E0,2.0071776E0,1.6291575E0,1.1384916E0,0E0,9.029225E-1,2.9928803E-2,0E0,1.6862297E-1,0E0,0E0,0E0,0E0,0E0,0E0],"parents":[2147483647,0,0,1,1,3,3,5,5,6,6,7,7,9,9,10,10,12,12],"right_children":[2,4,-1,6,-1,8,10,12,-1,14,16,-1,18,-1,-1,-1,-1,-1,-1],"split_conditions":[7.379184E-1,1.2786903E0,-7.768029E-2,1.7604873E-2,-7.062766E-2,1.1606048E0,-3.495618E-1,-1.0063689E0,-2.7746005E-2,1.4244187E0,2.984103E-1,-1.1331942E-2,-9.8612595E-1,6.772319E-2,-9.699057E-3,-1.8419666E-2,-7.345097E-2,2.2025185E-2,9.8658E-2],"split_indices":[370,431,0,28,0,350,306,413,0,303,152,0,501,0,0,0,0,0,0],"split_type":[0,0,0,0,0,0,0,0,0,0,0,0,0,0,0,0,0,0,0],"sum_hessian":[2.2107523E1,1.7930164E1,4.1773586E0,1.6486609E1,1.443556E0,9.151731E0,7.334877E0,7.3711205E0,1.7806106E0,4.72985E0,2.6050267E0,1.0337331E0,6.337387E0,1.5378091E0,3.192041E0,1.0048578E0,1.6001691E0,1.0171387E0,5.3202486E0],"tree_param":{"num_deleted":"0","num_feature":"768","num_nodes":"19","size_leaf_vector":"1"}},{"base_weights":[-4.625277E-2,6.182017E-1,-2.4955106E-1,-1.317327E-2,8.610319E-2,1.5223873E-1,-6.0761636E-1,-4.224844E-2,3.394484E-1,2.4075544E-2,-7.6122296E-1,-6.3516647E-3,7.547101E-2,1.062325E-2,-9.08326E-2],"categories":[],"categories_nodes":[],"categories_segments":[],"categories_sizes":[],"default_left":[0,0,0,0,0,0,0,0,0,0,0,0,0,0,0],"id":22,"left_children":[1,3,5,-1,-1,7,9,-1,11,-1,13,-1,-1,-1,-1],"loss_changes":[3.1561503E0,1.113905E0,2.6430695E0,0E0,0E0,1.1283125E0,1.4310074E0,0E0,1.2961347E0,0E0,1.1616397E0,0E0,0E0,0E0,0E0],"parents":[2147483647,0,0,1,1,2,2,5,5,6,6,8,8,10,10],"right_children":[2,4,6,-1,-1,8,10,-1,12,-1,14,-1,-1,-1,-1],"split_conditions":[-6.6721475E-1,-4.686593E-1,-1.737966E-1,-1.317327E-2,8.610319E-2,-6.9264245E-1,-6.357131E-1,-4.224844E-2,-6.892265E-1,2.4075544E-2,-1.4195513E0,-6.3516647E-3,7.547101E-2,1.062325E-2,-9.08326E-2],"split_indices":[41,527,662,0,0,142,261,0,201,0,761,0,0,0,0],"split_type":[0,0,0,0,0,0,0,0,0,0,0,0,0,0,0],"sum_hessian":[2.1222557E1,4.4939146E0,1.6728643E1,1.2111189E0,3.2827954E0,8.153889E0,8.574755E0,1.6946535E0,6.4592347E0,1.2275614E0,7.3471937E0,3.7080405E0,2.7511945E0,1.1055692E0,6.2416244E0],"tree_param":{"num_deleted":"0","num_feature":"768","num_nodes":"15","size_leaf_vector":"1"}},{"base_weights":[-4.131566E-2,1.4435664E-1,-7.322966E-2,2.89325E-1,-5.1688445E-1,5.9530675E-1,-2.0325412E-1,9.324251E-4,-7.305325E-2,8.6200124E-1,-1.4905757E-1,9.550462E-2,-7.102578E-2,1.7836634E-2,9.437343E-2,3.7518304E-2,-5.9435256E-2,-5.521755E-3,3.27428E-2],"categories":[],"categories_nodes":[],"categories_segments":[],"categories_sizes":[],"default_left":[0,0,0,0,0,0,0,0,0,0,0,0,0,0,0,0,0,0,0],"id":23,"left_children":[1,3,-1,5,7,9,11,-1,-1,13,15,17,-1,-1,-1,-1,-1,-1,-1],"loss_changes":[2.8556638E0,1.8491302E0,0E0,2.409388E0,4.055764E-1,2.038215E0,1.0619577E0,0E0,0E0,2.3564005E-1,1.0143799E0,1.9324857E-1,0E0,0E0,0E0,0E0,0E0,0E0,0E0],"parents":[2147483647,0,0,1,1,3,3,4,4,5,5,6,6,9,9,10,10,11,11],"right_children":[2,4,-1,6,8,10,12,-1,-1,14,16,18,-1,-1,-1,-1,-1,-1,-1],"split_conditions":[7.379184E-1,1.1890883E0,-7.322966E-2,4.0736273E-1,-5.2511066E-1,5.212909E-1,6.72182E-1,9.324251E-4,-7.305325E-2,-9.209939E-1,1.6782466E-1,-7.0937276E-1,-7.102578E-2,1.7836634E-2,9.437343E-2,3.7518304E-2,-5.9435256E-2,-5.521755E-3,3.27428E-2],"split_indices":[370,305,0,349,110,194,335,0,0,493,148,75,0,0,0,0,0,0,0],"split_type":[0,0,0,0,0,0,0,0,0,0,0,0,0,0,0,0,0,0,0],"sum_hessian":[2.043443E1,1.6730019E1,3.7044096E0,1.4183029E1,2.5469897E0,8.619926E0,5.5631027E0,1.0116594E0,1.5353303E0,6.2298346E0,2.3900921E0,4.0111237E0,1.5519791E0,1.0051144E0,5.22472E0,1.170053E0,1.220039E0,2.8929622E0,1.1181612E0],"tree_param":{"num_deleted":"0","num_feature":"768","num_nodes":"19","size_leaf_vector":"1"}},{"base_weights":[-4.329568E-2,5.8532244E-1,-2.3426272E-1,-1.2737567E-2,8.2798034E-2,1.8400332E-2,-7.4926436E-1,-5.1521796E-1,3.3117437E-1,-1.1263449E-2,-8.705111E-2,2.512767E-2,-8.2711935E-2,-2.5063064E-2,9.070798E-2,2.0415759E-2,-4.3342344E-2],"categories":[],"categories_nodes":[],"categories_segments":[],"categories_sizes":[],"default_left":[0,0,0,0,0,0,0,0,0,0,0,0,0,0,0,0,0],"id":24,"left_children":[1,3,5,-1,-1,7,9,11,13,-1,-1,-1,-1,15,-1,-1,-1],"loss_changes":[2.611015E0,9.853215E-1,2.163455E0,0E0,0E0,2.183306E0,3.2350945E-1,1.3667445E0,1.7073973E0,0E0,0E0,0E0,0E0,6.5445936E-1,0E0,0E0,0E0],"parents":[2147483647,0,0,1,1,2,2,5,5,6,6,7,7,8,8,13,13],"right_children":[2,4,6,-1,-1,8,10,12,14,-1,-1,-1,-1,16,-1,-1,-1],"split_conditions":[-6.6721475E-1,-4.686593E-1,3.36405E-1,-1.2737567E-2,8.2798034E-2,-3.8840356E-1,-2.8686795E-1,-2.3908615E-1,-7.343313E-2,-1.1263449E-2,-8.705111E-2,2.512767E-2,-8.2711935E-2,4.0328354E-1,9.070798E-2,2.0415759E-2,-4.3342344E-2],"split_indices":[41,527,486,0,0,661,105,663,115,0,0,0,0,275,0,0,0],"split_type":[0,0,0,0,0,0,0,0,0,0,0,0,0,0,0,0,0],"sum_hessian":[1.960801E1,4.08759E0,1.552042E1,1.1589065E0,2.9286838E0,1.10590515E1,4.461369E0,3.847554E0,7.211497E0,1.0223398E0,3.4390292E0,1.1690346E0,2.6785195E0,5.046418E0,2.1650789E0,3.552427E0,1.4939911E0],"tree_param":{"num_deleted":"0","num_feature":"768","num_nodes":"17","size_leaf_vector":"1"}},{"base_weights":[-4.154141E-2,-7.517911E-2,1.18817784E-1,-3.264849E-1,3.7073338E-1,-6.3640845E-1,3.081162E-2,7.8377885E-1,1.3687713E-2,2.5628617E-3,-8.4122255E-2,9.272512E-2,9.847648E-3,2.1963377E-1,-4.9164813E-2,-1.0263637E-2,6.1685678E-2],"categories":[],"categories_nodes":[],"categories_segments":[],"categories_sizes":[],"default_left":[0,0,0,0,0,0,0,0,0,0,0,0,0,0,0,0,0],"id":25,"left_children":[1,-1,3,5,7,9,-1,11,13,-1,-1,-1,-1,15,-1,-1,-1],"loss_changes":[2.3500154E0,0E0,2.0344028E0,1.5127412E0,1.6648843E0,6.7567396E-1,0E0,4.24886E-1,8.481263E-1,0E0,0E0,0E0,0E0,7.9860413E-1,0E0,0E0,0E0],"parents":[2147483647,0,0,2,2,3,3,4,4,5,5,7,7,8,8,13,13],"right_children":[2,-1,4,6,8,10,-1,12,14,-1,-1,-1,-1,16,-1,-1,-1],"split_conditions":[-8.761047E-1,-7.517911E-2,-3.805145E-1,6.0629416E-1,3.126961E-1,-7.3331666E-1,3.081162E-2,-5.964715E-2,2.4621487E-1,2.5628617E-3,-8.4122255E-2,9.272512E-2,9.847648E-3,-1.6048394E0,-4.9164813E-2,-1.0263637E-2,6.1685678E-2],"split_indices":[696,0,544,505,246,662,0,465,719,0,0,0,0,413,0,0,0],"split_type":[0,0,0,0,0,0,0,0,0,0,0,0,0,0,0,0,0],"sum_hessian":[1.8848875E1,2.7924807E0,1.6056395E1,5.6944675E0,1.0361926E1,3.8240485E0,1.8704194E0,4.2500787E0,6.111848E0,1.1102301E0,2.7138183E0,3.2223957E0,1.027683E0,4.7438827E0,1.3679652E0,3.0284734E0,1.7154093E0],"tree_param":{"num_deleted":"0","num_feature":"768","num_nodes":"17","size_leaf_vector":"1"}},{"base_weights":[-3.9876167E-2,-7.28559E-2,1.136237E-1,-3.8553074E-1,3.192452E-1,-6.1295885E-1,1.982134E-2,-9.729694E-2,6.1761487E-1,-7.249817E-2,-1.3759009E-2,1.6631454E-1,-6.380499E-2,-2.529089E-3,8.375745E-1,3.925767E-2,-5.077732E-4,1.9824054E-2,9.3685925E-2],"categories":[],"categories_nodes":[],"categories_segments":[],"categories_sizes":[],"default_left":[0,0,0,0,0,0,0,0,0,0,0,0,0,0,0,0,0,0,0],"id":26,"left_children":[1,-1,3,5,7,9,-1,11,13,-1,-1,15,-1,-1,17,-1,-1,-1,-1],"loss_changes":[2.1119676E0,0E0,1.8229257E0,8.231242E-1,1.5858982E0,1.1579108E-1,0E0,9.596491E-1,1.0519674E0,0E0,0E0,1.8885577E-1,0E0,0E0,1.608777E-1,0E0,0E0,0E0,0E0],"parents":[2147483647,0,0,2,2,3,3,4,4,5,5,7,7,8,8,11,11,14,14],"right_children":[2,-1,4,6,8,10,-1,12,14,-1,-1,16,-1,-1,18,-1,-1,-1,-1],"split_conditions":[-8.761047E-1,-7.28559E-2,-4.954973E-1,5.304396E-1,-6.150927E-1,2.889525E-1,1.982134E-2,-1.0166626E-3,1.8972388E-2,-7.249817E-2,-1.3759009E-2,2.9756265E0,-6.380499E-2,-2.529089E-3,2.059069E-2,3.925767E-2,-5.077732E-4,1.9824054E-2,9.3685925E-2],"split_indices":[696,0,544,229,326,118,0,597,17,0,0,3,0,0,313,0,0,0,0],"split_type":[0,0,0,0,0,0,0,0,0,0,0,0,0,0,0,0,0,0,0],"sum_hessian":[1.8195288E1,2.633532E0,1.5561755E1,4.2849393E0,1.1276815E1,3.0475569E0,1.2373824E0,4.9876537E0,6.289162E0,2.0413983E0,1.0061586E0,3.8185763E0,1.1690776E0,1.8288258E0,4.460336E0,1.0896145E0,2.7289617E0,1.002369E0,3.4579673E0],"tree_param":{"num_deleted":"0","num_feature":"768","num_nodes":"19","size_leaf_vector":"1"}},{"base_weights":[-3.9796673E-2,5.367268E-1,-2.1321338E-1,-1.3163035E-2,7.815694E-2,2.0952845E-2,-7.024303E-1,-4.668482E-1,2.965371E-1,-1.3086492E-2,-8.21104E-2,2.4438623E-2,-7.771619E-2,-2.5481082E-2,8.457692E-2,1.7721474E-2,-3.9506458E-2],"categories":[],"categories_nodes":[],"categories_segments":[],"categories_sizes":[],"default_left":[0,0,0,0,0,0,0,0,0,0,0,0,0,0,0,0,0],"id":27,"left_children":[1,3,5,-1,-1,7,9,11,13,-1,-1,-1,-1,15,-1,-1,-1],"loss_changes":[1.9770882E0,8.5439396E-1,1.7374456E0,0E0,0E0,1.6361399E0,2.2470355E-1,1.1633327E0,1.3888211E0,0E0,0E0,0E0,0E0,5.0781363E-1,0E0,0E0,0E0],"parents":[2147483647,0,0,1,1,2,2,5,5,6,6,7,7,8,8,13,13],"right_children":[2,4,6,-1,-1,8,10,12,14,-1,-1,-1,-1,16,-1,-1,-1],"split_conditions":[-6.6721475E-1,-4.686593E-1,3.36405E-1,-1.3163035E-2,7.815694E-2,-3.8840356E-1,-2.3667857E-1,-2.3908615E-1,-7.343313E-2,-1.3086492E-2,-8.21104E-2,2.4438623E-2,-7.771619E-2,4.0328354E-1,8.457692E-2,1.7721474E-2,-3.9506458E-2],"split_indices":[41,527,486,0,0,661,105,663,115,0,0,0,0,275,0,0,0],"split_type":[0,0,0,0,0,0,0,0,0,0,0,0,0,0,0,0,0],"sum_hessian":[1.7630457E1,3.5924277E0,1.403803E1,1.0871571E0,2.5052705E0,1.0141107E1,3.8969228E0,3.410421E0,6.7306857E0,1.0315276E0,2.8653953E0,1.1005136E0,2.3099074E0,4.8441415E0,1.8865441E0,3.4645379E0,1.3796035E0],"tree_param":{"num_deleted":"0","num_feature":"768","num_nodes":"17","size_leaf_vector":"1"}},{"base_weights":[-3.83722E-2,5.1658714E-1,-2.0461245E-1,-1.248503E-2,7.6205656E-2,2.0116767E-2,-6.795863E-1,-4.485812E-1,2.8041124E-1,-1.2081081E-2,-8.018216E-2,2.325517E-2,-7.566573E-2,-2.6842905E-2,8.225988E-2,1.6382877E-2,-3.758313E-2],"categories":[],"categories_nodes":[],"categories_segments":[],"categories_sizes":[],"default_left":[0,0,0,0,0,0,0,0,0,0,0,0,0,0,0,0,0],"id":28,"left_children":[1,3,5,-1,-1,7,9,11,13,-1,-1,-1,-1,15,-1,-1,-1],"loss_changes":[1.766097E0,7.930155E-1,1.5683835E0,0E0,0E0,1.450522E0,2.2461677E-1,1.070263E0,1.2876136E0,0E0,0E0,0E0,0E0,4.4866696E-1,0E0,0E0,0E0],"parents":[2147483647,0,0,1,1,2,2,5,5,6,6,7,7,8,8,13,13],"right_children":[2,4,6,-1,-1,8,10,12,14,-1,-1,-1,-1,16,-1,-1,-1],"split_conditions":[-6.6721475E-1,-4.686593E-1,3.36405E-1,-1.248503E-2,7.6205656E-2,-3.8840356E-1,-5.6876516E-1,-2.3908615E-1,-7.343313E-2,-1.2081081E-2,-8.018216E-2,2.325517E-2,-7.566573E-2,-2.7376074E-1,8.225988E-2,1.6382877E-2,-3.758313E-2],"split_indices":[41,527,486,0,0,661,166,663,115,0,0,0,0,306,0,0,0],"split_type":[0,0,0,0,0,0,0,0,0,0,0,0,0,0,0,0,0],"sum_hessian":[1.6997597E1,3.4322512E0,1.3565347E1,1.0859448E0,2.3463063E0,9.858527E0,3.7068193E0,3.2618082E0,6.596719E0,1.0222312E0,2.684588E0,1.0921954E0,2.169613E0,4.8172855E0,1.7794333E0,3.4583557E0,1.3589299E0],"tree_param":{"num_deleted":"0","num_feature":"768","num_nodes":"17","size_leaf_vector":"1"}},{"base_weights":[-3.6979657E-2,-5.983327E-1,1.2019448E-1,-1.0681845E-2,-7.281863E-2,-5.2591976E-2,2.764413E-1,4.617145E-1,-2.7205908E-1,7.195379E-1,-5.094874E-3,-6.7239724E-2,3.2380976E-2,8.583012E-2,1.2961993E-3],"categories":[],"categories_nodes":[],"categories_segments":[],"categories_sizes":[],"default_left":[0,0,0,0,0,0,0,0,0,0,0,0,0,0,0],"id":29,"left_children":[1,3,5,-1,-1,-1,7,9,11,13,-1,-1,-1,-1,-1],"loss_changes":[1.6080884E0,1.7597377E-1,1.6026591E0,0E0,0E0,0E0,1.3734944E0,1.2989237E0,1.1074569E0,6.1837006E-1,0E0,0E0,0E0,0E0,0E0],"parents":[2147483647,0,0,1,1,2,2,6,6,7,7,8,8,9,9],"right_children":[2,4,6,-1,-1,-1,8,10,12,14,-1,-1,-1,-1,-1],"split_conditions":[-6.664989E-1,-7.292861E-1,-6.047836E-1,-1.0681845E-2,-7.281863E-2,-5.2591976E-2,1.0179076E0,9.141903E-1,-1.0968131E-1,8.9803696E-1,-5.094874E-3,-6.7239724E-2,3.2380976E-2,8.583012E-2,1.2961993E-3],"split_indices":[748,217,743,0,0,0,447,702,89,680,0,0,0,0,0],"split_type":[0,0,0,0,0,0,0,0,0,0,0,0,0,0,0],"sum_hessian":[1.6410961E1,2.9758375E0,1.3435123E1,1.0027802E0,1.9730572E0,2.1555414E0,1.1279582E1,8.549832E0,2.72975E0,5.420354E0,3.1294785E0,1.5559461E0,1.1738038E0,4.3511124E0,1.0692415E0],"tree_param":{"num_deleted":"0","num_feature":"768","num_nodes":"15","size_leaf_vector":"1"}},{"base_weights":[-3.9469343E-2,-6.557477E-2,9.3953766E-2,-3.0364844E-1,3.1253457E-1,-5.797785E-1,2.6185116E-2,6.811015E-1,-1.00651495E-2,-1.9024505E-3,-7.6052174E-2,1.7733747E-3,8.592356E-2,1.7970245E-1,-4.7435354E-2,-7.258375E-3,5.2498836E-2],"categories":[],"categories_nodes":[],"categories_segments":[],"categories_sizes":[],"default_left":[0,0,0,0,0,0,0,0,0,0,0,0,0,0,0,0,0],"id":30,"left_children":[1,-1,3,5,7,9,-1,11,13,-1,-1,-1,-1,15,-1,-1,-1],"loss_changes":[1.4458747E0,0E0,1.3736264E0,1.0460309E0,1.1942973E0,4.0704417E-1,0E0,5.373094E-1,6.412851E-1,0E0,0E0,0E0,0E0,4.9153322E-1,0E0,0E0,0E0],"parents":[2147483647,0,0,2,2,3,3,4,4,5,5,7,7,8,8,13,13],"right_children":[2,-1,4,6,8,10,-1,12,14,-1,-1,-1,-1,16,-1,-1,-1],"split_conditions":[-8.761047E-1,-6.557477E-2,-3.805145E-1,6.0629416E-1,4.2198423E-1,-6.6365373E-1,2.6185116E-2,-1.0859451E0,2.4621487E-1,-1.9024505E-3,-7.6052174E-2,1.7733747E-3,8.592356E-2,-1.6048394E0,-4.7435354E-2,-7.258375E-3,5.2498836E-2],"split_indices":[696,0,544,505,246,662,0,651,719,0,0,0,0,413,0,0,0],"split_type":[0,0,0,0,0,0,0,0,0,0,0,0,0,0,0,0,0],"sum_hessian":[1.5834923E1,2.1214044E0,1.3713519E1,4.7265897E0,8.986929E0,3.1588783E0,1.5677114E0,3.6759284E0,5.311001E0,1.0394018E0,2.1194766E0,1.010902E0,2.6650262E0,4.2051783E0,1.1058224E0,2.8861637E0,1.3190144E0],"tree_param":{"num_deleted":"0","num_feature":"768","num_nodes":"17","size_leaf_vector":"1"}},{"base_weights":[-3.8577855E-2,4.5184416E-1,-1.9358242E-1,6.733044E-2,-1.2112315E-2,1.272645E-1,-4.9020687E-1,-1.1642362E-1,5.596615E-2,-6.5949374E-1,2.003362E-2,-4.4067618E-2,8.716352E-3,-7.0225536E-3,-8.172718E-2],"categories":[],"categories_nodes":[],"categories_segments":[],"categories_sizes":[],"default_left":[0,0,0,0,0,0,0,0,0,0,0,0,0,0,0],"id":31,"left_children":[1,3,5,-1,-1,7,9,11,-1,13,-1,-1,-1,-1,-1],"loss_changes":[1.3305423E0,6.1792755E-1,1.311537E0,0E0,0E0,8.131918E-1,9.5348394E-1,3.927792E-1,0E0,4.8890615E-1,0E0,0E0,0E0,0E0,0E0],"parents":[2147483647,0,0,1,1,2,2,5,5,6,6,7,7,9,9],"right_children":[2,4,6,-1,-1,8,10,12,-1,14,-1,-1,-1,-1,-1],"split_conditions":[-6.390845E-1,-1.2225532E-2,-2.7952686E-1,6.733044E-2,-1.2112315E-2,-5.7598118E-2,1.2393476E0,-2.3494486E-2,5.596615E-2,-8.387056E-1,2.003362E-2,-4.4067618E-2,8.716352E-3,-7.0225536E-3,-8.172718E-2],"split_indices":[41,349,370,0,0,720,130,544,0,606,0,0,0,0,0],"split_type":[0,0,0,0,0,0,0,0,0,0,0,0,0,0,0],"sum_hessian":[1.5352429E1,3.2271016E0,1.2125328E1,2.2011905E0,1.025911E0,6.099115E0,6.026213E0,4.3681073E0,1.7310075E0,4.8758583E0,1.1503544E0,1.2356054E0,3.132502E0,1.3350004E0,3.5408583E0],"tree_param":{"num_deleted":"0","num_feature":"768","num_nodes":"15","size_leaf_vector":"1"}},{"base_weights":[-3.54914E-2,-5.4789776E-1,1.06922604E-1,-1.14356065E-2,-6.708753E-2,4.352859E-1,-1.6383593E-1,6.5938324E-1,-2.7828952E-2,-4.5997182E-1,1.6917393E-2,8.31927E-2,-2.0161748E-3,3.1169718E-3,-6.8867646E-2],"categories":[],"categories_nodes":[],"categories_segments":[],"categories_sizes":[],"default_left":[0,0,0,0,0,0,0,0,0,0,0,0,0,0,0],"id":32,"left_children":[1,3,5,-1,-1,7,9,11,-1,13,-1,-1,-1,-1,-1],"loss_changes":[1.2204334E0,1.1660349E-1,1.2533798E0,0E0,0E0,1.188062E0,8.6807185E-1,6.1211157E-1,0E0,5.281088E-1,0E0,0E0,0E0,0E0,0E0],"parents":[2147483647,0,0,1,1,2,2,5,5,6,6,7,7,9,9],"right_children":[2,4,6,-1,-1,8,10,12,-1,14,-1,-1,-1,-1,-1],"split_conditions":[-6.664989E-1,-7.784939E-1,4.2198423E-1,-1.14356065E-2,-6.708753E-2,1.0179076E0,1.1990325E0,9.770896E-2,-2.7828952E-2,7.1029484E-2,1.6917393E-2,8.31927E-2,-2.0161748E-3,3.1169718E-3,-6.8867646E-2],"split_indices":[748,453,246,0,0,447,64,645,0,49,0,0,0,0,0],"split_type":[0,0,0,0,0,0,0,0,0,0,0,0,0,0,0],"sum_hessian":[1.4921468E1,2.6259754E0,1.2295492E1,1.006739E0,1.6192364E0,5.2820344E0,7.0134583E0,4.077459E0,1.2045757E0,3.5104563E0,3.503002E0,3.07296E0,1.0044987E0,1.3897309E0,2.1207254E0],"tree_param":{"num_deleted":"0","num_feature":"768","num_nodes":"15","size_leaf_vector":"1"}},{"base_weights":[-3.748104E-2,-4.9283075E-1,1.1476252E-1,-7.067478E-2,7.7284216E-3,-5.499986E-2,2.407964E-1,-1.6324337E-1,4.9207276E-1,3.8043533E-3,-4.8295777E-2,-1.5727755E-2,6.7007893E-1,7.845608E-2,6.4855046E-3],"categories":[],"categories_nodes":[],"categories_segments":[],"categories_sizes":[],"default_left":[0,0,0,0,0,0,0,0,0,0,0,0,0,0,0],"id":33,"left_children":[1,3,5,-1,-1,-1,7,9,11,-1,-1,-1,13,-1,-1],"loss_changes":[1.1325765E0,5.519734E-1,1.1749821E0,0E0,0E0,0E0,1.2129256E0,3.4197912E-1,9.292196E-1,0E0,0E0,0E0,3.4986973E-1,0E0,0E0],"parents":[2147483647,0,0,1,1,2,2,6,6,7,7,8,8,12,12],"right_children":[2,4,6,-1,-1,-1,8,10,12,-1,-1,-1,14,-1,-1],"split_conditions":[-6.6366196E-1,9.662014E-1,-6.047836E-1,-7.067478E-2,7.7284216E-3,-5.499986E-2,-1.0472659E0,-3.0613926E-1,-8.9971906E-1,3.8043533E-3,-4.8295777E-2,-1.5727755E-2,4.8694316E-1,7.845608E-2,6.4855046E-3],"split_indices":[639,29,743,0,0,0,413,291,625,0,0,0,256,0,0],"split_type":[0,0,0,0,0,0,0,0,0,0,0,0,0,0,0],"sum_hessian":[1.4521565E1,3.0780916E0,1.1443474E1,2.063989E0,1.0141027E0,1.2876923E0,1.0155782E1,4.0284996E0,6.127282E0,3.0127378E0,1.0157621E0,1.3433422E0,4.78394E0,3.7737894E0,1.0101504E0],"tree_param":{"num_deleted":"0","num_feature":"768","num_nodes":"15","size_leaf_vector":"1"}},{"base_weights":[-4.069902E-2,-5.926881E-2,7.7311955E-2,-3.3995903E-1,2.532239E-1,-5.3652257E-2,1.3676654E-2,6.043441E-1,-3.4340207E-2,-1.2036373E-6,7.793827E-2,-4.5357674E-2,1.3478427E-1,5.1017113E-2,-8.102579E-3],"categories":[],"categories_nodes":[],"categories_segments":[],"categories_sizes":[],"default_left":[0,0,0,0,0,0,0,0,0,0,0,0,0,0,0],"id":34,"left_children":[1,-1,3,5,7,-1,-1,9,11,-1,-1,-1,13,-1,-1],"loss_changes":[1.0296024E0,0E0,1.0643208E0,4.8372692E-1,1.0251834E0,0E0,0E0,4.7950745E-1,5.1598716E-1,0E0,0E0,0E0,4.7410506E-1,0E0,0E0],"parents":[2147483647,0,0,2,2,3,3,4,4,7,7,8,8,12,12],"right_children":[2,-1,4,6,8,-1,-1,10,12,-1,-1,-1,14,-1,-1],"split_conditions":[-8.761047E-1,-5.926881E-2,-4.772369E-1,5.304396E-1,4.2198423E-1,-5.3652257E-2,1.3676654E-2,-1.0326436E0,7.50404E-2,-1.2036373E-6,7.793827E-2,-4.5357674E-2,2.2004224E-1,5.1017113E-2,-8.102579E-3],"split_indices":[696,0,544,229,246,0,0,191,562,0,0,0,618,0,0],"split_type":[0,0,0,0,0,0,0,0,0,0,0,0,0,0,0],"sum_hessian":[1.4102377E1,1.7754599E0,1.2326917E1,3.3790667E0,8.94785E0,2.303751E0,1.0753156E0,3.5327318E0,5.415118E0,1.0179578E0,2.5147738E0,1.0731112E0,4.342007E0,1.0870959E0,3.2549114E0],"tree_param":{"num_deleted":"0","num_feature":"768","num_nodes":"15","size_leaf_vector":"1"}},{"base_weights":[-3.904435E-2,4.2030343E-1,-1.69893E-1,-8.070766E-3,6.48623E-2,2.983127E-2,-6.1152846E-1,-3.6448094E-1,2.3193385E-1,-6.9815904E-2,-1.868749E-2,1.9176058E-2,-6.571279E-2,-3.5182174E-2,7.3709466E-2,1.1221614E-2,-3.233008E-2],"categories":[],"categories_nodes":[],"categories_segments":[],"categories_sizes":[],"default_left":[0,0,0,0,0,0,0,0,0,0,0,0,0,0,0,0,0],"id":35,"left_children":[1,3,5,-1,-1,7,9,11,13,-1,-1,-1,-1,15,-1,-1,-1],"loss_changes":[9.579817E-1,4.5936E-1,1.0936725E0,0E0,0E0,8.295752E-1,1.0918975E-2,7.0501524E-1,9.424385E-1,0E0,0E0,0E0,0E0,2.654932E-1,0E0,0E0,0E0],"parents":[2147483647,0,0,1,1,2,2,5,5,6,6,7,7,8,8,13,13],"right_children":[2,4,6,-1,-1,8,10,12,14,-1,-1,-1,-1,16,-1,-1,-1],"split_conditions":[-6.6721475E-1,3.8674003E-1,3.36405E-1,-8.070766E-3,6.48623E-2,-3.8840356E-1,3.1113678E-1,-2.1020582E-1,-7.343313E-2,-6.9815904E-2,-1.868749E-2,1.9176058E-2,-6.571279E-2,2.5833252E-1,7.3709466E-2,1.1221614E-2,-3.233008E-2],"split_indices":[41,455,486,0,0,661,492,663,115,0,0,0,0,310,0,0,0],"split_type":[0,0,0,0,0,0,0,0,0,0,0,0,0,0,0,0,0],"sum_hessian":[1.3750429E1,2.558081E0,1.11923485E1,1.0032102E0,1.5548708E0,8.349047E0,2.843302E0,2.556921E0,5.7921257E0,1.8266023E0,1.0166997E0,1.0003215E0,1.5565994E0,4.3973007E0,1.394825E0,3.312952E0,1.0843486E0],"tree_param":{"num_deleted":"0","num_feature":"768","num_nodes":"17","size_leaf_vector":"1"}},{"base_weights":[-3.7945334E-2,1.5278712E-1,-3.4702307E-1,-2.015707E-1,5.274503E-1,-5.258573E-1,2.522684E-2,6.94595E-3,-5.7538297E-2,7.627513E-2,-1.7645095E-2,-6.4069466E-3,-7.156518E-2],"categories":[],"categories_nodes":[],"categories_segments":[],"categories_sizes":[],"default_left":[0,0,0,0,0,0,0,0,0,0,0,0,0],"id":36,"left_children":[1,3,5,7,9,11,-1,-1,-1,-1,-1,-1,-1],"loss_changes":[9.002458E-1,1.3784175E0,7.531992E-1,6.121632E-1,9.51776E-1,3.7340117E-1,0E0,0E0,0E0,0E0,0E0,0E0,0E0],"parents":[2147483647,0,0,1,1,2,2,3,3,4,4,5,5],"right_children":[2,4,6,8,10,12,-1,-1,-1,-1,-1,-1,-1],"split_conditions":[3.176284E-2,-1.1635119E-1,5.468493E-1,1.574596E-1,8.430944E-1,-2.9665133E-1,2.522684E-2,6.94595E-3,-5.7538297E-2,7.627513E-2,-1.7645095E-2,-6.4069466E-3,-7.156518E-2],"split_indices":[645,313,338,543,204,747,0,0,0,0,0,0,0],"split_type":[0,0,0,0,0,0,0,0,0,0,0,0,0],"sum_hessian":[1.3371647E1,8.581595E0,4.7900515E0,4.6477404E0,3.933855E0,3.7835414E0,1.0065099E0,3.1662538E0,1.4814864E0,2.8856359E0,1.0482192E0,1.4916904E0,2.291851E0],"tree_param":{"num_deleted":"0","num_feature":"768","num_nodes":"13","size_leaf_vector":"1"}},{"base_weights":[-3.8237333E-2,3.1814766E-1,-1.9289054E-1,5.285459E-1,-2.1361018E-2,7.725387E-2,-4.4466364E-1,6.57807E-2,9.729748E-3,5.033172E-2,-1.839131E-2,-6.3239557E-1,1.9780846E-2,-1.5345643E-2,-7.3017366E-2],"categories":[],"categories_nodes":[],"categories_segments":[],"categories_sizes":[],"default_left":[0,0,0,0,0,0,0,0,0,0,0,0,0,0,0],"id":37,"left_children":[1,3,5,7,-1,9,11,-1,-1,-1,-1,13,-1,-1,-1],"loss_changes":[8.3469474E-1,6.301899E-1,7.422074E-1,1.367085E-1,0E0,7.4601865E-1,7.926655E-1,0E0,0E0,0E0,0E0,9.9692464E-2,0E0,0E0,0E0],"parents":[2147483647,0,0,1,1,2,2,3,3,5,5,6,6,11,11],"right_children":[2,4,6,8,-1,10,12,-1,-1,-1,-1,14,-1,-1,-1],"split_conditions":[-3.3372355E-1,6.781579E-1,-3.2905766E-1,2.6890847E-1,-2.1361018E-2,-2.880369E-1,1.2393476E0,6.57807E-2,9.729748E-3,5.033172E-2,-1.839131E-2,-2.8119087E-1,1.9780846E-2,-1.5345643E-2,-7.3017366E-2],"split_indices":[370,698,275,756,0,733,130,0,0,0,0,747,0,0,0],"split_type":[0,0,0,0,0,0,0,0,0,0,0,0,0,0,0],"sum_hessian":[1.3030879E1,3.6235504E0,9.407329E0,2.6006165E0,1.0229341E0,4.872478E0,4.5348506E0,1.596678E0,1.0039383E0,1.4993229E0,3.3731549E0,3.521534E0,1.0133168E0,1.0326784E0,2.4888556E0],"tree_param":{"num_deleted":"0","num_feature":"768","num_nodes":"15","size_leaf_vector":"1"}},{"base_weights":[-3.400644E-2,-3.4150553E-1,1.4635706E-1,-5.5400366E-1,2.0196103E-2,-1.4047359E-1,5.0001603E-1,-6.4770444E-5,-7.330497E-2,-5.465978E-2,1.22171035E-2,-5.8064237E-3,7.305007E-2],"categories":[],"categories_nodes":[],"categories_segments":[],"categories_sizes":[],"default_left":[0,0,0,0,0,0,0,0,0,0,0,0,0],"id":38,"left_children":[1,3,5,7,-1,9,11,-1,-1,-1,-1,-1,-1],"loss_changes":[8.1153154E-1,7.3278517E-1,1.0191826E0,4.0893614E-1,0E0,7.0102316E-1,6.094949E-1,0E0,0E0,0E0,0E0,0E0,0E0],"parents":[2147483647,0,0,1,1,2,2,3,3,5,5,6,6],"right_children":[2,4,6,8,-1,10,12,-1,-1,-1,-1,-1,-1],"split_conditions":[-3.805145E-1,6.0629416E-1,-1.1635119E-1,-6.1438465E-1,2.0196103E-2,3.6696535E-1,-1.0668594E0,-6.4770444E-5,-7.330497E-2,-5.465978E-2,1.22171035E-2,-5.8064237E-3,7.305007E-2],"split_indices":[544,505,313,662,0,554,669,0,0,0,0,0,0],"split_type":[0,0,0,0,0,0,0,0,0,0,0,0,0],"sum_hessian":[1.2731114E1,4.376409E0,8.354705E0,3.1322823E0,1.2441267E0,4.9460626E0,3.4086425E0,1.0110795E0,2.1212027E0,1.5178692E0,3.4281936E0,1.2149411E0,2.1937013E0],"tree_param":{"num_deleted":"0","num_feature":"768","num_nodes":"13","size_leaf_vector":"1"}},{"base_weights":[-3.359171E-2,2.5491562E-1,-2.108833E-1,-2.7094984E-2,4.622546E-1,8.873897E-2,-4.614175E-1,-9.399145E-3,6.569351E-2,3.7215706E-2,-8.158102E-3,-6.3223325E-2,7.185386E-3],"categories":[],"categories_nodes":[],"categories_segments":[],"categories_sizes":[],"default_left":[0,0,0,0,0,0,0,0,0,0,0,0,0],"id":39,"left_children":[1,3,5,-1,7,9,11,-1,-1,-1,-1,-1,-1],"loss_changes":[7.4059355E-1,7.318649E-1,7.063471E-1,0E0,5.3387773E-1,2.657038E-1,4.9987197E-1,0E0,0E0,0E0,0E0,0E0,0E0],"parents":[2147483647,0,0,1,1,2,2,4,4,5,5,6,6],"right_children":[2,4,6,-1,8,10,12,-1,-1,-1,-1,-1,-1],"split_conditions":[-2.0628606E-1,-9.781385E-1,-4.4703063E-1,-2.7094984E-2,-5.7288224E-1,1.185004E0,7.1842134E-1,-9.399145E-3,6.569351E-2,3.7215706E-2,-8.158102E-3,-6.3223325E-2,7.185386E-3],"split_indices":[331,559,315,0,137,182,150,0,0,0,0,0,0],"split_type":[0,0,0,0,0,0,0,0,0,0,0,0,0],"sum_hessian":[1.2427902E1,4.5636396E0,7.864262E0,1.2037703E0,3.3598695E0,3.8753736E0,3.9888885E0,1.005145E0,2.3547244E0,1.00987E0,2.8655035E0,2.8806067E0,1.108282E0],"tree_param":{"num_deleted":"0","num_feature":"768","num_nodes":"13","size_leaf_vector":"1"}},{"base_weights":[-3.0699551E-2,-3.2927212E-1,1.4253087E-1,-5.302608E-1,1.7690863E-2,-1.3818042E-1,4.6284294E-1,-7.042833E-2,-1.7979512E-3,1.0100466E-2,-5.6014877E-2,-5.3819837E-3,6.668673E-2],"categories":[],"categories_nodes":[],"categories_segments":[],"categories_sizes":[],"default_left":[0,0,0,0,0,0,0,0,0,0,0,0,0],"id":40,"left_children":[1,3,5,7,-1,9,11,-1,-1,-1,-1,-1,-1],"loss_changes":[7.2839206E-1,6.1670357E-1,8.7641054E-1,3.3760858E-1,0E0,6.2033045E-1,5.04986E-1,0E0,0E0,0E0,0E0,0E0,0E0],"parents":[2147483647,0,0,1,1,2,2,3,3,5,5,6,6],"right_children":[2,4,6,8,-1,10,12,-1,-1,-1,-1,-1,-1],"split_conditions":[-3.805145E-1,6.0629416E-1,-3.1624082E-1,7.141053E-1,1.7690863E-2,2.3650998E-1,-1.0668594E0,-7.042833E-2,-1.7979512E-3,1.0100466E-2,-5.6014877E-2,-5.3819837E-3,6.668673E-2],"split_indices":[544,505,313,314,0,370,669,0,0,0,0,0,0],"split_type":[0,0,0,0,0,0,0,0,0,0,0,0,0],"sum_hessian":[1.2175487E1,4.1397004E0,8.035787E0,2.929081E0,1.2106194E0,4.5856633E0,3.4501228E0,1.9066072E0,1.0224739E0,3.412171E0,1.1734926E0,1.1851377E0,2.264985E0],"tree_param":{"num_deleted":"0","num_feature":"768","num_nodes":"13","size_leaf_vector":"1"}},{"base_weights":[-3.1420447E-2,3.637796E-1,-1.5053476E-1,-5.530282E-3,5.8409303E-2,3.4104943E-2,-5.193202E-1,-1.9303939E-1,3.6383846E-1,-6.2018014E-2,-1.3127366E-2,5.692642E-3,-5.5364322E-2,6.1685074E-2,-1.4896472E-2],"categories":[],"categories_nodes":[],"categories_segments":[],"categories_sizes":[],"default_left":[0,0,0,0,0,0,0,0,0,0,0,0,0,0,0],"id":41,"left_children":[1,3,5,-1,-1,7,9,11,13,-1,-1,-1,-1,-1,-1],"loss_changes":[6.624349E-1,3.3536148E-1,7.412979E-1,0E0,0E0,6.708775E-1,5.9757233E-2,5.1843035E-1,5.6127423E-1,0E0,0E0,0E0,0E0,0E0,0E0],"parents":[2147483647,0,0,1,1,2,2,5,5,6,6,7,7,8,8],"right_children":[2,4,6,-1,-1,8,10,12,14,-1,-1,-1,-1,-1,-1],"split_conditions":[-6.390845E-1,-5.9097266E-1,3.583537E-1,-5.530282E-3,5.8409303E-2,-8.0829906E-1,-1.04574785E-1,7.762772E-1,3.0930164E-1,-6.2018014E-2,-1.3127366E-2,5.692642E-3,-5.5364322E-2,6.1685074E-2,-1.4896472E-2],"split_indices":[41,534,0,0,0,423,87,524,739,0,0,0,0,0,0],"split_type":[0,0,0,0,0,0,0,0,0,0,0,0,0,0,0],"sum_hessian":[1.1908901E1,2.2823694E0,9.626533E0,1.0444975E0,1.237872E0,7.019568E0,2.606964E0,4.401829E0,2.617739E0,1.5943537E0,1.0126104E0,3.0970976E0,1.3047312E0,1.617018E0,1.000721E0],"tree_param":{"num_deleted":"0","num_feature":"768","num_nodes":"15","size_leaf_vector":"1"}},{"base_weights":[-3.0894905E-2,-3.498238E-1,1.1162931E-1,8.287752E-3,-5.4604214E-2,4.3307173E-1,-1.3249674E-1,6.548517E-2,-6.7182197E-3,8.849945E-3,-4.7017664E-2],"categories":[],"categories_nodes":[],"categories_segments":[],"categories_sizes":[],"default_left":[0,0,0,0,0,0,0,0,0,0,0],"id":42,"left_children":[1,3,5,-1,-1,7,9,-1,-1,-1,-1],"loss_changes":[6.137335E-1,3.973326E-1,8.025624E-1,0E0,0E0,5.2475065E-1,5.015196E-1,0E0,0E0,0E0,0E0],"parents":[2147483647,0,0,1,1,2,2,5,5,6,6],"right_children":[2,4,6,-1,-1,8,10,-1,-1,-1,-1],"split_conditions":[-4.954973E-1,4.3143243E-2,8.867362E-3,8.287752E-3,-5.4604214E-2,5.320949E-1,3.129385E-1,6.548517E-2,-6.7182197E-3,8.849945E-3,-4.7017664E-2],"split_indices":[544,756,663,0,0,284,75,0,0,0,0],"split_type":[0,0,0,0,0,0,0,0,0,0,0],"sum_hessian":[1.1642872E1,3.1467805E0,8.496091E0,1.1619877E0,1.9847928E0,3.333233E0,5.162858E0,2.0952826E0,1.2379506E0,3.5665994E0,1.5962588E0],"tree_param":{"num_deleted":"0","num_feature":"768","num_nodes":"11","size_leaf_vector":"1"}},{"base_weights":[-3.03298E-2,2.3799054E-1,-1.925455E-1,6.126836E-2,-6.004247E-2,2.960735E-2,-4.838176E-1,3.300622E-2,-3.646485E-2,-1.2940265E-2,3.6016382E-2,-5.968665E-3,-6.218052E-2],"categories":[],"categories_nodes":[],"categories_segments":[],"categories_sizes":[],"default_left":[0,0,0,0,0,0,0,0,0,0,0,0,0],"id":43,"left_children":[1,3,5,-1,7,9,11,-1,-1,-1,-1,-1,-1],"loss_changes":[5.8639574E-1,6.0928154E-1,5.509361E-1,0E0,5.678827E-1,3.4342387E-1,1.7626381E-1,0E0,0E0,0E0,0E0,0E0,0E0],"parents":[2147483647,0,0,1,1,2,2,4,4,5,5,6,6],"right_children":[2,4,6,-1,8,10,12,-1,-1,-1,-1,-1,-1],"split_conditions":[-2.0628606E-1,-2.6727802E-1,-2.755352E-1,6.126836E-2,1.4313804E-1,-1.138046E0,2.0349824E-1,3.300622E-2,-3.646485E-2,-1.2940265E-2,3.6016382E-2,-5.968665E-3,-6.218052E-2],"split_indices":[331,246,640,0,353,347,432,0,0,0,0,0,0],"split_type":[0,0,0,0,0,0,0,0,0,0,0,0,0],"sum_hessian":[1.1419578E1,4.1266227E0,7.2929544E0,1.3604635E0,2.7661593E0,4.6470256E0,2.6459289E0,1.1762199E0,1.5899392E0,3.5485647E0,1.0984612E0,1.001176E0,1.6447529E0],"tree_param":{"num_deleted":"0","num_feature":"768","num_nodes":"13","size_leaf_vector":"1"}},{"base_weights":[-2.6779372E-2,3.4463093E-1,-1.3918655E-1,-5.1096845E-3,5.561484E-2,3.6173347E-2,-4.9161014E-1,3.548087E-1,-1.7365734E-1,-1.303329E-2,-5.899479E-2,-1.0647594E-2,5.993072E-2,5.5454453E-3,-5.274086E-2],"categories":[],"categories_nodes":[],"categories_segments":[],"categories_sizes":[],"default_left":[0,0,0,0,0,0,0,0,0,0,0,0,0,0,0],"id":44,"left_children":[1,3,5,-1,-1,7,9,11,13,-1,-1,-1,-1,-1,-1],"loss_changes":[5.5778235E-1,2.8997335E-1,6.4114255E-1,0E0,0E0,5.742062E-1,4.460877E-2,4.441979E-1,4.5831662E-1,0E0,0E0,0E0,0E0,0E0,0E0],"parents":[2147483647,0,0,1,1,2,2,5,5,6,6,7,7,8,8],"right_children":[2,4,6,-1,-1,8,10,12,14,-1,-1,-1,-1,-1,-1],"split_conditions":[-6.390845E-1,-5.9097266E-1,3.3862215E-1,-5.1096845E-3,5.561484E-2,-2.1448906E-1,3.6210924E-1,-8.7574816E-1,-1.1056697E0,-1.303329E-2,-5.899479E-2,-1.0647594E-2,5.993072E-2,5.5454453E-3,-5.274086E-2],"split_indices":[41,534,0,0,0,672,552,551,632,0,0,0,0,0,0],"split_type":[0,0,0,0,0,0,0,0,0,0,0,0,0,0,0],"sum_hessian":[1.1211361E1,2.1247966E0,9.086564E0,1.0042932E0,1.1205033E0,6.666692E0,2.4198725E0,2.3727136E0,4.293978E0,1.0152745E0,1.4045979E0,1.0175185E0,1.355195E0,3.11788E0,1.1760985E0],"tree_param":{"num_deleted":"0","num_feature":"768","num_nodes":"15","size_leaf_vector":"1"}},{"base_weights":[-2.619881E-2,-3.0047628E-1,1.276434E-1,-4.9373522E-1,1.6748695E-2,-1.917848E-2,3.8368922E-1,-6.892465E-3,-6.385924E-2,5.7208717E-1,-1.321425E-2,7.486162E-2,4.1466784E-3],"categories":[],"categories_nodes":[],"categories_segments":[],"categories_sizes":[],"default_left":[0,0,0,0,0,0,0,0,0,0,0,0,0],"id":45,"left_children":[1,3,5,7,-1,-1,9,-1,-1,11,-1,-1,-1],"loss_changes":[5.442251E-1,4.992735E-1,7.591778E-1,1.721794E-1,0E0,0E0,5.6015915E-1,0E0,0E0,3.2863855E-1,0E0,0E0,0E0],"parents":[2147483647,0,0,1,1,2,2,3,3,6,6,9,9],"right_children":[2,4,6,8,-1,-1,10,-1,-1,12,-1,-1,-1],"split_conditions":[-3.805145E-1,6.0629416E-1,-1.2882091E0,-7.15176E-1,1.6748695E-2,-1.917848E-2,4.4189587E-1,-6.892465E-3,-6.385924E-2,3.2672703E-1,-1.321425E-2,7.486162E-2,4.1466784E-3],"split_indices":[544,505,690,375,0,0,374,0,0,620,0,0,0],"split_type":[0,0,0,0,0,0,0,0,0,0,0,0,0],"sum_hessian":[1.0988763E1,3.6062384E0,7.3825245E0,2.5132475E0,1.0929909E0,3.396375E0,3.9861495E0,1.0143522E0,1.4988953E0,2.839879E0,1.1462706E0,1.8226725E0,1.0172065E0],"tree_param":{"num_deleted":"0","num_feature":"768","num_nodes":"13","size_leaf_vector":"1"}},{"base_weights":[-2.4526944E-2,2.8293377E-1,-1.5405497E-1,5.000508E-2,-1.5911032E-2,2.6921244E-2,-4.3592826E-1,-1.426648E-1,4.0190276E-2,-6.0877085E-2,-4.7994917E-3,-4.170301E-2,3.836179E-3],"categories":[],"categories_nodes":[],"categories_segments":[],"categories_sizes":[],"default_left":[0,0,0,0,0,0,0,0,0,0,0,0,0],"id":46,"left_children":[1,3,5,-1,-1,7,9,11,-1,-1,-1,-1,-1],"loss_changes":[5.1271063E-1,4.4850743E-1,4.6755788E-1,0E0,0E0,4.6327648E-1,2.0894825E-1,2.709722E-1,0E0,0E0,0E0,0E0,0E0],"parents":[2147483647,0,0,1,1,2,2,5,5,6,6,7,7],"right_children":[2,4,6,-1,-1,8,10,12,-1,-1,-1,-1,-1],"split_conditions":[-3.3372355E-1,3.8989136E-1,-2.4477777E-1,5.000508E-2,-1.5911032E-2,1.8520016E-2,3.0445784E-1,8.4370095E-1,4.0190276E-2,-6.0877085E-2,-4.7994917E-3,-4.170301E-2,3.836179E-3],"split_indices":[370,341,451,0,0,498,265,100,0,0,0,0,0],"split_type":[0,0,0,0,0,0,0,0,0,0,0,0,0],"sum_hessian":[1.0779682E1,2.8441584E0,7.935523E0,1.8193378E0,1.0248206E0,5.3835297E0,2.5519936E0,4.13363E0,1.2498996E0,1.37161E0,1.1803836E0,1.1249508E0,3.0086792E0],"tree_param":{"num_deleted":"0","num_feature":"768","num_nodes":"13","size_leaf_vector":"1"}},{"base_weights":[-2.5033278E-2,-3.5411748E-1,9.2755176E-2,2.6026822E-3,-5.5744182E-2,-1.24026686E-1,5.6575667E-2,7.887336E-2,-4.9099978E-2,-1.2892443E-2,4.8056852E-2],"categories":[],"categories_nodes":[],"categories_segments":[],"categories_sizes":[],"default_left":[0,0,0,0,0,0,0,0,0,0,0],"id":47,"left_children":[1,3,5,-1,-1,7,-1,9,-1,-1,-1],"loss_changes":[4.8216826E-1,2.6671085E-1,1.0267233E0,0E0,0E0,5.761083E-1,0E0,5.218113E-1,0E0,0E0,0E0],"parents":[2147483647,0,0,1,1,2,2,5,5,7,7],"right_children":[2,4,6,-1,-1,8,-1,10,-1,-1,-1],"split_conditions":[-8.549282E-1,-5.685785E-3,-1.22224905E-1,2.6026822E-3,-5.5744182E-2,-1.7765835E-1,5.6575667E-2,-1.154337E0,-4.9099978E-2,-1.2892443E-2,4.8056852E-2],"split_indices":[633,100,743,0,0,343,0,269,0,0,0],"split_type":[0,0,0,0,0,0,0,0,0,0,0],"sum_hessian":[1.05917225E1,2.262957E0,8.328766E0,1.0924524E0,1.1705046E0,6.21716E0,2.1116056E0,4.5091267E0,1.7080334E0,3.4193423E0,1.0897843E0],"tree_param":{"num_deleted":"0","num_feature":"768","num_nodes":"11","size_leaf_vector":"1"}},{"base_weights":[-2.387057E-2,-3.0689913E-1,1.052089E-1,7.970768E-3,-5.023232E-2,-1.6445944E-2,3.4295657E-1,5.082746E-1,-1.4790902E-2,2.3272743E-3,6.7398585E-2],"categories":[],"categories_nodes":[],"categories_segments":[],"categories_sizes":[],"default_left":[0,0,0,0,0,0,0,0,0,0,0],"id":48,"left_children":[1,3,5,-1,-1,-1,7,9,-1,-1,-1],"loss_changes":[4.475762E-1,3.2832903E-1,6.0467416E-1,0E0,0E0,0E0,4.70286E-1,2.951591E-1,0E0,0E0,0E0],"parents":[2147483647,0,0,1,1,2,2,6,6,7,7],"right_children":[2,4,6,-1,-1,-1,8,10,-1,-1,-1],"split_conditions":[-4.772369E-1,-2.3309739E-1,-1.1472725E0,7.970768E-3,-5.023232E-2,-1.6445944E-2,7.179341E-1,-7.0117795E-1,-1.4790902E-2,2.3272743E-3,6.7398585E-2],"split_indices":[544,28,690,0,0,0,729,78,0,0,0],"split_type":[0,0,0,0,0,0,0,0,0,0,0],"sum_hessian":[1.0367412E1,2.8157678E0,7.5516443E0,1.1442438E0,1.6715238E0,3.682726E0,3.8689184E0,2.8676574E0,1.001261E0,1.0207063E0,1.8469511E0],"tree_param":{"num_deleted":"0","num_feature":"768","num_nodes":"11","size_leaf_vector":"1"}},{"base_weights":[-2.1983605E-2,3.119312E-1,-1.2838022E-1,4.4916596E-2,1.872457E-3,4.3297388E-2,-4.8116952E-2,3.4205254E-2,-1.4048071E-1,7.052902E-3,-4.9142778E-2],"categories":[],"categories_nodes":[],"categories_segments":[],"categories_sizes":[],"default_left":[0,0,0,0,0,0,0,0,0,0,0],"id":49,"left_children":[1,3,5,-1,-1,7,-1,-1,9,-1,-1],"loss_changes":[4.3829957E-1,1.12315595E-1,5.786146E-1,0E0,0E0,4.3855092E-1,0E0,0E0,4.1324818E-1,0E0,0E0],"parents":[2147483647,0,0,1,1,2,2,5,5,8,8],"right_children":[2,4,6,-1,-1,8,-1,-1,10,-1,-1],"split_conditions":[-6.1708367E-1,-4.5823287E-2,3.583537E-1,4.4916596E-2,1.872457E-3,-2.1448906E-1,-4.8116952E-2,3.4205254E-2,-1.1056697E0,7.052902E-3,-4.9142778E-2],"split_indices":[41,508,0,0,0,672,0,0,632,0,0],"split_type":[0,0,0,0,0,0,0,0,0,0,0],"sum_hessian":[1.0209762E1,2.000288E0,8.209474E0,1.0002253E0,1.0000626E0,6.1123137E0,2.0971599E0,1.9999347E0,4.112379E0,3.0672207E0,1.0451586E0],"tree_param":{"num_deleted":"0","num_feature":"768","num_nodes":"11","size_leaf_vector":"1"}},{"base_weights":[-2.100477E-2,-4.1234896E-2,7.0494875E-2,4.1179407E-1,-1.3258868E-1,5.790004E-2,9.5957296E-4,5.944789E-2,-4.831631E-2,-1.0735723E-2,3.6316153E-2],"categories":[],"categories_nodes":[],"categories_segments":[],"categories_sizes":[],"default_left":[0,0,0,0,0,0,0,0,0,0,0],"id":50,"left_children":[1,-1,3,5,7,-1,-1,9,-1,-1,-1],"loss_changes":[4.2504445E-1,0E0,7.350224E-1,2.5710523E-1,4.939961E-1,0E0,0E0,3.1030717E-1,0E0,0E0,0E0],"parents":[2147483647,0,0,2,2,3,3,4,4,7,7],"right_children":[2,-1,4,6,8,-1,-1,10,-1,-1,-1],"split_conditions":[-7.165061E-1,-4.1234896E-2,-2.0628606E-1,2.7025223E-1,3.5167223E-1,5.790004E-2,9.5957296E-4,-8.789245E-1,-4.831631E-2,-1.0735723E-2,3.6316153E-2],"split_indices":[289,0,331,100,0,0,0,614,0,0,0],"split_type":[0,0,0,0,0,0,0,0,0,0,0],"sum_hessian":[1.0058355E1,1.2415745E0,8.816781E0,2.9057362E0,5.9110446E0,1.74196E0,1.1637762E0,4.3555837E0,1.5554608E0,3.2287908E0,1.1267929E0],"tree_param":{"num_deleted":"0","num_feature":"768","num_nodes":"11","size_leaf_vector":"1"}},{"base_weights":[-1.9627258E-2,1.18624784E-1,-2.6687175E-1,-1.3348325E-1,4.3117473E-1,-5.1835388E-2,7.92236E-3,-4.494419E-2,5.7561244E-3,5.833425E-2,1.304826E-3],"categories":[],"categories_nodes":[],"categories_segments":[],"categories_sizes":[],"default_left":[0,0,0,0,0,0,0,0,0,0,0],"id":51,"left_children":[1,3,5,7,9,-1,-1,-1,-1,-1,-1],"loss_changes":[4.040105E-1,6.6261834E-1,4.0787354E-1,3.2852602E-1,2.255649E-1,0E0,0E0,0E0,0E0,0E0,0E0],"parents":[2147483647,0,0,1,1,2,2,3,3,4,4],"right_children":[2,4,6,8,10,-1,-1,-1,-1,-1,-1],"split_conditions":[3.176284E-2,-1.1635119E-1,7.50404E-2,6.428345E-1,6.90694E-1,-5.1835388E-2,7.92236E-3,-4.494419E-2,5.7561244E-3,5.833425E-2,1.304826E-3],"split_indices":[645,313,562,376,204,0,0,0,0,0,0],"split_type":[0,0,0,0,0,0,0,0,0,0,0],"sum_hessian":[9.893228E0,6.6788297E0,3.2143977E0,4.013995E0,2.6648343E0,1.5734019E0,1.6409957E0,1.0028623E0,3.011133E0,1.6640913E0,1.0007428E0],"tree_param":{"num_deleted":"0","num_feature":"768","num_nodes":"11","size_leaf_vector":"1"}},{"base_weights":[-2.0134104E-2,-3.303578E-1,8.9000426E-2,-4.477594E-2,-4.7653955E-3,-1.484397E-1,4.4863537E-1,2.5993826E-2,-4.6421222E-2,1.4119777E-3,6.1490245E-2,1.4689835E-2,-4.4149216E-3],"categories":[],"categories_nodes":[],"categories_segments":[],"categories_sizes":[],"default_left":[0,0,0,0,0,0,0,0,0,0,0,0,0],"id":52,"left_children":[1,3,5,-1,-1,7,9,11,-1,-1,-1,-1,-1],"loss_changes":[3.9309552E-1,7.8492165E-2,8.1244934E-1,0E0,0E0,3.432386E-1,2.602216E-1,4.7361575E-2,0E0,0E0,0E0,0E0,0E0],"parents":[2147483647,0,0,1,1,2,2,5,5,6,6,7,7],"right_children":[2,4,6,-1,-1,8,10,12,-1,-1,-1,-1,-1],"split_conditions":[-8.549282E-1,9.740407E-2,-4.150858E-1,-4.477594E-2,-4.7653955E-3,3.970383E-2,-1.414265E-1,-3.440375E-1,-4.6421222E-2,1.4119777E-3,6.1490245E-2,1.4689835E-2,-4.4149216E-3],"split_indices":[633,17,743,0,0,518,94,408,0,0,0,0,0],"split_type":[0,0,0,0,0,0,0,0,0,0,0,0,0],"sum_hessian":[9.74233E0,2.007833E0,7.734496E0,1.0061511E0,1.001682E0,5.0124187E0,2.7220774E0,3.8199503E0,1.1924684E0,1.0535903E0,1.6684872E0,1.0007331E0,2.8192172E0],"tree_param":{"num_deleted":"0","num_feature":"768","num_nodes":"13","size_leaf_vector":"1"}},{"base_weights":[-2.0442693E-2,-3.1628776E-1,9.2941366E-2,3.3148992E-4,-4.6881057E-2,-1.130566E-1,3.1805173E-1,-4.240115E-2,6.5919445E-3,-1.3340674E-2,4.9762776E-1,1.3264626E-2,6.0093798E-2],"categories":[],"categories_nodes":[],"categories_segments":[],"categories_sizes":[],"default_left":[0,0,0,0,0,0,0,0,0,0,0,0,0],"id":53,"left_children":[1,3,5,-1,-1,7,9,-1,-1,-1,11,-1,-1],"loss_changes":[3.844275E-1,1.5557396E-1,4.266171E-1,0E0,0E0,3.138259E-1,4.1399664E-1,0E0,0E0,0E0,4.3924928E-2,0E0,0E0],"parents":[2147483647,0,0,1,1,2,2,5,5,6,6,10,10],"right_children":[2,4,6,-1,-1,8,10,-1,-1,-1,12,-1,-1],"split_conditions":[-5.4990447E-1,2.2808622E-1,-3.1624082E-1,3.3148992E-4,-4.6881057E-2,4.9850512E-1,1.836514E-1,-4.240115E-2,6.5919445E-3,-1.3340674E-2,-1.09480314E-1,1.3264626E-2,6.0093798E-2],"split_indices":[544,756,313,0,0,554,362,0,0,0,54,0,0],"split_type":[0,0,0,0,0,0,0,0,0,0,0,0,0],"sum_hessian":[9.584011E0,2.159598E0,7.424413E0,1.0137048E0,1.1458932E0,4.1367006E0,3.2877126E0,1.01103E0,3.125671E0,1.008762E0,2.2789505E0,1.0066276E0,1.272323E0],"tree_param":{"num_deleted":"0","num_feature":"768","num_nodes":"13","size_leaf_vector":"1"}},{"base_weights":[-2.0750346E-2,-2.622041E-1,1.09702E-1,1.027555E-2,-4.53912E-2,-1.4317349E-2,3.403447E-1,4.9985358E-1,-8.264379E-3,1.1200493E-2,6.259107E-2],"categories":[],"categories_nodes":[],"categories_segments":[],"categories_sizes":[],"default_left":[0,0,0,0,0,0,0,0,0,0,0],"id":54,"left_children":[1,3,5,-1,-1,-1,7,9,-1,-1,-1],"loss_changes":[3.576423E-1,3.2352293E-1,4.8521128E-1,0E0,0E0,0E0,3.2536384E-1,8.630079E-2,0E0,0E0,0E0],"parents":[2147483647,0,0,1,1,2,2,6,6,7,7],"right_children":[2,4,6,-1,-1,-1,8,10,-1,-1,-1],"split_conditions":[-3.805145E-1,-2.3309739E-1,-1.2882091E0,1.027555E-2,-4.53912E-2,-1.4317349E-2,4.189563E-1,-1.2776875E-1,-8.264379E-3,1.1200493E-2,6.259107E-2],"split_indices":[544,28,690,0,0,0,374,760,0,0,0],"split_type":[0,0,0,0,0,0,0,0,0,0,0],"sum_hessian":[9.441164E0,2.9573867E0,6.4837775E0,1.1782736E0,1.7791132E0,3.273724E0,3.2100532E0,2.1990666E0,1.0109867E0,1.0026548E0,1.1964117E0],"tree_param":{"num_deleted":"0","num_feature":"768","num_nodes":"11","size_leaf_vector":"1"}},{"base_weights":[-1.726535E-2,-3.650638E-2,7.224996E-2,4.1978225E-2,-5.885817E-2,-3.2486174E-1,1.3177067E-1,4.8878347E-4,-4.8346404E-2,4.2139653E-2,-4.5580594E-3],"categories":[],"categories_nodes":[],"categories_segments":[],"categories_sizes":[],"default_left":[0,0,0,0,0,0,0,0,0,0,0],"id":55,"left_children":[1,-1,3,-1,5,7,9,-1,-1,-1,-1],"loss_changes":[3.4773746E-1,0E0,4.3679297E-1,0E0,4.2026436E-1,1.7997515E-1,2.784831E-1,0E0,0E0,0E0,0E0],"parents":[2147483647,0,0,2,2,4,4,5,5,6,6],"right_children":[2,-1,4,-1,6,8,10,-1,-1,-1,-1],"split_conditions":[-6.664989E-1,-3.650638E-2,-2.6727802E-1,4.1978225E-2,8.05298E-2,-1.18355274E-1,9.113794E-1,4.8878347E-4,-4.8346404E-2,4.2139653E-2,-4.5580594E-3],"split_indices":[748,0,246,0,54,353,472,0,0,0,0],"split_type":[0,0,0,0,0,0,0,0,0,0,0],"sum_hessian":[9.322124E0,1.2780852E0,8.044039E0,1.6002926E0,6.4437456E0,2.396087E0,4.047659E0,1.0929402E0,1.3031468E0,1.0146368E0,3.0330222E0],"tree_param":{"num_deleted":"0","num_feature":"768","num_nodes":"11","size_leaf_vector":"1"}},{"base_weights":[-1.623211E-2,1.1374254E-1,-2.537791E-1,-1.14057645E-1,4.062892E-1,-4.4124316E-2,1.2354399E-2,2.9595736E-3,-3.346116E-2,3.7461028E-3,5.570482E-2],"categories":[],"categories_nodes":[],"categories_segments":[],"categories_sizes":[],"default_left":[0,0,0,0,0,0,0,0,0,0,0],"id":56,"left_children":[1,3,5,7,9,-1,-1,-1,-1,-1,-1],"loss_changes":[3.434732E-1,5.312693E-1,3.3130333E-1,1.6425854E-1,1.684528E-1,0E0,0E0,0E0,0E0,0E0,0E0],"parents":[2147483647,0,0,1,1,2,2,3,3,4,4],"right_children":[2,4,6,8,10,-1,-1,-1,-1,-1,-1],"split_conditions":[3.176284E-2,-1.1635119E-1,2.906013E-1,-1.2261516E0,-5.0076115E-1,-4.4124316E-2,1.2354399E-2,2.9595736E-3,-3.346116E-2,3.7461028E-3,5.570482E-2],"split_indices":[645,313,338,392,210,0,0,0,0,0,0],"split_type":[0,0,0,0,0,0,0,0,0,0,0],"sum_hessian":[9.189694E0,6.276607E0,2.9130878E0,3.8718202E0,2.4047868E0,1.8330008E0,1.0800871E0,2.8689797E0,1.0028404E0,1.0600019E0,1.344785E0],"tree_param":{"num_deleted":"0","num_feature":"768","num_nodes":"11","size_leaf_vector":"1"}},{"base_weights":[-1.5043429E-2,7.712053E-2,-3.4020614E-2,-2.816614E-2,2.1290159E-1,-6.928749E-3,5.030933E-1,1.0581677E-2,6.2498268E-2],"categories":[],"categories_nodes":[],"categories_segments":[],"categories_sizes":[],"default_left":[0,0,0,0,0,0,0,0,0],"id":57,"left_children":[1,3,-1,-1,5,-1,7,-1,-1],"loss_changes":[3.2807764E-1,4.8198485E-1,0E0,0E0,5.961261E-1,0E0,1.0335672E-1,0E0,0E0],"parents":[2147483647,0,0,1,1,4,4,6,6],"right_children":[2,4,-1,-1,6,-1,8,-1,-1],"split_conditions":[6.7972517E-1,-8.321433E-1,-3.4020614E-2,-2.816614E-2,-8.437674E-1,-6.928749E-3,-6.1945933E-1,1.0581677E-2,6.2498268E-2],"split_indices":[44,633,0,0,269,0,497,0,0],"split_type":[0,0,0,0,0,0,0,0,0],"sum_hessian":[9.072008E0,7.662872E0,1.409136E0,1.8088546E0,5.854017E0,3.353871E0,2.500146E0,1.0255822E0,1.4745637E0],"tree_param":{"num_deleted":"0","num_feature":"768","num_nodes":"9","size_leaf_vector":"1"}},{"base_weights":[-1.3144205E-2,-2.4766709E-1,1.1087239E-1,6.969586E-3,-4.5651954E-2,-1.1981312E-2,3.2889915E-1,-5.754981E-3,4.8884667E-2],"categories":[],"categories_nodes":[],"categories_segments":[],"categories_sizes":[],"default_left":[0,0,0,0,0,0,0,0,0],"id":58,"left_children":[1,3,5,-1,-1,-1,7,-1,-1],"loss_changes":[3.1645128E-1,2.8011695E-1,4.010369E-1,0E0,0E0,0E0,2.7312225E-1,0E0,0E0],"parents":[2147483647,0,0,1,1,2,2,6,6],"right_children":[2,4,6,-1,-1,-1,8,-1,-1],"split_conditions":[-3.805145E-1,-8.073145E-2,-1.2882091E0,6.969586E-3,-4.5651954E-2,-1.1981312E-2,-8.825999E-1,-5.754981E-3,4.8884667E-2],"split_indices":[544,28,690,0,0,0,669,0,0],"split_type":[0,0,0,0,0,0,0,0,0],"sum_hessian":[8.936205E0,2.7461054E0,6.1900992E0,1.3543645E0,1.3917409E0,3.226613E0,2.9634862E0,1.0549117E0,1.9085746E0],"tree_param":{"num_deleted":"0","num_feature":"768","num_nodes":"9","size_leaf_vector":"1"}},{"base_weights":[-1.2692801E-2,-2.4912131E-1,1.0633716E-1,-4.634659E-2,1.1771378E-2,4.6004746E-2,-4.899778E-2,9.6542224E-2,-3.4735564E-2,-8.7666104E-4,2.46554E-2],"categories":[],"categories_nodes":[],"categories_segments":[],"categories_sizes":[],"default_left":[0,0,0,0,0,0,0,0,0,0,0],"id":59,"left_children":[1,3,5,-1,-1,-1,7,9,-1,-1,-1],"loss_changes":[3.032824E-1,3.3704746E-1,4.204867E-1,0E0,0E0,0E0,2.9131117E-1,7.755629E-2,0E0,0E0,0E0],"parents":[2147483647,0,0,1,1,2,2,6,6,7,7],"right_children":[2,4,6,-1,-1,-1,8,10,-1,-1,-1],"split_conditions":[-1.01567276E-1,1.2566623E-1,-1.8331517E-1,-4.634659E-2,1.1771378E-2,4.6004746E-2,-2.4477777E-1,-1.6488912E0,-3.4735564E-2,-8.7666104E-4,2.46554E-2],"split_indices":[188,491,246,0,0,0,451,131,0,0,0],"split_type":[0,0,0,0,0,0,0,0,0,0,0],"sum_hessian":[8.8355055E0,2.5927038E0,6.2428017E0,1.4702234E0,1.1224804E0,1.3063922E0,4.9364095E0,3.772562E0,1.1638476E0,2.7697484E0,1.0028136E0],"tree_param":{"num_deleted":"0","num_feature":"768","num_nodes":"11","size_leaf_vector":"1"}},{"base_weights":[-1.1558365E-2,-2.9192073E-2,8.6900406E-2,-1.1127253E-1,4.0485048E-1,4.3978044E-3,-4.174728E-2,4.6056286E-3,5.423772E-2],"categories":[],"categories_nodes":[],"categories_segments":[],"categories_sizes":[],"default_left":[0,0,0,0,0,0,0,0,0],"id":60,"left_children":[1,-1,3,5,7,-1,-1,-1,-1],"loss_changes":[2.9373136E-1,0E0,5.4695815E-1,2.8892273E-1,1.3657784E-1,0E0,0E0,0E0,0E0],"parents":[2147483647,0,0,2,2,3,3,4,4],"right_children":[2,-1,4,6,8,-1,-1,-1,-1],"split_conditions":[-8.549282E-1,-2.9192073E-2,-4.150858E-1,3.970383E-2,1.933404E-2,4.3978044E-3,-4.174728E-2,4.6056286E-3,5.423772E-2],"split_indices":[633,0,743,518,94,0,0,0,0],"split_type":[0,0,0,0,0,0,0,0,0],"sum_hessian":[8.721852E0,1.7561877E0,6.965665E0,4.6915393E0,2.274126E0,3.6813731E0,1.0101659E0,1.0000305E0,1.2740955E0],"tree_param":{"num_deleted":"0","num_feature":"768","num_nodes":"9","size_leaf_vector":"1"}},{"base_weights":[-1.1250174E-2,-2.634768E-1,9.47829E-2,1.5481723E-3,-4.2016763E-2,3.4825927E-1,-7.1532615E-2,5.14732E-2,7.05247E-4,-3.570399E-2,9.325247E-3],"categories":[],"categories_nodes":[],"categories_segments":[],"categories_sizes":[],"default_left":[0,0,0,0,0,0,0,0,0,0,0],"id":61,"left_children":[1,3,5,-1,-1,7,9,-1,-1,-1,-1],"loss_changes":[2.8208336E-1,1.4243852E-1,3.412476E-1,0E0,0E0,1.7491305E-1,2.8549063E-1,0E0,0E0,0E0,0E0],"parents":[2147483647,0,0,1,1,2,2,5,5,6,6],"right_children":[2,4,6,-1,-1,8,10,-1,-1,-1,-1],"split_conditions":[-4.954973E-1,2.8270143E-1,8.867362E-3,1.5481723E-3,-4.2016763E-2,1.6566427E-1,4.436678E-2,5.14732E-2,7.05247E-4,-3.570399E-2,9.325247E-3],"split_indices":[544,756,663,0,0,353,506,0,0,0,0],"split_type":[0,0,0,0,0,0,0,0,0,0,0],"sum_hessian":[8.613625E0,2.109881E0,6.5037436E0,1.0829996E0,1.0268813E0,2.1432755E0,4.360468E0,1.0986753E0,1.0446004E0,1.1687635E0,3.1917045E0],"tree_param":{"num_deleted":"0","num_feature":"768","num_nodes":"11","size_leaf_vector":"1"}},{"base_weights":[-1.1757593E-2,1.00613944E-1,-2.3807785E-1,-1.301875E-1,4.54906E-2,-5.1033717E-2,1.6560148E-2,-3.8641136E-2,2.9143717E-3],"categories":[],"categories_nodes":[],"categories_segments":[],"categories_sizes":[],"default_left":[0,0,0,0,0,0,0,0,0],"id":62,"left_children":[1,3,5,7,-1,-1,-1,-1,-1],"loss_changes":[2.6589027E-1,6.3650715E-1,4.640522E-1,2.1752255E-1,0E0,0E0,0E0,0E0,0E0],"parents":[2147483647,0,0,1,1,2,2,3,3],"right_children":[2,4,6,8,-1,-1,-1,-1,-1],"split_conditions":[4.376104E-1,-8.0829906E-1,-1.2160084E-2,6.325528E-1,4.54906E-2,-5.1033717E-2,1.6560148E-2,-3.8641136E-2,2.9143717E-3],"split_indices":[739,423,54,764,0,0,0,0,0],"split_type":[0,0,0,0,0,0,0,0,0],"sum_hessian":[8.5130825E0,6.0597553E0,2.4533274E0,4.052391E0,2.0073643E0,1.3073667E0,1.1459607E0,1.0073087E0,3.045082E0],"tree_param":{"num_deleted":"0","num_feature":"768","num_nodes":"9","size_leaf_vector":"1"}},{"base_weights":[-1.3427573E-2,-2.6851092E-2,8.173341E-2,-8.2837805E-2,3.055528E-1,7.7883573E-3,-3.763492E-2,5.487516E-4,4.873941E-2],"categories":[],"categories_nodes":[],"categories_segments":[],"categories_sizes":[],"default_left":[0,0,0,0,0,0,0,0,0],"id":63,"left_children":[1,-1,3,5,7,-1,-1,-1,-1],"loss_changes":[2.4980554E-1,0E0,3.0536875E-1,2.7311522E-1,1.84751E-1,0E0,0E0,0E0,0E0],"parents":[2147483647,0,0,2,2,3,3,4,4],"right_children":[2,-1,4,6,8,-1,-1,-1,-1],"split_conditions":[-5.4990447E-1,-2.6851092E-2,1.8053883E-1,-1.0657369E0,-6.88376E-2,7.7883573E-3,-3.763492E-2,5.487516E-4,4.873941E-2],"split_indices":[544,0,362,192,54,0,0,0,0],"split_type":[0,0,0,0,0,0,0,0,0],"sum_hessian":[8.386973E0,1.7837913E0,6.6031823E0,4.168231E0,2.434951E0,3.1680918E0,1.0001395E0,1.3075219E0,1.1274292E0],"tree_param":{"num_deleted":"0","num_feature":"768","num_nodes":"9","size_leaf_vector":"1"}},{"base_weights":[-1.2952982E-2,1.9706015E-1,-1.2970787E-1,3.7896175E-2,-1.0520743E-2,3.536895E-2,-3.9478388E-2,2.0345114E-2,-5.985718E-3],"categories":[],"categories_nodes":[],"categories_segments":[],"categories_sizes":[],"default_left":[0,0,0,0,0,0,0,0,0],"id":64,"left_children":[1,3,5,-1,-1,7,-1,-1,-1],"loss_changes":[2.5372016E-1,2.4449681E-1,3.020381E-1,0E0,0E0,9.180213E-2,0E0,0E0,0E0],"parents":[2147483647,0,0,1,1,2,2,5,5],"right_children":[2,4,6,-1,-1,8,-1,-1,-1],"split_conditions":[-2.0628606E-1,4.8538458E-1,-2.755352E-1,3.7896175E-2,-1.0520743E-2,1.0461214E0,-3.9478388E-2,2.0345114E-2,-5.985718E-3],"split_indices":[331,545,640,0,0,652,0,0,0],"split_type":[0,0,0,0,0,0,0,0,0],"sum_hessian":[8.305032E0,2.7216487E0,5.5833826E0,1.5407261E0,1.1809226E0,3.9746985E0,1.6086842E0,1.0264399E0,2.9482586E0],"tree_param":{"num_deleted":"0","num_feature":"768","num_nodes":"9","size_leaf_vector":"1"}},{"base_weights":[-1.1520596E-2,9.740265E-2,-2.3472981E-1,-1.2013729E-1,4.351304E-2,-4.861481E-2,1.4315783E-2,3.278754E-3,-3.4534413E-2],"categories":[],"categories_nodes":[],"categories_segments":[],"categories_sizes":[],"default_left":[0,0,0,0,0,0,0,0,0],"id":65,"left_children":[1,3,5,7,-1,-1,-1,-1,-1],"loss_changes":[2.473176E-1,5.600276E-1,3.8510808E-1,1.8307848E-1,0E0,0E0,0E0,0E0,0E0],"parents":[2147483647,0,0,1,1,2,2,3,3],"right_children":[2,4,6,8,-1,-1,-1,-1,-1],"split_conditions":[4.376104E-1,-8.0829906E-1,-1.2160084E-2,-2.5499162E-1,4.351304E-2,-4.861481E-2,1.4315783E-2,3.278754E-3,-3.4534413E-2],"split_indices":[739,423,54,640,0,0,0,0,0],"split_type":[0,0,0,0,0,0,0,0,0],"sum_hessian":[8.231988E0,5.911082E0,2.320906E0,3.9871345E0,1.9239473E0,1.2216336E0,1.0992724E0,2.8835175E0,1.103617E0],"tree_param":{"num_deleted":"0","num_feature":"768","num_nodes":"9","size_leaf_vector":"1"}},{"base_weights":[-1.2967782E-2,-2.7150998E-2,7.872805E-2,-1.0322974E-1,3.8461253E-1,-3.1745452E-2,5.6052655E-3,4.831332E-2,9.340226E-3],"categories":[],"categories_nodes":[],"categories_segments":[],"categories_sizes":[],"default_left":[0,0,0,0,0,0,0,0,0],"id":66,"left_children":[1,-1,3,5,7,-1,-1,-1,-1],"loss_changes":[2.3760429E-1,0E0,4.5758942E-1,2.0533282E-1,4.128954E-2,0E0,0E0,0E0,0E0],"parents":[2147483647,0,0,2,2,3,3,4,4],"right_children":[2,-1,4,6,8,-1,-1,-1,-1],"split_conditions":[-8.549282E-1,-2.7150998E-2,-4.150858E-1,2.3155083E-1,3.165104E-1,-3.1745452E-2,5.6052655E-3,4.831332E-2,9.340226E-3],"split_indices":[633,0,743,684,37,0,0,0,0],"split_type":[0,0,0,0,0,0,0,0,0],"sum_hessian":[8.120792E0,1.6126994E0,6.5080934E0,4.4960833E0,2.0120099E0,1.4938797E0,3.0022037E0,1.0109411E0,1.0010687E0],"tree_param":{"num_deleted":"0","num_feature":"768","num_nodes":"9","size_leaf_vector":"1"}},{"base_weights":[-1.1248976E-2,1.8992998E-1,-1.220855E-1,3.935949E-2,-5.618272E-3,-3.1726205E-1,6.496618E-3,-4.885986E-2,-7.117978E-4],"categories":[],"categories_nodes":[],"categories_segments":[],"categories_sizes":[],"default_left":[0,0,0,0,0,0,0,0,0],"id":67,"left_children":[1,3,5,-1,-1,7,-1,-1,-1],"loss_changes":[2.2472562E-1,2.0266016E-1,2.5559306E-1,0E0,0E0,1.7293155E-1,0E0,0E0,0E0],"parents":[2147483647,0,0,1,1,2,2,5,5],"right_children":[2,4,6,-1,-1,8,-1,-1,-1],"split_conditions":[-2.0628606E-1,1.4313804E-1,1.0804472E0,3.935949E-2,-5.618272E-3,-3.0046108E-1,6.496618E-3,-4.885986E-2,-7.117978E-4],"split_indices":[331,353,64,0,0,761,0,0,0],"split_type":[0,0,0,0,0,0,0,0,0],"sum_hessian":[8.038396E0,2.6019685E0,5.4364276E0,1.0958644E0,1.506104E0,2.3197725E0,3.116655E0,1.1236365E0,1.1961361E0],"tree_param":{"num_deleted":"0","num_feature":"768","num_nodes":"9","size_leaf_vector":"1"}},{"base_weights":[-1.1308579E-2,1.6146125E-1,-1.3813849E-1,-1.8450292E-2,3.672965E-1,-4.2908564E-2,4.9447226E-3,4.5770463E-2,9.318105E-3],"categories":[],"categories_nodes":[],"categories_segments":[],"categories_sizes":[],"default_left":[0,0,0,0,0,0,0,0,0],"id":68,"left_children":[1,3,5,-1,7,-1,-1,-1,-1],"loss_changes":[2.188832E-1,3.710464E-1,3.3298048E-1,0E0,3.1810194E-2,0E0,0E0,0E0,0E0],"parents":[2147483647,0,0,1,1,2,2,4,4],"right_children":[2,4,6,-1,8,-1,-1,-1,-1],"split_conditions":[1.7604873E-2,-7.8483045E-1,-1.05958715E-1,-1.8450292E-2,3.7580475E-1,-4.2908564E-2,4.9447226E-3,4.5770463E-2,9.318105E-3],"split_indices":[28,633,544,0,335,0,0,0,0],"split_type":[0,0,0,0,0,0,0,0,0],"sum_hessian":[7.9711466E0,3.258843E0,4.7123036E0,1.254291E0,2.004552E0,1.3425637E0,3.36974E0,1.0037472E0,1.0008047E0],"tree_param":{"num_deleted":"0","num_feature":"768","num_nodes":"9","size_leaf_vector":"1"}},{"base_weights":[-1.0421121E-2,-1.2872279E-1,1.7295608E-1,-3.9368115E-2,6.080333E-3,-1.0944658E-2,3.9022554E-2],"categories":[],"categories_nodes":[],"categories_segments":[],"categories_sizes":[],"default_left":[0,0,0,0,0,0,0],"id":69,"left_children":[1,3,5,-1,-1,-1,-1],"loss_changes":[2.1511625E-1,3.2408136E-1,2.8278562E-1,0E0,0E0,0E0,0E0],"parents":[2147483647,0,0,1,1,2,2],"right_children":[2,4,6,-1,-1,-1,-1],"split_conditions":[-1.1613681E-1,2.6634368E-1,-2.1783446E-1,-3.9368115E-2,6.080333E-3,-1.0944658E-2,3.9022554E-2],"split_indices":[87,506,559,0,0,0,0],"split_type":[0,0,0,0,0,0,0],"sum_hessian":[7.889757E0,4.977001E0,2.9127562E0,1.6262748E0,3.3507261E0,1.4823236E0,1.4304326E0],"tree_param":{"num_deleted":"0","num_feature":"768","num_nodes":"7","size_leaf_vector":"1"}},{"base_weights":[-1.0057078E-2,2.5573878E-2,-9.19222E-2,4.6147883E-2,-3.8158428E-2,-1.3187622E-2,3.6287628E-2],"categories":[],"categories_nodes":[],"categories_segments":[],"categories_sizes":[],"default_left":[0,0,0,0,0,0,0],"id":70,"left_children":[1,-1,3,5,-1,-1,-1],"loss_changes":[2.154056E-1,0E0,3.1668186E-1,3.8369924E-1,0E0,0E0,0E0],"parents":[2147483647,0,0,2,2,3,3],"right_children":[2,-1,4,6,-1,-1,-1],"split_conditions":[-6.1708367E-1,2.5573878E-2,4.376104E-1,-8.0829906E-1,-3.8158428E-2,-1.3187622E-2,3.6287628E-2],"split_indices":[41,0,739,423,0,0,0],"split_type":[0,0,0,0,0,0,0],"sum_hessian":[7.819059E0,1.341061E0,6.4779983E0,4.956243E0,1.521755E0,3.5464907E0,1.4097524E0],"tree_param":{"num_deleted":"0","num_feature":"768","num_nodes":"7","size_leaf_vector":"1"}},{"base_weights":[-7.939128E-3,1.8818499E-1,-1.1408753E-1,-1.0743515E-2,4.103634E-2,6.912257E-3,-3.8613174E-2],"categories":[],"categories_nodes":[],"categories_segments":[],"categories_sizes":[],"default_left":[0,0,0,0,0,0,0],"id":71,"left_children":[1,3,5,-1,-1,-1,-1],"loss_changes":[2.0344104E-1,2.704862E-1,3.4039018E-1,0E0,0E0,0E0,0E0],"parents":[2147483647,0,0,1,1,2,2],"right_children":[2,4,6,-1,-1,-1,-1],"split_conditions":[-2.77622E-1,-4.8572847E-1,-2.7952686E-1,-1.0743515E-2,4.103634E-2,6.912257E-3,-3.8613174E-2],"split_indices":[747,325,370,0,0,0,0],"split_type":[0,0,0,0,0,0,0],"sum_hessian":[7.740955E0,2.4469755E0,5.2939796E0,1.2715532E0,1.1754222E0,3.6092312E0,1.6847482E0],"tree_param":{"num_deleted":"0","num_feature":"768","num_nodes":"7","size_leaf_vector":"1"}},{"base_weights":[-7.3864236E-3,1.5647125E-1,-1.325919E-1,-1.0487017E-2,4.3952882E-2,-4.153085E-2,2.8479386E-3],"categories":[],"categories_nodes":[],"categories_segments":[],"categories_sizes":[],"default_left":[0,0,0,0,0,0,0],"id":72,"left_children":[1,3,5,-1,-1,-1,-1],"loss_changes":[1.9860895E-1,3.5780907E-1,2.6026547E-1,0E0,0E0,0E0,0E0],"parents":[2147483647,0,0,1,1,2,2],"right_children":[2,4,6,-1,-1,-1,-1],"split_conditions":[6.4338244E-2,-4.3192717E-1,1.4707394E-1,-1.0487017E-2,4.3952882E-2,-4.153085E-2,2.8479386E-3],"split_indices":[663,301,637,0,0,0,0],"split_type":[0,0,0,0,0,0,0],"sum_hessian":[7.669486E0,3.2138164E0,4.45567E0,1.9983183E0,1.2154981E0,1.0442898E0,3.4113798E0],"tree_param":{"num_deleted":"0","num_feature":"768","num_nodes":"7","size_leaf_vector":"1"}},{"base_weights":[-7.2932173E-3,1.6055341E-1,-1.2728453E-1,-1.2109141E-2,3.8665164E-2,-4.0290434E-2,4.4358703E-3],"categories":[],"categories_nodes":[],"categories_segments":[],"categories_sizes":[],"default_left":[0,0,0,0,0,0,0],"id":73,"left_children":[1,3,5,-1,-1,-1,-1],"loss_changes":[1.9364673E-1,3.0328354E-1,2.8151473E-1,0E0,0E0,0E0,0E0],"parents":[2147483647,0,0,1,1,2,2],"right_children":[2,4,6,-1,-1,-1,-1],"split_conditions":[1.7604873E-2,1.8724938E-1,-1.05958715E-1,-1.2109141E-2,3.8665164E-2,-4.0290434E-2,4.4358703E-3],"split_indices":[28,390,544,0,0,0,0],"split_type":[0,0,0,0,0,0,0],"sum_hessian":[7.600277E0,3.0274155E0,4.572861E0,1.5549204E0,1.4724951E0,1.2378389E0,3.3350224E0],"tree_param":{"num_deleted":"0","num_feature":"768","num_nodes":"7","size_leaf_vector":"1"}},{"base_weights":[-7.710304E-3,1.8228468E-1,-1.107549E-1,3.484355E-2,-9.310385E-3,1.2061183E-2,-3.6623023E-2,1.8893406E-2,-7.855249E-3],"categories":[],"categories_nodes":[],"categories_segments":[],"categories_sizes":[],"default_left":[0,0,0,0,0,0,0,0,0],"id":74,"left_children":[1,3,5,-1,-1,7,-1,-1,-1],"loss_changes":[1.872936E-1,1.870653E-1,1.9757149E-1,0E0,0E0,9.698854E-2,0E0,0E0,0E0],"parents":[2147483647,0,0,1,1,2,2,5,5],"right_children":[2,4,6,-1,-1,8,-1,-1,-1],"split_conditions":[-2.0628606E-1,4.8538458E-1,3.5167223E-1,3.484355E-2,-9.310385E-3,1.0706866E0,-3.6623023E-2,1.8893406E-2,-7.855249E-3],"split_indices":[331,545,0,0,0,709,0,0,0],"split_type":[0,0,0,0,0,0,0,0,0],"sum_hessian":[7.535349E0,2.3793268E0,5.156022E0,1.3185514E0,1.0607754E0,4.1255245E0,1.0304973E0,1.0299903E0,3.0955343E0],"tree_param":{"num_deleted":"0","num_feature":"768","num_nodes":"9","size_leaf_vector":"1"}},{"base_weights":[-6.9940323E-3,2.4046926E-2,-8.324054E-2,-3.8449254E-2,4.441691E-2,3.0915517E-2,-1.0857719E-2],"categories":[],"categories_nodes":[],"categories_segments":[],"categories_sizes":[],"default_left":[0,0,0,0,0,0,0],"id":75,"left_children":[1,-1,3,-1,5,-1,-1],"loss_changes":[1.8002902E-1,0E0,2.949639E-1,0E0,2.754397E-1,0E0,0E0],"parents":[2147483647,0,0,2,2,4,4],"right_children":[2,-1,4,-1,6,-1,-1],"split_conditions":[-6.1708367E-1,2.4046926E-2,-6.170317E-1,-3.8449254E-2,9.9058324E-1,3.0915517E-2,-1.0857719E-2],"split_indices":[41,0,625,0,709,0,0],"split_type":[0,0,0,0,0,0,0],"sum_hessian":[7.4805207E0,1.2546449E0,6.225876E0,1.2542142E0,4.9716616E0,1.4470361E0,3.5246255E0],"tree_param":{"num_deleted":"0","num_feature":"768","num_nodes":"7","size_leaf_vector":"1"}},{"base_weights":[-5.6924517E-3,7.267668E-2,-2.4593325E-2,3.1248352E-1,-8.5310906E-2,4.695806E-2,-1.2040716E-4,5.6338464E-3,-3.1393476E-2],"categories":[],"categories_nodes":[],"categories_segments":[],"categories_sizes":[],"default_left":[0,0,0,0,0,0,0,0,0],"id":76,"left_children":[1,3,-1,5,7,-1,-1,-1,-1],"loss_changes":[1.7639057E-1,2.964252E-1,0E0,1.5049252E-1,1.8213499E-1,0E0,0E0,0E0,0E0],"parents":[2147483647,0,0,1,1,3,3,4,4],"right_children":[2,4,-1,6,8,-1,-1,-1,-1],"split_conditions":[9.109981E-1,6.4338244E-2,-2.4593325E-2,-3.041665E-1,-1.4088017E0,4.695806E-2,-1.2040716E-4,5.6338464E-3,-3.1393476E-2],"split_indices":[578,663,0,732,705,0,0,0,0],"split_type":[0,0,0,0,0,0,0,0,0],"sum_hessian":[7.419453E0,6.1203976E0,1.2990556E0,2.0423892E0,4.0780087E0,1.0297257E0,1.0126634E0,2.9832442E0,1.0947645E0],"tree_param":{"num_deleted":"0","num_feature":"768","num_nodes":"9","size_leaf_vector":"1"}},{"base_weights":[-5.5358354E-3,-2.3388393E-2,7.658921E-2,-8.396964E-3,2.826829E-1,-2.8764305E-3,4.406016E-2],"categories":[],"categories_nodes":[],"categories_segments":[],"categories_sizes":[],"default_left":[0,0,0,0,0,0,0],"id":77,"left_children":[1,-1,3,-1,5,-1,-1],"loss_changes":[1.745365E-1,0E0,2.5192612E-1,0E0,1.7246044E-1,0E0,0E0],"parents":[2147483647,0,0,2,2,4,4],"right_children":[2,-1,4,-1,6,-1,-1],"split_conditions":[-5.4990447E-1,-2.3388393E-2,-3.1624082E-1,-8.396964E-3,-3.6872575E-1,-2.8764305E-3,4.406016E-2],"split_indices":[544,0,313,0,448,0,0],"split_type":[0,0,0,0,0,0,0],"sum_hessian":[7.3518734E0,1.4558878E0,5.8959856E0,3.6471846E0,2.248801E0,1.0317794E0,1.2170217E0],"tree_param":{"num_deleted":"0","num_feature":"768","num_nodes":"7","size_leaf_vector":"1"}},{"base_weights":[-3.8139478E-3,7.937875E-2,-2.2420071E-2,2.9254344E-1,-9.450252E-3,-2.457553E-3,4.7396205E-2],"categories":[],"categories_nodes":[],"categories_segments":[],"categories_sizes":[],"default_left":[0,0,0,0,0,0,0],"id":78,"left_children":[1,3,-1,5,-1,-1,-1],"loss_changes":[1.7003699E-1,2.784489E-1,0E0,2.0058236E-1,0E0,0E0,0E0],"parents":[2147483647,0,0,1,1,3,3],"right_children":[2,4,-1,6,-1,-1,-1],"split_conditions":[4.35472E-1,1.8734972E-1,-2.2420071E-2,-4.5607987E-1,-9.450252E-3,-2.457553E-3,4.7396205E-2],"split_indices":[374,148,0,744,0,0,0],"split_type":[0,0,0,0,0,0,0],"sum_hessian":[7.303452E0,5.766504E0,1.5369481E0,2.2840307E0,3.4824734E0,1.1457685E0,1.138262E0],"tree_param":{"num_deleted":"0","num_feature":"768","num_nodes":"7","size_leaf_vector":"1"}},{"base_weights":[-1.7860744E-3,-2.0601999E-2,9.00656E-2,-4.151726E-2,3.536173E-2,-2.5773257E-2,7.4254214E-3],"categories":[],"categories_nodes":[],"categories_segments":[],"categories_sizes":[],"default_left":[0,0,0,0,0,0,0],"id":79,"left_children":[1,-1,3,5,-1,-1,-1],"loss_changes":[1.733411E-1,0E0,2.3618603E-1,1.4818087E-1,0E0,0E0,0E0],"parents":[2147483647,0,0,2,2,3,3],"right_children":[2,-1,4,6,-1,-1,-1],"split_conditions":[-3.103143E-1,-2.0601999E-2,-6.176188E-3,1.4802942E-1,3.536173E-2,-2.5773257E-2,7.4254214E-3],"split_indices":[559,0,87,506,0,0,0],"split_type":[0,0,0,0,0,0,0],"sum_hessian":[7.251181E0,1.8638694E0,5.387312E0,4.155216E0,1.2320956E0,1.0214094E0,3.133807E0],"tree_param":{"num_deleted":"0","num_feature":"768","num_nodes":"7","size_leaf_vector":"1"}},{"base_weights":[-2.0349792E-3,8.738232E-2,-1.9747509E-2,-9.338457E-2,3.873412E-2,-7.638502E-4,-2.0725677E-2],"categories":[],"categories_nodes":[],"categories_segments":[],"categories_sizes":[],"default_left":[0,0,0,0,0,0,0],"id":80,"left_children":[1,3,-1,5,-1,-1,-1],"loss_changes":[1.6061865E-1,3.7894958E-1,0E0,4.4799086E-2,0E0,0E0,0E0],"parents":[2147483647,0,0,1,1,3,3],"right_children":[2,4,-1,6,-1,-1,-1],"split_conditions":[4.376104E-1,-8.0829906E-1,-1.9747509E-2,-4.790014E-1,3.873412E-2,-7.638502E-4,-2.0725677E-2],"split_indices":[739,423,0,710,0,0,0],"split_type":[0,0,0,0,0,0,0],"sum_hessian":[7.2035413E0,5.3216753E0,1.8818659E0,3.7502837E0,1.5713916E0,2.7480638E0,1.00222E0],"tree_param":{"num_deleted":"0","num_feature":"768","num_nodes":"7","size_leaf_vector":"1"}},{"base_weights":[-2.0999068E-3,6.785208E-2,-2.420297E-2,-7.331512E-2,2.9586596E-2,5.766104E-3,-2.844405E-2],"categories":[],"categories_nodes":[],"categories_segments":[],"categories_sizes":[],"default_left":[0,0,0,0,0,0,0],"id":81,"left_children":[1,3,-1,5,-1,-1,-1],"loss_changes":[1.5329611E-1,2.5007647E-1,0E0,1.5974101E-1,0E0,0E0,0E0],"parents":[2147483647,0,0,1,1,3,3],"right_children":[2,4,-1,6,-1,-1,-1],"split_conditions":[8.039648E-1,-1.6010763E-1,